是 0.088422 -0.220535 0.042321 0.280248 0.158567 0.022675 0.104318 0.164016 0.175014 0.483962 0.128477 0.111126 0.031500 -0.000157 -0.097737 0.247697 -0.179488 -0.240289 -0.136103 -0.168298 -0.147298 0.021108 0.120252 0.076418 0.274915 0.074118 -0.109737 0.132861 0.303832 0.025579 -0.001565 0.046626 -0.174546 0.069820 -0.233192 -0.319214 0.102713 0.376593 -0.278854 -0.190161 0.064110 0.152048 0.481907 0.112520 -0.237646 0.036225 -0.054809 -0.675327 -0.004792 -0.201795 -0.314029 -0.002380 -0.308852 0.154706 -0.015906 -0.025239 -0.115753 0.012128 0.177280 0.193762 0.064173 0.136234 0.119523 -0.144031 0.001965 -0.019349 -0.090950 0.130274 -0.212409 -0.300901 -0.271812 0.048882 0.046211 0.264830 -0.007732 0.212248 0.170197 -0.036245 0.126349 0.037053 0.014784 0.282051 0.090078 0.191075 0.188490 -0.240984 0.005043 -0.012079 -0.339504 -0.255159 0.253130 -0.122627 0.070942 -0.228254 0.148199 0.088679 -0.028714 -0.072517 -0.252825 0.140066 0.037613 0.168659 0.053629 0.064994 -0.262946 0.252412 -0.095863 -0.409000 0.020319 -0.120344 -0.248578 -0.148610 0.120841 -0.206529 0.099486 -0.144703 0.096828 -0.118727 -0.185494 -0.068001 -0.054437 -0.155130 -0.012420 0.233209 0.015379 0.168919 -0.135505 0.030401 -0.111819 -0.008094 -0.198661 -0.005637 0.229044 -0.131276 -0.294233 0.013832 -0.035503 -0.125856 -0.158669 -0.120601 -0.322779 -0.117246 -0.162126 -0.140845 0.118956 -0.244393 0.266027 -0.039224 -0.294961 0.162399 -0.046758 -0.109945 -0.273991 -0.052170 -0.081680 0.060395 0.223162 0.063811 0.086414 -0.239465 0.311980 -0.043291 -0.100374 0.136088 0.180767 -0.064107 -0.222279 0.027649 -0.062463 0.141550 -0.009524 -0.122633 0.078290 0.118104 0.068727 -0.020049 -0.064007 0.141176 0.123716 -0.040491 -0.147908 -0.171939 0.018413 0.055367 0.191712 0.042501 -0.071932 0.301518 -0.111157 0.064090 0.038439 0.139372 0.075114 -0.148898 0.236133 0.344508 0.014930 -0.195834 -0.292445 0.097225
多少 0.046052 -0.321239 -0.258945 0.054390 0.134139 -0.070225 0.147648 0.093743 0.095063 0.134304 -0.035229 -0.025359 0.238349 0.067543 0.387855 -0.082130 0.061393 -0.214138 0.187526 -0.210251 -0.018255 0.280954 -0.110493 0.103403 -0.022023 0.135852 -0.414822 0.072940 0.357100 -0.277214 0.062498 -0.379587 -0.192570 0.191756 -0.259187 0.000036 0.027666 0.127764 -0.273220 -0.297370 -0.229169 0.089312 0.281794 0.205140 -0.039566 0.287581 -0.183912 -0.634326 0.043375 -0.084698 -0.130149 0.012053 -0.411194 0.220841 0.021955 0.343489 0.253264 0.120852 0.121387 0.185426 0.047811 0.219144 0.170777 -0.192183 0.064693 -0.129113 0.022908 0.032767 -0.094167 -0.076620 -0.730085 0.103663 0.173535 0.286002 -0.066799 0.443291 0.404809 0.253945 0.132779 -0.355191 0.200939 0.131975 -0.244876 0.066272 0.499158 -0.059642 -0.104876 0.049748 -0.132092 -0.344025 0.109011 0.233379 -0.217103 -0.072108 -0.044339 -0.022213 0.051636 -0.074280 0.108832 -0.323839 0.138224 0.236508 -0.001665 -0.146593 -0.523427 0.183013 -0.184528 -0.110255 -0.236967 0.058476 0.024538 -0.158156 -0.123985 0.008355 0.044327 -0.245940 -0.241307 -0.204388 -0.273507 -0.157291 0.155759 -0.521340 -0.228004 0.243550 0.257307 0.294262 -0.243485 0.175888 -0.170193 0.273523 0.104232 0.019969 0.279759 -0.116389 -0.406899 -0.305587 -0.544551 -0.072463 -0.169820 -0.188708 -0.335296 -0.176391 -0.376136 0.154774 0.198985 -0.079022 -0.146692 0.077694 0.032830 0.379273 0.116956 -0.104811 -0.065854 0.070311 -0.348170 -0.020732 0.174998 0.412592 -0.057706 -0.188183 0.282120 -0.205437 -0.034215 0.234079 0.060276 0.367416 -0.072970 0.363954 0.207301 0.083240 -0.362566 0.045447 -0.222550 -0.031205 0.136824 0.247012 -0.155195 0.238131 0.090990 0.100337 0.058503 -0.157453 -0.175875 -0.190846 -0.108728 0.005197 -0.472426 0.095839 0.069391 0.034404 -0.048485 0.054452 -0.131948 -0.065403 -0.048730 0.387006 0.280575 -0.210893 -0.015669 0.242314
办理 0.299924 -0.109685 -0.224101 -0.046934 0.014207 -0.005138 -0.155488 0.172796 -0.420716 -0.111796 -0.122724 0.256930 0.223109 -0.310640 0.134515 0.038134 -0.137576 -0.038517 0.221756 0.013420 -0.164684 0.057919 -0.269841 0.224497 0.420155 0.291826 -0.201412 0.322137 0.356681 0.301869 0.048236 0.166081 0.293675 0.258473 -0.055211 0.318549 0.040467 -0.098100 0.189656 -0.069467 0.171256 0.290612 0.666929 0.322563 0.038215 -0.314771 -0.497712 -0.442114 -0.039167 -0.072954 -0.226189 -0.237929 -0.014139 0.119012 0.227748 0.091575 -0.017486 0.588584 0.047735 -0.282531 0.110991 0.235668 0.041596 0.372130 -0.137836 -0.464778 -0.287353 -0.202190 0.098902 -0.088632 0.054184 0.011186 0.119940 0.226965 0.257969 0.053643 0.175399 0.280011 0.065261 0.002164 0.055669 0.055987 0.115864 0.803760 -0.390549 -0.123972 0.074864 -0.077706 -0.122938 -0.308166 0.357314 0.368315 -0.183899 -0.550588 -0.001898 -0.035318 0.129798 -0.269592 0.058193 -0.438961 -0.415211 -0.116401 0.090409 -0.187374 -0.348439 0.436876 -0.323282 -0.218414 -0.240046 0.316450 0.122847 0.279222 -0.281381 0.215601 0.096588 0.142780 -0.154702 -0.362991 0.072593 -0.605138 -0.159626 -0.108006 0.049244 -0.358515 0.149063 0.349166 -0.527514 0.368781 -0.261624 -0.034504 -0.327872 -0.079085 -0.339302 -0.130610 -0.276301 -0.248001 0.038491 0.107440 -0.247969 0.279746 -0.030592 -0.209184 -0.299227 -0.499588 0.088257 -0.044056 -0.235180 0.226890 0.347966 -0.613093 -0.361101 0.402754 -0.124128 -0.025465 -0.302977 0.452216 0.736009 -0.205407 0.458542 0.118876 -0.004838 -0.141389 -0.088991 0.334009 0.432807 -0.383426 -0.054872 0.523363 0.181780 -0.106495 0.665783 -0.332325 -0.322453 0.207447 0.230164 0.057071 -0.403719 0.209624 0.110618 0.177805 0.024719 0.028871 -0.033283 0.045882 0.302662 0.021267 0.063568 0.397581 0.072754 -0.306664 0.567050 -0.044594 0.169205 -0.045708 0.082644 0.387380 0.007273 -0.130518 -0.676084 0.187058
个人 0.273819 -0.210282 0.114854 0.320452 0.127640 0.040393 0.092236 -0.023288 0.230653 -0.117340 -0.097297 0.012359 0.070454 -0.216456 -0.220334 -0.218457 0.088778 -0.111491 -0.406862 -0.286478 -0.160294 0.137198 -0.017853 0.361682 0.114853 0.358395 -0.082969 0.410840 0.267150 -0.449373 0.119204 0.152652 0.065019 0.075794 -0.288096 0.057022 0.005525 0.180033 -0.302798 -0.234548 0.016954 -0.470000 0.648808 -0.207892 -0.270141 0.274790 -0.516964 -0.524670 -0.102531 -0.033853 -0.111722 -0.329892 -0.298259 0.175234 -0.055248 -0.075042 -0.019656 -0.017009 0.344302 0.246445 0.357826 0.014084 0.307353 -0.193678 -0.229296 -0.157022 -0.511934 0.300329 -0.077149 -0.021429 0.021313 0.009042 0.125811 0.128453 0.113657 0.184887 0.003793 0.192999 0.405672 -0.035678 0.469982 0.350788 0.115700 -0.164815 -0.002948 -0.390447 0.062765 0.159338 -0.501201 -0.298917 0.402575 0.057589 -0.101450 -0.074190 -0.181617 0.005059 0.222559 -0.096008 0.072848 0.407834 0.293129 0.018400 0.074582 0.023396 -0.033419 0.276363 -0.214361 -0.155388 -0.142776 -0.092285 -0.105882 -0.177791 -0.173824 -0.324295 -0.097070 0.110650 -0.243888 -0.170530 -0.222899 -0.631059 0.264458 -0.472880 -0.282209 -0.059286 0.284958 0.009164 -0.277007 0.087629 -0.178948 0.117613 0.053894 -0.048896 0.035494 0.030188 -0.328729 -0.358961 0.018015 0.147163 -0.172148 0.000927 -0.490862 -0.309106 -0.322462 0.084189 0.215235 -0.088458 0.259950 -0.256274 0.097696 -0.003300 -0.163601 0.321726 -0.117084 -0.121641 -0.002055 -0.136609 0.231391 0.168760 0.101328 -0.334623 0.260241 0.041691 0.021104 0.487592 0.346660 0.035339 -0.240196 0.125547 0.162541 0.054314 0.168344 -0.162515 0.078208 0.497516 -0.014531 0.202525 -0.308699 -0.213849 0.144751 -0.158854 -0.301812 -0.100302 -0.032552 0.253298 0.001984 -0.015831 -0.038983 0.321089 0.056779 -0.071989 -0.000010 -0.156924 0.053361 -0.168496 0.469603 0.243852 0.015897 -0.336027 -0.165461 -0.035436
如何 0.198362 -0.255274 -0.520928 0.123666 0.068052 -0.081075 0.191944 0.351532 -0.066272 0.244694 -0.100452 -0.176200 0.374665 -0.093484 -0.105211 0.010544 0.009170 0.018043 -0.035346 -0.281257 -0.120765 0.006756 0.005073 0.078967 0.023832 -0.003057 -0.291086 -0.063589 0.225038 0.001221 0.039718 -0.049609 -0.186135 0.226849 -0.047760 -0.418524 0.067138 0.199100 -0.250318 -0.062064 -0.022173 -0.213752 0.395617 0.031901 -0.204088 0.233338 -0.308944 -0.493821 -0.099185 -0.096337 -0.206712 0.020999 -0.392444 0.107114 0.013698 0.062727 0.225434 0.313665 0.185134 -0.004077 0.044898 0.031982 0.238521 -0.120072 -0.065914 -0.134190 -0.023300 0.119288 -0.210140 0.051135 -0.345668 0.315215 0.191942 0.059278 0.066533 0.130329 -0.067436 0.037978 0.382493 -0.033164 0.338361 0.006447 0.031262 0.334480 0.497186 0.009458 0.009433 -0.011586 -0.251040 -0.443021 0.057079 -0.100967 -0.105121 0.068831 0.059748 -0.219303 0.186139 -0.078937 -0.084832 -0.050752 0.053122 0.123198 -0.062804 0.053775 -0.504463 0.404967 -0.083123 -0.327493 -0.168384 0.111710 -0.096017 -0.276609 -0.156354 -0.108099 0.071382 -0.233025 -0.116913 0.107325 -0.106933 -0.205200 0.286054 -0.425426 -0.032010 0.253116 0.160093 0.218554 -0.079091 -0.243792 -0.129395 0.091462 -0.174784 0.217879 0.168399 -0.087586 -0.532660 -0.051392 -0.199629 -0.278272 -0.330334 -0.062275 -0.383647 -0.272802 -0.149270 -0.069926 0.035242 -0.214657 0.231176 0.216260 0.174917 0.175539 0.011361 -0.036092 -0.065606 -0.057453 -0.098602 -0.048833 0.378295 0.233306 -0.148878 0.206707 0.257888 -0.138453 0.220965 0.362131 0.243790 -0.138234 -0.108772 0.188492 0.183848 -0.072440 0.043778 -0.012303 0.163794 0.129180 -0.014693 -0.085647 0.148378 0.177123 -0.065493 0.290127 0.385256 -0.068375 0.065867 0.190807 -0.218156 0.012158 -0.486617 0.010608 0.178032 0.230045 0.446732 0.018897 -0.151096 0.053148 -0.074563 0.158862 0.057715 -0.479677 -0.113455 0.330023
2014 0.038229 -0.412658 -0.010757 0.130537 0.365547 0.247876 -0.013826 0.346340 -0.022322 0.284540 0.233107 0.469300 0.131798 0.010166 0.368555 -0.170782 0.151168 -0.206814 -0.506552 0.190611 -0.352239 -0.067898 0.207063 -0.299882 0.353994 0.151724 0.122284 0.142996 -0.145501 0.009441 -0.013230 0.345676 0.148177 -0.259757 -0.084152 -0.746411 0.480566 -0.400224 0.053887 -0.171327 -0.004391 -0.081242 0.382638 0.209204 0.082209 0.282335 0.167877 -0.477435 0.151177 0.323065 0.016138 0.312018 -0.263693 0.243953 0.297189 -0.485420 -0.017596 0.083355 0.157069 0.072802 0.577216 0.337417 0.284750 0.167247 -0.183486 -0.411897 -0.155037 0.181514 0.230436 0.130156 0.069331 0.043396 0.203623 0.000849 -0.528356 -0.034435 0.096113 0.387083 -0.030149 -0.253830 0.131815 0.254540 -0.059450 0.120591 -0.013295 0.060582 -0.269848 0.276635 -0.234160 -0.106435 0.348293 0.227844 -0.069196 0.195183 -0.064110 -0.318756 -0.213996 -0.135918 -0.006936 0.049828 -0.354366 0.100447 -0.013325 0.146241 0.234361 0.269444 0.308510 -0.624631 -0.061378 -0.582507 -0.389598 -0.412427 -0.060135 -0.213008 -0.284485 -0.461218 -0.010590 -0.178088 0.052389 -0.330298 0.159541 -0.231125 -0.151407 -0.288797 0.066012 0.543809 -0.049493 0.279406 -0.042018 0.104265 0.135661 0.211867 0.382303 0.552297 -0.822189 -0.028554 -0.065870 0.059022 -0.265617 -0.298809 -0.192373 -0.556283 -0.283379 -0.148335 0.535584 -0.338441 0.060527 0.238503 0.544231 0.297578 0.079765 -0.421368 0.264763 0.203551 0.022896 0.047461 0.338284 -0.097950 0.214137 -0.115305 0.196128 0.183839 -0.255134 0.374253 0.098135 -0.505370 -0.408483 0.415389 0.160677 0.111320 -0.067025 0.240346 -0.009077 0.055468 -0.334894 -0.034153 -0.451779 -0.288674 -0.074900 0.124837 -0.348084 -0.451753 -0.006098 0.176156 0.277280 0.429942 0.089296 0.501123 0.046307 -0.241694 0.192677 0.154162 0.057228 -0.008154 -0.003872 0.864305 -0.184246 -0.379711 0.092800 0.150970
什么 0.259471 -0.297434 0.031939 -0.087495 0.273416 -0.151321 0.002956 0.067053 0.008771 0.192789 -0.075225 0.067459 0.193833 -0.030812 0.347956 -0.055090 -0.055168 -0.295265 0.074209 -0.303823 0.066665 0.093988 0.102116 0.194244 -0.106603 0.153719 -0.382732 0.133064 0.235343 -0.134361 -0.023745 -0.129184 -0.327885 0.195848 -0.241498 -0.126865 0.108094 0.280288 -0.071612 -0.183935 0.108717 -0.054297 0.130087 0.085747 -0.320680 0.153437 -0.239297 -0.472781 -0.143328 0.043050 -0.428562 -0.042008 -0.496141 -0.068001 0.171900 0.223856 0.098779 -0.039076 0.347619 0.142145 0.086569 -0.082065 0.158558 -0.259227 -0.096630 -0.032847 0.068968 -0.015122 0.259739 0.042344 -0.322245 0.101330 0.169479 0.081968 0.203679 0.365348 0.138500 0.055129 0.074365 -0.042706 0.054818 0.373865 -0.022045 -0.098651 0.303278 -0.227104 0.126904 0.353751 -0.079423 -0.262953 0.161384 0.211632 -0.082903 -0.184443 0.101485 -0.014260 0.402226 0.089770 0.011073 -0.146352 -0.046129 0.057941 -0.021731 0.149619 -0.393518 0.077283 -0.040921 -0.413045 -0.142694 0.111928 0.087684 -0.151664 0.085378 -0.175815 0.170965 -0.285523 -0.059692 -0.191194 -0.148741 -0.303024 0.052943 -0.598954 -0.130135 0.100201 0.083627 0.033757 0.042737 -0.105656 -0.045773 0.094599 0.007608 -0.009474 0.181040 -0.204164 -0.353966 0.007318 -0.221307 -0.075377 0.092866 -0.100837 -0.422837 -0.507082 -0.193833 0.195220 0.119427 -0.158434 -0.037496 0.032585 0.048904 0.296892 0.038350 -0.117097 -0.134861 0.195170 -0.502921 0.200573 0.073576 0.155214 0.147365 -0.121528 0.408173 -0.063213 -0.198443 0.262135 0.011384 0.215874 0.000297 0.205915 0.248749 -0.103725 -0.042796 -0.003684 0.049892 0.099245 0.134149 -0.256295 -0.383310 0.020994 0.006767 0.171519 0.072445 -0.284048 0.052770 -0.207359 -0.182738 0.010233 -0.387157 0.158647 0.014975 0.122191 0.044885 0.092657 -0.181091 -0.017422 0.022197 0.448235 0.079610 -0.217645 -0.294102 0.196885
缴费 0.469107 -0.462710 -0.143197 0.092831 0.058793 0.152344 -0.368165 -0.099577 -0.269771 0.244700 -0.181842 0.084118 0.053909 -0.191693 -0.003532 0.107344 0.132686 -0.199341 0.185898 0.342012 -0.167068 -0.127955 -0.270584 0.369772 0.377073 0.232240 -0.025555 0.363247 -0.114445 0.250071 -0.016416 -0.061158 0.679548 0.221518 -0.238362 0.497625 0.092111 0.054550 0.120394 -0.262434 -0.005514 0.247800 0.816799 0.303505 -0.200573 -0.223819 -0.977466 -0.445059 -0.065972 0.075890 -0.028551 -0.374913 0.153490 0.086053 -0.116857 0.096589 -0.019689 0.360111 0.260229 -0.033980 0.259106 0.701287 0.088342 0.068786 -0.425743 -0.288496 0.059900 -0.203127 0.131464 -0.409867 -0.459079 0.050362 0.158386 0.524534 -0.059743 -0.087567 0.426847 -0.190680 0.109329 -0.180278 0.223892 0.207251 -0.088964 0.648856 -0.039708 -0.528010 -0.126226 0.101778 0.021112 -0.025759 0.685371 0.161186 -0.349402 -0.199778 0.111362 -0.099088 -0.186660 -0.151544 0.536697 -0.314817 -0.037839 -0.067034 -0.232779 0.009631 -0.164577 0.321275 -0.213490 -0.244714 -0.068055 0.238479 0.163093 -0.218808 -0.168722 -0.209857 0.024209 0.323295 -0.528282 -0.244224 -0.032165 -0.429556 -0.131306 -0.521918 0.017787 -0.383678 -0.445815 0.450203 -0.520212 0.621642 -0.486896 0.325091 0.256930 0.224682 -0.188463 -0.018468 0.115127 0.258353 -0.059160 -0.423547 -0.112893 0.391375 -0.287192 -0.278434 -0.250226 -0.177271 0.053950 -0.104531 -0.404751 0.113581 0.503100 -0.226414 -0.322960 0.432828 -0.107711 -0.284026 0.479329 0.356746 0.644908 -0.481245 0.124148 0.035107 0.469568 0.023544 -0.250980 -0.036583 0.374440 -0.203115 -0.443977 0.321937 0.572845 -0.147482 0.357774 -0.033797 -0.380275 0.117006 -0.008063 0.021659 -0.398587 0.194351 0.321034 0.154340 0.065406 -0.113486 -0.079798 0.008824 -0.002411 -0.024822 -0.165316 -0.017709 0.111253 -0.676742 0.178940 0.081198 0.426507 0.295555 0.026400 0.380333 0.224781 -0.399077 -0.349367 0.658704
社保 0.833776 -0.691388 -0.267103 -0.034037 -0.304472 -0.038490 -0.089325 0.103337 -0.276038 -0.259684 -0.167421 0.142241 0.224096 0.053393 -0.365813 0.045650 -0.057539 -0.485261 0.433678 0.385045 -0.076369 -0.197096 -0.237222 0.494596 0.199984 0.184300 -0.355843 0.572055 -0.104812 0.119298 -0.132079 0.104528 0.355585 0.696430 -0.550528 0.623562 0.009463 0.185918 0.264250 -0.245323 -0.212942 -0.059049 0.462892 0.235183 -0.369639 -0.259311 -0.639939 -0.175758 -0.199123 0.099943 -0.122693 -0.207413 0.295053 0.266642 -0.403492 -0.032104 0.203017 0.377428 0.164806 0.173390 0.302931 0.573448 0.256889 0.365039 -0.230702 -0.531435 0.256189 -0.174018 0.069181 -0.262373 -0.777201 0.114622 0.245058 0.038937 0.085184 0.145120 0.262170 -0.109336 -0.191746 -0.253460 0.162808 -0.045790 -0.250683 0.251640 0.065874 -0.391344 -0.053742 0.004299 0.103584 -0.120161 0.668252 0.390204 -0.334676 0.110206 0.320329 -0.001528 -0.112008 0.088004 0.093301 0.036374 -0.250408 0.178409 0.088108 0.031849 -0.781105 0.711478 -0.146157 -0.722919 -0.119165 -0.015044 0.414305 -0.238505 0.056398 -0.060825 0.035792 0.288055 -0.251443 -0.494158 -0.030916 -0.076415 -0.178287 -0.355891 -0.079640 -0.341362 -0.034962 0.186891 -0.193758 0.056190 -0.248444 -0.023880 0.187939 0.326293 -0.250032 -0.015515 0.203285 -0.072829 -0.273955 -0.112332 0.098377 0.183202 -0.470270 -0.235685 -0.291853 -0.297573 0.239259 -0.135351 -0.169876 0.304985 0.220499 -0.097686 -0.042131 0.746111 0.068076 0.110610 -0.115782 -0.144814 0.557389 -0.199945 -0.136337 0.236763 0.542740 0.403707 -0.246566 0.272882 0.575385 0.035613 -0.494581 0.307455 0.121064 -0.303414 -0.049138 -0.277612 -0.392393 -0.002167 -0.227196 -0.111577 -0.360294 0.081977 0.080848 0.271166 -0.164114 -0.070022 -0.079965 0.117069 0.345814 0.134586 -0.123509 -0.197664 0.204973 -0.403513 0.183727 -0.188167 0.468470 -0.040525 0.126223 0.483282 0.209273 0.087643 -0.456776 0.557970
怎么 0.196875 -0.428416 -0.092481 0.023897 0.198266 -0.327073 0.176139 0.050877 0.243151 0.127661 -0.200153 -0.079487 0.399929 -0.189409 0.110572 0.011403 -0.100494 -0.350157 0.252988 -0.167655 0.023971 0.219664 0.226035 0.303693 0.063389 -0.094718 -0.187327 0.083982 0.327658 -0.021916 0.094306 -0.102914 -0.028416 0.480595 -0.068598 -0.215577 -0.087633 0.090430 -0.074387 -0.144489 0.173614 -0.108223 0.124077 0.142103 -0.190165 0.096144 -0.322046 -0.558531 0.129652 -0.257588 -0.414090 0.091799 -0.188594 0.017388 0.036421 0.297193 0.123777 0.338487 0.286893 -0.012326 0.100175 0.070916 -0.199919 -0.255065 -0.114648 0.039997 0.051489 0.263141 0.207594 0.015511 -0.393823 0.159124 0.202244 -0.012103 0.139735 0.122059 -0.022733 -0.060455 0.194374 -0.153867 0.230704 0.222870 -0.014897 0.073345 0.480044 -0.197284 -0.021899 0.179052 -0.077814 -0.564830 0.275278 -0.010917 0.199141 -0.058182 0.041159 0.032662 0.356561 -0.100918 -0.214475 0.033207 -0.048419 0.120624 -0.030616 -0.041697 -0.366897 0.251101 -0.017401 -0.483042 -0.088329 -0.020318 0.102196 -0.043895 -0.021876 -0.254615 0.217728 -0.155022 -0.105075 -0.055724 -0.107952 0.028769 0.208844 -0.410875 0.010120 0.181381 -0.003328 0.223228 -0.028161 -0.074167 -0.241851 0.015899 0.096631 0.175315 0.089737 -0.124528 -0.393499 0.024054 -0.247795 -0.030219 -0.379583 -0.024213 -0.203354 -0.323294 0.024271 0.308394 -0.119367 -0.297280 0.115287 0.080629 0.155852 0.070463 -0.116127 -0.330261 -0.180174 -0.185680 -0.025495 -0.046179 0.340617 0.018969 0.091140 -0.015706 0.366828 -0.107260 0.086740 0.185408 -0.041335 0.067307 -0.019097 0.250984 0.256891 -0.052790 -0.093004 -0.189851 0.039817 0.075958 0.187145 -0.070478 -0.101596 0.100429 -0.046710 0.168625 0.171925 -0.216183 0.192677 0.057824 -0.215999 -0.119592 -0.483558 0.206914 0.152445 0.050439 -0.003027 0.059358 -0.212496 0.058439 -0.085095 0.331910 -0.050250 -0.453923 -0.090394 0.332646
公积金 0.494174 -0.799391 -0.128028 0.005028 -0.302732 0.097391 -0.011006 -0.118229 -0.426723 -0.448656 -0.120397 -0.007582 0.171612 -0.004857 0.184831 -0.013097 0.027757 -0.365362 0.487740 0.530733 -0.257955 0.180252 -0.138816 0.661954 0.360123 0.357010 -0.305244 0.523244 0.024948 0.262342 0.212403 0.113510 0.314352 0.957770 -0.530348 0.246295 -0.148764 0.087904 0.170307 -0.245669 -0.212574 0.025675 0.688704 0.171144 -0.006791 -0.492605 -0.508173 0.097437 -0.217815 -0.052133 -0.291066 0.029289 0.498156 0.261213 -0.436942 0.142511 0.103163 0.453627 -0.004032 0.091927 0.264416 0.430142 0.185535 0.436643 -0.371051 -0.610294 -0.012458 0.126833 0.050155 0.015966 -0.940136 0.157365 -0.035925 0.095188 0.124098 0.091258 0.114126 -0.135415 -0.269584 -0.332653 0.444664 -0.344246 -0.284484 0.091575 0.351079 -0.514615 -0.167864 0.128701 -0.128641 -0.343895 0.211398 0.650976 -0.428097 -0.047527 0.244381 0.188335 -0.177189 0.215178 0.199955 -0.165614 -0.238298 0.081029 0.203501 -0.036071 -0.552434 0.570860 -0.327400 -0.512470 -0.134474 0.160608 0.130435 -0.223210 0.334835 0.143975 -0.117590 0.340967 -0.163984 -0.518553 -0.077203 -0.339783 -0.102727 -0.274473 -0.031516 -0.516056 -0.002892 0.413178 -0.368219 -0.099460 -0.330666 0.060771 0.291083 0.147790 -0.347198 -0.011560 -0.051704 0.067045 0.005404 0.018361 -0.227888 0.233412 -0.506998 -0.043859 -0.045278 -0.325987 0.186302 0.119938 -0.088525 0.556569 0.789078 -0.275250 -0.089481 0.994454 0.325622 -0.142280 -0.243925 -0.237089 0.655687 -0.101777 -0.098384 -0.186533 0.583747 0.294054 -0.194152 0.281984 0.682764 0.066138 -0.696661 0.691914 0.244859 -0.232151 -0.136741 -0.302659 -0.508834 -0.041825 -0.155980 0.454530 -0.416489 0.030809 0.097927 -0.092824 -0.026222 0.008096 -0.160217 0.145479 0.352156 0.074110 -0.106001 -0.158177 -0.021001 -0.454913 0.132577 -0.359318 0.193207 -0.214065 0.372714 0.376296 0.301242 0.042481 -0.616112 0.511112
年 0.166218 -0.195377 0.042702 0.146171 0.202332 0.268343 -0.008904 0.028620 0.018584 0.436550 0.137687 -0.106156 0.171273 0.280791 0.004821 -0.422591 0.040056 -0.187808 -0.004229 -0.250193 -0.220717 -0.130837 -0.145589 0.061152 0.127756 0.264846 -0.182154 0.074457 -0.073246 -0.279587 0.307223 0.439274 0.241270 -0.017640 0.055879 -0.139690 0.278032 -0.180947 -0.226169 -0.189763 -0.153206 0.050240 0.065796 0.153838 0.054063 0.455585 0.260036 -0.493251 0.150296 0.009163 0.192161 -0.160931 -0.046341 0.127458 0.038540 0.047592 -0.091295 0.373556 0.165569 0.179617 0.425842 0.536260 -0.064968 0.220674 -0.250003 -0.333406 -0.263068 0.248673 -0.028614 -0.336427 -0.278923 -0.238395 0.088360 -0.012610 -0.130304 0.054073 0.106091 0.171759 -0.070008 -0.073711 0.423939 0.124320 -0.275992 0.409608 0.111800 -0.356934 -0.067317 0.215156 -0.334237 -0.022618 0.361370 0.145041 -0.208400 0.066248 -0.181168 -0.032616 -0.047291 -0.203599 -0.007259 0.253241 -0.243175 0.190352 -0.082678 0.209620 -0.268758 0.303601 -0.106275 -0.478893 -0.040149 -0.412052 -0.260063 -0.587496 -0.069406 -0.269850 0.005575 -0.241174 -0.372445 -0.083780 0.015896 -0.254905 -0.051277 0.253117 -0.110385 -0.049576 -0.122139 0.224523 -0.267596 0.270656 -0.016649 0.043737 -0.126980 0.178417 0.384570 0.467618 -0.314248 -0.305118 -0.183713 0.191073 -0.078200 -0.039707 -0.201198 -0.595202 -0.414457 -0.105045 0.162624 -0.163735 0.089019 0.257275 0.476548 0.218041 -0.121684 -0.387468 0.355059 -0.092744 -0.208479 0.056493 0.487618 0.166371 0.303774 0.087179 0.021192 0.016091 -0.215087 0.492715 0.003056 -0.232312 -0.322153 0.013894 -0.129367 -0.030178 0.178040 0.105122 -0.249980 0.126666 -0.190450 -0.003272 -0.231559 -0.314946 0.291946 0.184123 0.064105 -0.444982 0.111520 0.140825 -0.178828 0.341968 0.023899 0.576101 0.170372 -0.033495 -0.034816 0.099955 -0.043663 -0.342425 0.381156 0.787792 -0.087011 -0.405893 -0.162109 0.115718
缴纳 0.433536 -0.288780 0.037355 0.288136 0.332461 0.233524 -0.010263 0.346898 -0.106291 -0.150322 -0.292855 0.152684 0.121925 0.168021 0.050573 -0.124653 0.530521 -0.470545 0.330625 0.160265 -0.093464 -0.063756 -0.450566 0.160703 0.430222 0.365633 -0.168267 0.195816 0.084807 0.252405 0.032097 0.027089 0.365151 0.202017 -0.173027 0.307929 0.228598 0.023453 -0.262830 -0.234191 -0.165612 0.371829 0.950753 0.162049 -0.315636 -0.121092 -0.636940 -0.111307 -0.195250 -0.083364 -0.439119 -0.587263 0.106519 0.238379 -0.040112 0.273850 0.381280 0.446945 0.043729 0.369097 0.425270 0.267391 0.380640 0.348633 -0.421934 -0.304105 -0.250629 -0.156043 0.018171 -0.579718 -0.570070 0.004978 0.254494 0.373100 -0.117113 -0.220456 0.516323 0.196301 -0.029451 -0.100698 -0.066459 0.287632 0.000634 0.518682 0.235633 -0.021048 -0.321775 0.187065 -0.100245 -0.315916 0.627288 0.182713 0.012637 -0.259089 -0.165663 0.036200 -0.024851 -0.291093 0.097706 -0.329574 0.114277 0.008884 -0.064313 0.094208 -0.178762 0.340961 0.026551 0.111017 -0.098375 0.005264 0.049821 -0.272474 0.136266 0.007414 0.043154 0.496525 -0.679159 -0.162721 -0.093794 -0.589412 -0.003215 -0.127344 -0.141239 -0.458380 -0.318436 0.220960 -0.609379 0.367653 -0.327676 0.085912 -0.260617 -0.125603 0.054501 -0.264781 0.132334 -0.090151 -0.484490 -0.239130 -0.275934 0.222913 -0.135356 -0.176609 -0.243086 -0.584633 -0.119880 0.096831 -0.600095 0.178559 0.204825 -0.359517 -0.288149 0.154219 -0.440783 0.224334 -0.127875 0.529563 0.789742 -0.297352 0.047880 -0.150867 0.120981 -0.049084 0.123333 0.103713 0.409139 -0.266446 -0.407964 0.238603 0.449461 -0.045228 0.380838 -0.156004 -0.329109 -0.030596 -0.258858 0.306936 -0.450414 0.117650 0.131953 0.489012 0.043874 -0.102671 0.250149 0.042055 0.488159 0.349794 -0.322728 -0.136258 0.387355 -0.287360 0.123656 -0.231708 0.105655 -0.132494 -0.153561 0.236799 0.176482 -0.170387 -0.479563 0.370047
生育 0.432088 -0.173983 -0.004299 0.154685 -0.036300 0.213035 0.032815 0.254930 0.040558 0.251708 0.226843 0.037425 0.204430 0.414001 -0.332351 -0.472754 -0.302110 -0.381605 0.045310 0.134567 -0.254403 0.316568 -0.150506 0.411312 0.375126 0.700960 -0.343118 -0.136214 -0.119726 0.038976 -0.014705 -0.096797 0.513664 0.172145 -0.331691 0.120137 0.123852 -0.121109 0.204227 0.054127 -0.201027 0.191028 0.269256 0.128236 -0.111517 0.435436 -0.051788 -0.433338 0.159489 0.404327 -0.032228 -0.214308 -0.130505 0.726423 -0.133881 -0.295483 -0.227015 0.232951 0.395509 0.040039 -0.157825 0.254653 0.169121 -0.019244 -0.082661 0.150059 0.033059 0.048537 -0.028483 -0.064363 -0.704099 -0.053444 0.161316 0.294605 0.037785 0.285594 0.396711 -0.047972 0.144523 0.381725 -0.468148 0.021055 -0.315140 0.116449 0.016460 -0.714671 0.019683 0.287138 0.008176 -0.564119 0.328643 0.046889 -0.305430 -0.156441 0.025166 -0.252634 -0.251557 -0.101270 -0.157673 -0.299748 -0.382080 -0.077861 -0.008909 0.408459 -0.115390 0.685148 -0.365352 -0.311048 0.480152 0.007386 -0.320564 -0.367520 0.079189 0.104837 0.377903 0.204893 -0.395721 -0.199237 0.354457 0.174072 -0.020940 0.115709 0.006588 -0.128674 0.204371 0.156543 -0.210550 -0.018036 -0.588434 0.169565 0.371890 0.153374 0.107762 0.393341 -0.597009 0.021667 -0.323850 -0.055519 -0.311006 0.170103 -0.410451 -0.110709 -0.489800 -0.154840 -0.151542 0.216372 0.339083 -0.097847 0.360341 -0.825758 0.315316 0.057696 -0.047893 -0.177422 -0.305777 -0.024482 0.476301 -0.317030 0.512027 0.267503 0.320343 0.283248 -0.071131 0.206551 0.224491 -0.104155 0.013934 0.309897 -0.140103 0.006142 0.063152 -0.261948 -0.183035 -0.123304 0.337076 -0.315250 -0.263001 0.330880 0.051225 -0.122215 0.070528 -0.586228 -0.346043 0.212296 0.008955 0.113353 -0.129739 0.145407 -0.199122 0.029033 -0.028405 -0.285244 0.456942 0.065145 0.408841 0.370228 -0.183494 -0.002142 -0.665819 0.179622
保险 0.671334 -0.560756 0.222754 0.075036 0.061326 0.055276 0.569205 0.235545 -0.014230 -0.094208 -0.090095 -0.135045 -0.273642 0.155946 -0.406217 0.164852 0.505184 -0.296528 0.328148 -0.022816 -0.004138 -0.118614 0.228418 0.276019 0.140132 0.291164 -0.176333 0.655912 0.194347 0.257901 0.316994 -0.141286 -0.006073 0.318150 -0.445983 0.273714 -0.089238 0.193102 -0.071502 0.145835 -0.262281 0.166876 0.566453 0.037968 0.068521 -0.351379 -0.536570 -0.457271 -0.047566 -0.215420 -0.061532 0.015402 -0.561769 -0.091497 -0.355273 0.039832 -0.090825 -0.117581 0.488972 0.045494 0.530019 0.238978 0.348954 0.212779 0.036410 0.065367 -0.208806 -0.463242 0.486552 -0.188445 -0.174572 -0.215952 0.242735 -0.024583 0.209582 0.459034 0.114648 -0.357057 0.065766 -0.207976 0.189568 0.078766 -0.014700 0.481287 0.042462 -0.133462 0.195806 -0.291316 0.231802 -0.401166 0.681501 -0.198300 -0.081600 -0.186001 -0.204638 -0.005839 -0.006114 -0.331782 -0.125920 -0.341495 -0.096795 0.100179 0.003913 0.491812 -0.608902 0.193937 0.110319 -0.578822 -0.024293 0.134065 -0.174338 -0.093701 -0.378373 -0.135827 -0.028779 0.175679 0.051939 -0.549727 -0.599597 -0.281621 0.012502 -0.235874 -0.100317 0.221038 -0.015887 -0.390720 -0.627449 -0.024644 -0.322814 0.114129 0.310201 0.155391 0.171998 -0.187577 -0.072993 -0.164294 -0.056883 -0.574635 0.531822 0.134770 -0.623664 -0.442367 -0.006605 -0.274484 0.383165 -0.121685 -0.125247 0.076252 0.033829 -0.568823 0.307567 0.185484 0.181905 0.129060 -0.229354 -0.105185 0.203841 -0.021948 -0.021983 -0.063241 0.510800 0.066190 -0.173812 0.414995 0.342004 0.163127 -0.090373 0.212485 0.049324 -0.325884 0.065350 -0.183641 -0.201525 -0.020771 -0.260498 -0.124147 -0.523428 -0.156215 0.286584 0.197558 -0.037039 0.073811 0.202049 0.073530 -0.198239 -0.183456 -0.265607 0.149176 0.285709 -0.543797 0.271700 -0.169796 0.200588 0.131150 0.222693 0.472020 0.223954 -0.234416 -0.357014 0.272850
比例 -0.088563 -0.506531 -0.148548 -0.122033 0.076080 -0.055450 0.198633 0.118101 0.266659 0.160075 -0.162620 -0.341135 0.232621 0.025066 -0.432717 0.021827 0.347542 -0.107538 0.329604 0.061185 -0.376921 -0.066846 0.388708 0.492708 0.346366 0.324617 -0.117846 0.164469 -0.163530 0.431513 0.151750 0.037323 -0.094287 0.388406 0.007037 -0.059465 0.326140 0.114052 -0.267839 -0.096063 0.098450 -0.034701 0.544483 0.307695 -0.058440 0.177032 -0.321133 -0.582435 -0.002112 0.017861 -0.314536 0.054116 0.166134 0.514267 0.014252 -0.279163 -0.095165 0.243622 0.057696 -0.014539 0.208883 0.141294 0.129068 0.125359 -0.120770 -0.201446 -0.044147 0.333977 0.020742 -0.291990 -0.090091 0.028856 0.388636 0.347889 -0.424320 0.191575 0.280157 0.172674 0.063972 -0.142863 -0.150638 0.378186 -0.604199 0.859218 0.446364 -0.081528 -0.277059 0.239656 -0.002331 -0.608408 0.531910 0.061881 -0.034214 -0.325047 0.111953 0.123227 -0.224546 -0.213921 -0.308444 -0.167254 0.080613 0.137501 0.192745 0.480772 -0.169910 0.395450 -0.157905 0.239653 0.236813 0.135549 -0.030930 0.052594 0.014215 -0.144343 0.043338 -0.150963 -0.538001 -0.538824 -0.021569 -0.428828 -0.002266 -0.335901 -0.065390 0.389168 -0.504575 0.606732 -0.014300 0.118606 -0.511428 0.339442 -0.187996 0.047134 -0.040997 -0.194029 -0.131834 -0.470545 -0.287165 -0.307391 -0.226692 -0.473347 -0.084109 -0.093839 -0.141267 -0.478015 -0.032042 0.049178 -0.164341 0.043417 0.095934 0.103295 0.448430 -0.240954 0.004961 -0.310842 0.100471 -0.036010 0.656911 0.276006 -0.037448 -0.281856 0.512053 -0.357585 -0.201681 0.516398 -0.035229 -0.175450 -0.140982 0.215900 -0.026256 0.165564 -0.331328 0.073494 -0.355276 0.525808 -0.136675 0.295423 -0.110958 0.630481 0.208961 -0.073132 -0.282268 -0.194556 -0.229233 -0.244931 0.237639 0.095937 -0.314376 0.252668 0.443688 0.085288 0.400935 -0.147721 0.304148 -0.308091 0.484864 -0.235977 0.049493 -0.242320 -0.043329 0.063256
查询 0.176716 0.026794 -0.008199 0.063831 -0.090069 0.090256 -0.225154 0.496514 -0.167634 -0.053502 -0.356107 0.280681 -0.003269 -0.288889 0.103114 -0.085661 -0.007673 -0.314716 0.219944 0.025961 -0.504427 0.164214 -0.213973 0.351672 0.076074 0.096540 -0.024992 0.091547 0.270667 0.474105 0.160740 0.101458 0.267226 -0.009875 0.033907 -0.149878 0.116464 -0.283675 -0.082867 -0.337154 -0.063443 0.364913 0.431018 0.579759 0.062523 -0.314047 -0.552465 -0.437800 -0.212272 0.245616 -0.064707 0.149574 0.019154 0.223598 0.064757 0.137014 0.312428 0.610183 0.500209 -0.079949 -0.060103 0.544548 0.179088 0.326296 -0.596200 -0.338963 0.134456 -0.022220 0.026398 0.395040 -0.329671 0.233801 0.205907 0.217185 -0.032822 0.348840 -0.006993 0.356768 0.065422 -0.435401 0.134685 0.084377 0.007859 0.493160 -0.282557 -0.153337 -0.043083 -0.091914 0.047452 -0.027118 0.079030 -0.171032 -0.245844 -0.213169 0.099046 0.526988 0.132444 0.088358 0.460971 -0.400026 -0.100164 -0.213281 0.051304 -0.271647 -0.135445 0.237574 -0.360496 -0.368008 0.143563 0.024570 0.019556 0.048778 0.014419 -0.145253 0.029570 0.186499 -0.209669 -0.264654 -0.527874 -0.453499 0.468611 -0.423036 0.098131 0.019036 0.058826 0.436186 -0.544127 -0.086153 -0.246805 -0.211172 0.151335 -0.148294 -0.079234 -0.393521 -0.182142 -0.585888 0.081237 -0.375721 -0.184534 0.027480 -0.160323 -0.002510 -0.801102 -0.376683 0.140306 -0.082103 -0.158955 0.304917 0.326591 -0.170289 -0.130403 0.278933 -0.112264 -0.113224 0.101441 0.232502 0.344968 0.125752 0.269698 -0.271788 0.348508 0.036843 -0.265080 0.201023 0.336850 -0.143146 -0.301990 0.045075 -0.130430 0.226740 0.492363 -0.152173 -0.179501 0.366119 0.047314 0.052671 -0.458191 -0.164342 -0.239040 0.115759 0.401214 0.028815 0.462120 -0.087308 0.632340 0.028567 -0.270516 -0.053138 -0.244798 -0.172233 0.262535 0.123556 0.077497 0.220346 -0.018845 0.364822 0.182444 -0.332102 -0.015591 0.038291
转移 0.097171 0.193751 -0.150126 0.411612 0.016616 0.395705 0.306986 0.143673 0.248494 -0.022352 -0.028410 0.044705 0.337107 0.291180 0.048327 0.101809 0.127892 -0.217498 -0.257574 -0.366125 -0.106615 -0.272025 -0.265967 0.332822 0.115937 0.507321 -0.075055 -0.014155 -0.025456 0.256987 -0.007940 -0.008416 0.142077 0.051871 -0.206921 0.348330 0.101043 0.025669 -0.179266 0.201282 0.081548 0.005041 0.712303 0.489496 -0.237478 0.151554 -0.637699 -0.505455 0.428223 -0.308856 -0.708336 0.118646 -0.043355 -0.072791 0.080037 0.114684 0.261542 0.203991 0.427894 -0.100295 -0.095099 0.179282 0.459048 -0.086032 -0.231354 -0.271169 -0.275304 0.052794 0.347108 0.143711 0.179179 0.373465 0.242271 0.291357 0.000877 -0.027077 -0.076305 -0.250533 -0.446060 -0.297718 0.053482 0.165819 -0.270536 0.148389 0.191214 -0.130304 -0.157083 -0.147040 -0.497990 -0.474005 0.187882 -0.282021 -0.365355 -0.303504 0.269799 0.027291 0.008713 -0.275797 -0.081752 -0.024181 -0.240932 -0.066598 -0.231291 0.285833 -0.259066 0.004653 -0.248355 -0.289806 0.047903 -0.041371 -0.463467 0.341477 -0.322682 -0.258865 0.182887 0.059125 0.128293 -0.344678 0.199005 -0.083086 0.217620 -0.105480 -0.640548 0.121993 -0.308165 0.318047 -0.432961 -0.094750 -0.368823 -0.181703 -0.613477 0.276894 0.173542 -0.307718 -0.293902 0.053911 -0.127688 -0.172839 -0.056633 0.150878 -0.211067 -0.192406 -0.889460 -0.186002 -0.315116 0.296527 0.062973 0.099424 0.254108 0.121673 0.093507 0.186009 0.211749 0.112305 -0.099593 -0.024171 0.174517 0.290812 0.163013 -0.285056 0.026853 -0.408011 0.077563 0.239095 0.269267 -0.266718 0.007999 0.252796 -0.021279 -0.025872 -0.019235 0.141589 -0.197303 0.529800 0.321837 -0.562093 0.081058 0.262102 -0.237815 0.355593 -0.000567 0.000022 -0.114902 0.129850 -0.079453 0.467098 -0.210979 0.293923 0.108970 -0.001209 0.551074 -0.135030 0.365456 -0.022569 0.219996 0.229730 -0.127800 -0.182387 -0.296009 -0.151834
基数 0.432632 -0.239364 -0.032893 0.413189 -0.244528 -0.093687 0.232417 0.023691 -0.261995 0.152976 -0.313777 -0.036091 0.082689 0.293387 -0.571937 -0.368704 0.559374 -0.535101 0.464692 0.253486 -0.249157 -0.397611 0.006649 0.173725 0.479718 0.374027 0.064242 0.496146 -0.212454 0.313493 0.201786 -0.048119 0.294946 -0.228998 0.198876 0.431965 0.481557 0.135007 -0.309742 -0.455240 0.061133 -0.028546 0.657963 0.379763 -0.107786 0.277718 -0.286007 -0.177421 -0.075062 0.137790 -0.403407 0.258824 0.114478 0.244683 -0.222405 0.299315 0.539087 0.013055 0.172699 0.054699 0.083541 0.529900 0.094336 0.142046 -0.118602 -0.259731 -0.596911 0.183268 -0.294604 -0.841675 -0.773336 0.324719 0.161049 -0.119532 -0.459931 0.123663 0.117695 0.524131 0.063725 0.246932 0.227302 -0.121142 -0.543180 0.072058 0.231374 -0.235742 -0.614097 0.306765 0.232187 -0.478560 0.427777 0.006423 -0.166071 -0.134345 0.210899 0.138591 -0.222014 -0.358140 -0.024229 -0.124247 0.028291 0.098854 -0.095536 0.142783 -0.332768 0.405010 -0.150847 -0.058701 0.184325 -0.426940 -0.593291 -0.289478 -0.081553 -0.001986 -0.268819 0.341065 -0.333067 -0.196255 -0.222227 -0.449152 -0.202778 -0.328405 -0.538629 0.185863 -0.105016 0.574655 0.084648 -0.052878 -0.815663 0.095634 0.040898 0.240537 0.023262 -0.124344 -0.051635 -0.210538 -0.425588 -0.276516 0.035593 -0.253749 -0.126631 -0.049841 -0.221759 -0.506563 -0.120665 0.044638 -0.018905 -0.129520 0.293522 0.338214 0.325036 -0.187652 -0.038638 -0.160293 0.207711 -0.030511 0.591925 0.122501 0.522681 -0.004404 0.256297 -0.064275 0.128841 0.386326 0.110669 0.063838 -0.331382 0.119016 0.518560 -0.039480 -0.096267 -0.290480 -0.125312 0.303543 -0.356145 0.012885 -0.193474 0.332446 -0.217216 0.373499 -0.160558 -0.216155 -0.058624 0.181075 0.249797 -0.076756 -0.184507 0.658177 0.201988 -0.042806 0.564549 -0.157627 0.241735 -0.081514 0.024970 0.275468 -0.229604 0.288751 0.176207 0.056967
企业 0.120498 -0.254847 -0.345967 0.361135 -0.118861 -0.087645 -0.110184 -0.241385 0.251969 0.157153 -0.065425 -0.009357 -0.109528 0.194373 -0.266279 -0.010276 -0.220157 -0.232100 0.371725 -0.017947 -0.313324 -0.173075 -0.053696 0.367440 0.312161 0.224683 -0.317679 0.209005 0.162229 0.370716 0.041849 -0.086033 0.141812 0.329184 0.018288 -0.010131 0.343853 0.338247 -0.635839 0.512010 -0.124707 -0.148885 0.245289 0.376886 -0.037027 0.054229 -0.522362 -0.147433 -0.020085 0.085419 -0.097112 -0.034943 -0.057029 0.066961 0.198024 -0.055547 0.287801 0.125381 -0.159256 0.291783 0.511958 0.185212 0.248210 -0.111872 -0.026741 -0.043161 -0.171291 0.228985 0.064538 -0.145397 -0.319055 0.530050 0.386004 -0.006927 0.027207 0.167508 0.186562 0.459053 0.038094 -0.384521 0.379609 0.451330 0.100539 0.043511 0.214893 -0.072881 -0.090237 -0.367099 -0.229024 -0.175595 0.195394 0.089513 -0.354930 -0.016233 0.165909 -0.010311 0.232515 0.220063 -0.146394 -0.048937 -0.063606 0.134202 -0.064255 -0.210138 -0.245813 0.314640 -0.045958 -0.294859 -0.270735 -0.210013 -0.309062 -0.402553 0.339346 -0.436456 -0.229788 0.109099 0.086756 -0.246392 -0.104167 -0.507446 0.180628 -0.413264 -0.045325 -0.174844 0.174015 0.151495 -0.340797 -0.038200 -0.278008 0.149854 -0.037988 0.012601 0.153349 0.073903 -0.112030 -0.113324 -0.022679 0.080429 0.228477 -0.162435 -0.234627 -0.560156 -0.242657 -0.411846 -0.058738 0.138731 0.165954 0.373276 -0.135577 -0.310432 0.027458 0.090805 0.034314 0.006803 -0.068575 0.241987 0.394129 -0.019699 -0.226794 0.046279 0.173506 0.044344 0.058255 0.087241 0.510483 -0.291367 -0.173588 -0.066771 -0.125262 -0.141691 0.007088 -0.321075 -0.493726 0.252471 0.080581 0.223339 -0.257210 0.224261 0.026374 0.292233 -0.464823 -0.069702 0.105766 0.420702 0.106869 0.183839 -0.100446 0.100734 0.041978 0.134696 0.373622 0.115446 -0.103318 0.043267 0.317111 0.415418 -0.078151 -0.025441 -0.064072 0.421428
养老保险 0.947874 -0.274229 -0.367006 -0.219576 -0.143016 -0.103343 -0.022069 0.008627 -0.148651 -0.094737 -0.007362 -0.101425 -0.042693 0.165256 -0.117775 -0.241420 -0.048936 -0.527815 0.449743 0.522501 -0.040532 0.185421 -0.339199 0.575055 0.308759 0.385998 0.012612 0.509453 0.019594 0.248510 -0.021160 -0.028108 0.449445 0.772724 -0.422380 0.732785 0.102254 -0.009064 0.182953 -0.462625 -0.443971 -0.414421 0.792092 -0.017540 -0.647743 -0.358342 -0.618135 -0.210176 -0.469220 -0.062417 0.026881 -0.163478 -0.007930 0.081119 -0.378981 -0.161920 0.030963 0.025042 0.064748 0.216572 0.252356 0.608240 0.379100 0.576965 -0.228837 -0.374727 0.054019 -0.320794 0.341864 -0.356373 -0.642746 0.231995 0.198053 0.245945 0.126447 -0.140156 0.483163 -0.671277 -0.417141 -0.148991 0.175711 -0.208890 -0.556878 0.176775 0.180222 -0.406992 0.187000 0.132991 -0.174982 -0.159116 0.796175 0.615318 -0.299413 0.076657 0.236888 -0.204295 -0.154581 -0.058654 0.084138 -0.128222 -0.229573 0.072267 -0.054053 0.100044 -0.643093 0.582383 -0.389103 -0.494450 -0.154893 -0.089798 -0.045156 -0.233726 0.027678 -0.175251 0.235503 0.418083 -0.347916 -0.448007 -0.041431 0.058930 -0.390738 -0.424005 -0.276949 -0.515192 -0.063057 0.250324 -0.285383 0.291382 -0.373653 0.099444 0.133066 0.383434 0.067085 0.106869 0.035043 -0.033665 -0.330449 -0.226735 -0.093082 0.525064 -0.690754 -0.152374 -0.100729 -0.300892 0.234927 0.107703 -0.146145 0.430323 0.525070 -0.287507 -0.131657 0.218218 0.163106 0.289218 -0.075370 -0.064362 0.545018 -0.062128 -0.149060 0.291052 0.220358 0.268863 -0.221236 0.461740 0.396266 0.106369 -0.574373 0.389573 0.264961 -0.220644 0.103089 -0.375248 -0.477779 0.024234 -0.179873 -0.102757 -0.359620 0.207276 0.533500 0.051252 0.020097 -0.251392 -0.021391 0.088466 0.279935 0.221230 -0.290028 0.218624 0.162176 -0.445633 0.121578 -0.178525 0.512771 0.159640 0.494314 0.308764 0.437957 -0.245831 -0.611338 0.656714
医疗保险 0.724732 -0.370653 -0.106100 -0.271108 -0.042775 -0.092330 0.173452 0.186801 -0.127642 -0.215387 -0.039283 -0.142676 -0.086162 0.069755 -0.274410 -0.155340 0.174978 -0.594227 0.083397 0.449345 -0.047181 -0.119703 -0.212038 0.489298 0.475742 0.462572 -0.149153 0.545728 -0.068414 0.435799 0.203108 -0.160725 0.483735 0.460763 -0.557414 0.603731 0.013082 -0.139303 0.206512 -0.115086 -0.254994 -0.145892 0.683479 0.188828 -0.585198 -0.290106 -0.671931 -0.247786 -0.194377 -0.207571 0.250071 -0.244088 -0.255606 0.109693 -0.556325 -0.481648 0.063525 0.305335 0.002052 0.627710 0.460816 0.475721 0.273296 0.136271 -0.134332 -0.439512 0.276114 -0.251412 0.130180 -0.409676 -0.545291 0.044370 0.086675 0.259161 -0.106325 -0.039530 0.251468 -0.293918 -0.081767 -0.140169 0.052738 -0.102157 -0.446921 0.477378 0.236400 -0.160428 0.362275 0.054025 -0.107163 -0.132082 0.904727 0.458262 -0.044615 -0.045498 0.054233 -0.093793 -0.317390 -0.273205 0.051387 -0.061657 -0.349182 -0.064681 -0.190582 0.136213 -0.727320 0.697215 -0.174371 -0.498435 0.103141 0.148113 0.224268 -0.466008 -0.132973 -0.128156 0.369205 0.422684 -0.190863 -0.644215 0.290066 -0.046441 -0.353398 -0.474888 -0.162558 -0.298692 -0.155148 0.128838 -0.255839 0.305717 -0.280783 0.149436 -0.046512 0.448277 -0.309131 0.006016 -0.082827 -0.225894 -0.208473 -0.461177 0.004001 0.245957 -0.337686 -0.219879 -0.173203 -0.282956 0.352477 0.095628 0.196685 0.066440 0.327041 -0.223919 -0.204005 0.429218 -0.005497 0.168780 -0.019815 0.075890 0.147815 -0.281663 -0.226770 0.195406 0.604051 0.089252 -0.196821 0.159080 0.593521 -0.185373 -0.500650 0.097058 0.118160 -0.176218 0.288007 0.080191 -0.538578 0.076558 -0.113248 -0.087586 -0.418842 0.074192 -0.019037 0.394645 0.011125 -0.263784 -0.166670 -0.208941 0.254203 0.203760 0.068412 0.010113 -0.001912 -0.554113 0.520302 -0.301144 0.421010 0.040205 0.191893 0.278778 0.238602 -0.049253 -0.565921 0.879710
补充 0.326985 -0.034103 -0.480406 -0.070475 0.160349 0.215829 0.039692 0.314152 -0.018825 -0.069301 -0.321976 0.118028 0.164774 0.232837 -0.148040 -0.192383 0.055357 -0.094790 0.257132 0.169956 0.080937 -0.086931 0.202379 -0.234866 -0.300650 0.185153 -0.272629 0.109530 0.093144 0.024718 0.159203 0.262830 0.156572 0.090387 0.259618 0.152055 0.247377 0.026973 -0.051515 -0.262662 -0.001763 0.174404 0.859546 0.440074 -0.266470 -0.326224 -0.463879 -0.294565 -0.014627 -0.150429 -0.396757 0.221709 -0.421781 0.650488 0.091819 0.308176 0.207626 0.419534 -0.274543 0.104408 0.148165 -0.187927 0.057106 -0.193750 -0.007645 -0.067734 -0.128271 -0.109553 -0.063858 -0.134624 -0.104135 -0.319434 0.176379 0.229096 -0.394125 0.091600 -0.038019 0.121519 -0.095966 0.060927 0.043593 0.208670 -0.289961 0.415932 0.018521 -0.221360 0.180982 0.186423 -0.052495 -0.246427 0.379873 -0.366510 0.163257 0.062580 0.182980 0.299903 0.189392 -0.145238 0.180140 -0.108619 -0.079599 0.032668 -0.000487 0.253969 -0.660138 -0.107021 -0.206911 -0.225485 0.323796 -0.436679 -0.279032 -0.229992 0.261771 -0.146632 0.312734 0.068658 -0.180554 -0.154514 -0.279729 -0.480444 0.564516 -0.164896 -0.238661 0.291729 -0.055238 0.337985 -0.252994 -0.074207 -0.280615 -0.396782 -0.158486 0.322063 0.358028 -0.686944 -0.183930 -0.223146 -0.092087 -0.172583 -0.003957 -0.129312 -0.177801 -0.302379 -0.440614 -0.447343 0.152404 0.488195 -0.038759 -0.006808 0.122999 -0.169399 -0.201687 -0.167885 -0.307408 0.174165 -0.140025 -0.098050 0.326442 0.310057 0.360523 -0.459494 0.322617 0.017112 0.143895 0.125261 0.142982 0.239318 0.101749 0.504342 0.040955 0.132308 -0.088643 0.048479 0.116150 0.614966 0.191626 -0.275561 -0.196406 0.287512 -0.058459 0.535586 -0.072021 0.045541 -0.287706 0.060842 0.061335 0.103468 -0.192365 0.290708 -0.398224 -0.073352 0.356663 0.062989 0.340812 0.062975 0.329348 0.008308 0.034698 -0.293351 -0.646143 0.038027
失业 0.724332 -0.282678 0.260555 0.047370 0.059419 0.203359 0.071839 0.132092 -0.060182 0.149584 -0.067362 -0.107132 0.104179 0.229482 -0.405949 -0.435846 -0.305993 -0.235722 -0.148502 -0.000530 -0.140805 0.077585 -0.401060 0.092092 0.221620 -0.130548 -0.369389 0.191210 -0.104149 0.125945 0.067986 0.091345 0.206108 0.178540 0.063145 0.628806 0.087015 0.228259 0.078275 -0.196830 -0.083874 -0.192014 0.334059 -0.166453 -0.295631 0.180028 -0.528517 -0.105453 -0.268670 0.223768 -0.432763 0.087626 -0.110126 0.459224 -0.158922 -0.169968 0.242446 0.012307 0.188456 0.511240 0.393309 0.022940 0.418869 -0.005277 -0.176177 -0.129674 -0.134747 0.119539 0.084419 -0.610346 -0.447456 0.045071 0.293742 0.144381 -0.263242 0.040963 -0.034559 0.063396 -0.297500 -0.068731 -0.061791 0.358166 -0.283093 0.267241 0.442849 -0.201602 0.161778 0.193162 0.018924 -0.243314 0.227228 0.500587 -0.404636 0.032225 -0.125862 0.566209 0.118062 0.270395 -0.222485 -0.049352 -0.033834 -0.139466 -0.212549 0.381600 -0.376811 0.247282 0.088155 -0.499029 -0.026007 0.150327 -0.059165 -0.404125 0.045439 -0.450231 0.024093 0.048992 0.217701 -0.005746 0.241514 0.289346 0.168244 -0.349030 -0.173105 -0.087165 0.447319 0.076869 -0.449482 -0.034696 -0.193099 0.125509 0.175275 0.607287 0.132661 0.187118 -0.016022 0.106714 -0.351579 0.148722 0.166302 0.128071 -0.476355 -0.425709 -0.006458 -0.196982 0.115309 -0.008849 0.004625 0.441408 0.117835 -0.011330 -0.162774 -0.432624 -0.260645 -0.476720 -0.209132 0.116611 0.386181 -0.297336 -0.059773 -0.288418 0.498673 -0.227730 -0.202749 -0.155367 0.170818 -0.217516 -0.179041 0.685599 0.352092 -0.285468 0.387140 -0.247467 -0.006890 0.119539 0.172278 -0.260021 -0.473714 0.017030 -0.069237 -0.024598 0.029476 -0.521465 -0.310245 0.376856 0.245445 0.193422 -0.203123 0.224677 -0.013438 -0.292752 0.171057 0.123434 0.068376 -0.047045 0.286030 0.073725 0.186139 -0.099831 -0.352407 0.366443
工伤保险 0.831982 -0.506860 -0.213539 -0.032816 0.055383 -0.154087 0.205298 -0.008912 -0.023553 -0.767737 -0.167657 -0.196148 -0.098585 0.582731 -0.269265 -0.425595 -0.070010 -0.499557 0.080731 0.436681 -0.108066 0.349269 -0.408682 0.215718 0.387028 0.528291 -0.128134 0.491739 -0.070577 0.803183 0.290285 0.022606 0.091034 0.511616 -0.618536 0.677287 0.035374 0.009575 0.331364 -0.187991 0.106308 -0.537493 0.845579 0.188696 -0.470532 -0.279610 -0.882390 0.084394 -0.238551 0.152861 0.140081 0.058818 0.056413 -0.042133 -0.478283 -0.241203 0.087355 -0.019735 0.025122 0.602488 -0.037452 0.236334 0.514761 0.490145 -0.169356 -0.363910 0.101645 -0.363725 0.251226 -0.105680 -1.211900 0.537060 0.246175 0.133476 -0.112731 0.284250 0.538209 -0.392567 0.032072 -0.223157 -0.052702 0.193633 -0.303809 0.351631 0.072873 -0.101594 0.212450 -0.343597 -0.113546 -0.060153 1.081614 0.334379 0.132813 -0.320562 0.079143 -0.313562 -0.238121 0.045036 0.331540 -0.123601 -0.152871 0.132800 0.035366 -0.092314 -0.570522 1.164620 0.055082 -0.341408 -0.088716 -0.222839 0.300069 0.135049 -0.253487 -0.181303 0.098397 0.379409 -0.024917 -0.702734 -0.214668 -0.503472 0.031996 -0.027849 -0.193410 -0.022375 0.005826 0.172952 -0.481292 0.563520 -0.107306 0.472666 -0.085558 0.481123 -0.768950 -0.041560 0.027682 -0.146738 -0.042709 -0.013739 0.254307 0.132759 -0.748498 -0.226874 -0.125649 -0.270885 0.248772 0.367588 -0.194861 0.031385 0.614857 -0.217580 -0.117067 0.171660 -0.247480 0.081384 0.522519 0.157902 0.596404 -0.253338 -0.134735 0.320608 0.492209 0.173537 0.018542 0.031522 0.545300 -0.622724 -0.625625 0.204844 0.090772 -0.515682 0.240868 -0.376804 -0.546355 -0.050965 -0.267288 -0.053346 -0.582859 0.170378 0.158451 -0.048539 -0.306818 -0.442280 -0.370830 -0.041719 -0.061343 0.591735 0.014621 0.100850 0.039389 -0.526721 0.343635 -0.338404 0.356373 0.297686 0.262777 0.721494 0.723767 -0.207379 -0.508751 0.867858
有 0.193527 -0.147848 -0.216889 0.345840 0.167840 0.077381 -0.008271 0.086339 0.221482 0.238906 0.143423 0.243447 -0.096703 -0.003722 -0.135677 -0.121377 0.010825 -0.195820 -0.039212 -0.238165 -0.051397 0.061751 -0.011509 0.038362 0.070650 0.033089 -0.204374 0.058774 0.114010 -0.009768 0.019659 0.062417 -0.174101 0.126254 -0.432744 -0.156378 0.052458 0.125257 -0.388939 0.069865 0.187773 -0.004288 0.475281 0.353765 -0.122206 0.226154 -0.268776 -0.446217 -0.065467 -0.118917 -0.294591 -0.192187 -0.390997 0.195808 0.230505 -0.081404 0.115846 0.003057 0.090625 0.186092 -0.056296 0.335652 0.082503 -0.167190 0.035242 0.025190 -0.059429 0.210702 -0.167879 -0.040131 -0.229138 -0.109364 0.172920 0.088959 -0.176697 0.343278 0.145999 0.154341 -0.132280 -0.133544 -0.054391 0.218543 -0.014213 0.147761 0.218853 -0.073853 -0.024370 0.043339 -0.342652 -0.074920 0.059256 0.027434 -0.013542 -0.130538 0.204821 0.174387 0.172619 -0.098244 -0.134930 0.147733 -0.161286 0.497633 -0.049757 -0.013583 -0.308725 0.014092 0.049633 -0.513116 0.152826 0.066975 0.015450 -0.150230 0.182188 -0.215322 -0.022703 -0.015453 -0.375220 -0.162446 -0.026662 -0.050483 0.126628 -0.336465 0.000120 0.461875 0.130959 0.175786 -0.037611 0.188004 0.033869 0.149700 -0.126054 -0.134078 0.396584 -0.113067 -0.413782 0.019947 -0.227297 -0.194167 -0.142479 -0.215759 -0.338515 -0.352531 -0.306111 -0.061289 0.011045 -0.101890 0.085560 -0.102551 -0.045749 -0.049009 -0.093439 0.041288 -0.036300 -0.065175 -0.201354 -0.090002 0.343076 -0.040611 0.365802 -0.162164 0.393155 -0.009450 -0.086723 0.188582 0.368289 0.171773 -0.251415 0.188197 -0.122036 0.139621 0.067662 -0.155448 0.017550 0.112781 0.218069 -0.068295 -0.369653 0.116830 0.206730 -0.038797 -0.059644 0.015309 -0.206915 -0.085942 0.294301 -0.162627 0.094153 0.122246 0.001931 -0.110674 0.059908 0.137000 -0.032711 -0.031056 0.301763 0.203719 0.137252 -0.197206 -0.106715 0.044652
社会保险 0.837359 -0.329848 -0.166818 -0.097806 -0.194130 -0.112474 -0.088567 0.125937 -0.207819 -0.333060 -0.262847 -0.026036 -0.010495 0.201333 -0.349488 -0.281165 0.000585 -0.409071 0.246962 0.279737 -0.225855 0.079912 -0.542749 0.335965 0.442518 0.355748 -0.191856 0.684805 -0.099145 0.337477 0.050072 0.040327 0.150996 0.736221 -0.709301 0.589619 -0.006269 0.024905 0.198596 -0.332293 -0.177971 -0.146093 0.781820 0.167170 -0.644949 -0.418319 -0.655103 0.051972 -0.231506 -0.088412 -0.089967 -0.022660 0.327180 0.387847 -0.437539 -0.062732 0.110952 0.297945 0.253743 0.371909 0.399576 0.415744 0.455539 0.397898 -0.426092 -0.401777 0.273512 -0.067461 0.169476 -0.123848 -0.750074 0.129963 0.212643 0.349905 -0.050962 -0.075677 0.428554 -0.394373 -0.223437 -0.198735 0.161924 0.062773 -0.293433 0.181378 0.049133 -0.320460 0.191769 -0.001775 0.045535 -0.085032 0.923717 0.433432 -0.138752 -0.034582 0.394639 -0.221043 -0.206654 0.058357 0.270534 -0.126927 -0.102125 0.152324 0.071172 -0.216407 -0.536713 0.990091 -0.230416 -0.715570 -0.390882 -0.170096 0.245762 -0.307938 -0.081274 -0.417899 0.038119 0.434572 -0.151225 -0.266699 0.132077 -0.034267 0.003461 -0.221513 -0.197258 -0.339528 0.001697 0.105520 -0.069693 0.492060 -0.195473 0.019685 -0.167859 0.412611 -0.516997 -0.148981 0.087558 -0.213173 -0.212362 -0.141104 0.271540 0.073180 -0.408715 -0.267229 -0.268387 -0.267668 0.122881 0.249583 -0.245150 0.243116 0.494140 -0.244301 -0.055545 0.473177 -0.108894 0.198605 -0.126691 0.016469 0.481156 -0.170395 -0.139170 0.125941 0.506775 0.349785 -0.040027 0.060853 0.530467 -0.154433 -0.487836 0.478944 0.137088 -0.360444 0.312512 -0.420181 -0.510793 -0.086011 -0.042528 -0.026926 -0.399445 0.174084 0.019219 -0.045058 -0.199801 -0.214715 -0.031782 -0.068374 0.234757 0.279013 0.002136 -0.038593 0.387956 -0.480622 0.216608 -0.085502 0.272701 0.319757 0.138625 0.241421 0.204557 -0.021577 -0.727558 0.538547
流程 0.278968 -0.183662 -0.421576 0.077288 0.111964 -0.315691 -0.105963 0.330685 -0.264203 0.183116 -0.321351 0.090098 0.281780 -0.086472 0.061219 -0.049812 0.096788 0.057477 0.050292 0.024690 -0.198056 0.012274 -0.092842 0.354900 0.604507 -0.100748 -0.214091 0.219148 0.453486 0.111419 0.219617 -0.081816 0.106058 0.119698 0.171832 0.105093 0.023076 -0.010410 -0.115346 0.382837 0.417807 0.147470 0.033386 0.238600 0.395125 -0.237575 -0.334955 -0.457194 -0.246763 -0.451920 -0.038442 -0.257458 -0.026161 0.037874 0.312647 0.346068 -0.048200 0.390861 0.022388 -0.265817 0.201988 0.183291 0.126736 -0.055399 -0.281220 0.138699 -0.132668 0.020727 -0.161490 -0.246015 -0.201735 0.139932 0.321906 -0.191798 0.110575 0.305567 0.374006 0.104028 0.249501 -0.348898 0.234714 0.497853 0.335228 0.506977 -0.108977 -0.021190 -0.048695 0.233642 -0.085727 -0.440819 0.136116 -0.097301 0.049407 -0.033700 -0.098580 0.123286 0.291175 -0.370561 -0.305311 -0.210738 -0.040787 -0.080293 0.275187 0.010891 -0.312343 0.373277 0.165185 -0.381086 0.095442 0.083601 -0.117424 -0.377472 0.026670 -0.004400 0.047492 -0.097545 -0.187057 -0.071709 -0.038723 -0.454269 0.278770 -0.583512 0.068901 -0.150433 0.048335 0.214225 -0.284529 0.209551 -0.510436 0.010899 -0.107217 0.202883 -0.303835 -0.339185 -0.186096 -0.469151 -0.120693 -0.342408 -0.462704 -0.260359 -0.200270 -0.433738 -0.452206 -0.195707 -0.096551 0.110504 0.055275 0.094430 0.087076 -0.116085 0.124547 0.240237 0.130966 -0.276308 0.155397 0.242334 0.674893 0.215686 -0.073246 0.174292 0.289148 -0.240747 -0.344030 0.185819 0.330368 -0.090500 -0.316191 -0.175348 0.330148 -0.174550 0.212098 -0.050136 0.025398 0.324276 -0.132600 0.076299 -0.057319 0.473917 -0.385492 0.054867 -0.575347 -0.161096 0.284864 0.181675 0.090522 -0.040822 -0.138092 -0.047451 0.081711 -0.000476 0.630788 0.069779 0.385714 0.066644 0.348305 0.100180 0.191348 -0.134272 -0.180274 0.064323
津贴 0.121891 -0.377971 0.339035 -0.275164 -0.268736 0.038718 0.301078 0.287042 -0.032509 -0.337689 -0.132702 -0.086320 0.124665 0.445543 -0.231789 -0.019281 0.133695 -0.324267 0.120967 0.093748 -0.382397 -0.086380 -0.176541 0.470621 0.558661 0.475491 0.078228 0.432243 0.114996 0.057023 0.289136 0.216497 0.136021 0.561504 -0.014492 0.145238 0.388841 -0.087161 -0.073437 -0.482348 -0.162716 -0.109164 0.258029 0.014803 -0.608756 0.009345 -0.536290 -0.375405 0.091325 0.022720 0.006723 -0.258157 0.055668 0.042101 -0.492723 -0.014035 0.236504 -0.169451 0.059937 0.305622 0.574787 0.346957 0.279620 0.210419 -0.323234 0.040635 -0.309909 -0.289379 0.093581 -0.277888 -0.506541 0.005099 0.225614 0.317270 -0.070373 0.251477 0.305431 0.065913 -0.107118 0.345865 -0.081615 -0.149146 -0.537759 0.258686 0.339556 0.161479 0.315689 0.293121 0.054595 -0.147414 0.740416 0.330598 0.157990 -0.064782 -0.040206 -0.587326 0.034801 0.139394 0.066525 -0.234026 -0.276024 -0.398594 -0.316468 0.164502 -0.913109 0.603971 0.086009 -0.304164 0.117323 0.075967 0.221571 -0.215451 0.387403 -0.258912 0.237517 0.110923 -0.412672 0.047763 -0.044867 -0.228030 -0.188380 -0.068552 -0.098590 -0.535669 0.103898 -0.016457 -0.554253 0.358644 0.023675 -0.307785 0.388083 0.384607 0.238325 -0.079949 0.027955 -0.252930 -0.521798 -0.377746 0.075487 -0.217343 0.243989 -0.562153 -0.156189 -0.612232 0.060115 0.175201 0.323862 0.041287 0.389242 0.014074 0.235386 0.113312 -0.193250 -0.073162 -0.401705 0.054859 0.610696 0.006841 0.063699 -0.591986 0.066862 -0.010051 -0.011121 -0.084170 0.153870 0.261747 -0.500018 0.279701 0.512849 0.041407 -0.112821 -0.091603 -0.287120 -0.265652 -0.513475 -0.061834 -0.467603 -0.022747 0.107402 -0.050144 -0.234800 -0.201697 -0.322626 -0.183220 0.301178 0.285926 -0.267051 0.167803 0.079398 -0.456809 0.499261 0.304506 -0.066670 -0.046223 -0.153828 0.160835 -0.069907 -0.495815 -0.523571 0.313452
钱 0.051443 -0.787259 0.251143 -0.081542 0.246040 0.260139 -0.211109 0.091730 -0.111793 0.110976 0.108390 -0.092898 0.269906 0.057092 0.259260 -0.336788 -0.023212 -0.613786 0.285247 -0.007431 0.016699 0.155842 -0.075137 0.164182 0.326796 -0.102629 -0.017155 0.053718 0.537350 -0.352783 0.012330 0.084729 -0.222322 0.565427 -0.301012 0.014260 0.076865 -0.013088 -0.306874 -0.079612 -0.129980 -0.055508 0.302936 -0.079668 -0.343888 -0.009703 -0.342871 -0.109682 -0.172784 -0.374811 -0.288150 0.147699 -0.280335 0.152376 0.017996 -0.055319 0.199017 -0.201101 0.388487 0.095021 0.194010 0.311966 -0.073772 0.089981 -0.346743 0.078939 -0.143921 -0.058599 0.157599 -0.448564 -0.538889 0.249744 0.048885 0.221762 0.136859 0.191322 0.135190 0.062615 0.108551 -0.379232 0.108025 0.091815 -0.011062 0.229098 0.208094 -0.135129 0.011967 0.145855 -0.221337 -0.159399 0.476120 0.116634 0.061602 0.129041 -0.228914 0.003015 -0.027933 0.284013 -0.082034 -0.047215 0.173297 0.074089 -0.253747 0.297382 -0.440709 0.104908 0.160714 -0.388299 -0.088108 -0.004431 0.027622 -0.153316 -0.031849 -0.100656 0.239759 0.085192 -0.146503 -0.227240 0.020521 -0.191006 0.210131 -0.332559 0.023546 -0.279676 -0.094725 0.099805 -0.270549 -0.041166 -0.070771 -0.045902 -0.013173 0.150194 -0.063714 -0.064778 -0.085996 0.184463 -0.270784 -0.003503 0.039703 0.190424 -0.242307 -0.319807 -0.367082 -0.220010 0.005538 -0.164267 0.104994 0.284822 0.015246 -0.147330 -0.157307 0.094236 0.339808 0.004040 -0.364218 0.116674 0.316215 0.054793 0.237491 -0.340396 -0.049746 -0.041500 -0.389097 0.127166 0.187476 0.170444 -0.481165 0.205166 0.062466 0.353958 -0.207299 -0.145036 -0.490043 -0.047839 0.269809 0.311864 -0.255057 -0.019414 0.205123 0.307820 0.126071 0.304654 -0.425245 -0.143591 0.128685 -0.074318 -0.274967 0.532093 0.015523 -0.106648 0.205018 -0.051393 -0.134475 -0.301810 0.090483 0.462429 0.181401 -0.110931 -0.307906 0.399574
影响 0.262064 -0.252672 0.033922 0.267828 0.479244 -0.271866 -0.222174 0.239281 0.081909 0.218677 -0.005123 -0.060215 0.311172 0.094473 -0.154738 -0.132536 0.138169 0.117202 -0.106893 -0.004584 0.022998 -0.050953 0.149735 -0.085616 -0.015049 0.287170 -0.180607 0.162057 -0.249433 0.001052 0.097790 0.094748 -0.186770 -0.220617 0.088543 0.022651 0.095560 0.188152 -0.155635 0.089217 0.181581 -0.113759 0.728819 0.448933 -0.225343 0.045423 -0.248314 -0.417443 0.594762 0.135935 -0.219287 0.023127 -0.428499 0.090924 -0.051678 0.131177 -0.111499 -0.035469 0.144932 0.183707 0.239097 -0.197315 0.284974 -0.055963 -0.135870 -0.410351 -0.025406 0.326619 -0.238248 -0.270244 -0.439546 0.320720 0.211021 0.117521 -0.122249 -0.072124 0.084624 0.685774 -0.289404 -0.215509 0.090233 0.153328 -0.094629 0.163462 0.301343 -0.021184 -0.088965 0.160197 -0.176540 -0.089520 0.121900 0.061619 -0.473552 -0.339587 -0.029047 0.220515 0.071986 -0.078757 -0.219229 0.045655 0.153770 0.249106 -0.342651 0.050391 -0.373269 0.330127 -0.091377 -0.367227 -0.004548 0.266598 -0.341898 -0.333432 -0.079988 0.133404 0.075818 0.007343 -0.087763 0.024948 -0.306786 -0.515907 0.212721 -0.479765 -0.422771 0.327164 0.285155 0.129461 0.002077 -0.048524 -0.189820 0.119433 -0.108321 0.157158 0.227878 -0.122034 -0.351082 -0.017372 0.016927 -0.432066 -0.271084 0.094534 -0.134069 -0.227767 -0.453218 0.049626 -0.216032 -0.156413 0.132442 -0.298999 0.039812 -0.590262 0.353181 0.043206 -0.018120 0.030501 -0.056275 -0.028589 0.078314 0.271572 0.400221 -0.151592 0.626748 -0.233545 -0.116082 0.356862 0.253205 0.000658 -0.509770 0.119801 -0.086173 0.010998 -0.300378 -0.100228 0.068629 0.301966 0.322867 -0.007491 -0.031108 0.203093 0.046965 0.156049 -0.066771 -0.093565 -0.093587 -0.005895 -0.127310 -0.000386 -0.165995 0.226436 -0.264457 -0.081853 0.610963 0.267160 0.572649 0.113983 0.075849 0.046115 0.079302 -0.249322 -0.177314 -0.013517
住房 0.382272 -0.195588 -0.059788 0.265775 -0.265713 -0.038147 0.191981 0.054638 -0.003335 -0.693948 0.158142 -0.112356 0.182270 -0.170913 -0.366658 -0.087076 0.191794 -0.383880 0.262377 0.141154 -0.106012 -0.162260 -0.011650 0.287354 0.562704 0.687091 -0.550636 0.679411 -0.182196 0.176766 -0.125670 -0.204117 0.201861 0.584646 -0.529663 -0.002306 0.194589 0.249295 0.104266 -0.097360 -0.139071 0.509928 0.342395 -0.012579 -0.273535 -0.058752 -0.208104 -0.202625 -0.480897 0.161570 -0.235683 -0.019956 0.140996 0.235265 -0.415161 -0.163916 0.104743 0.103187 -0.267652 -0.082184 0.222966 0.139197 0.514197 0.268407 -0.430878 -0.149071 -0.089173 0.319006 -0.285601 0.040572 -0.538231 0.108348 -0.020080 0.113776 -0.104065 -0.188032 -0.115180 -0.035548 -0.243980 -0.034848 -0.003922 0.377026 -0.473475 0.323176 0.104092 -0.180112 -0.307978 -0.123414 -0.273845 -0.367423 0.383336 0.126842 -0.042888 -0.158558 0.270196 0.069156 0.022927 0.012937 0.015104 0.406554 -0.441639 -0.052375 -0.111511 0.424569 -0.451464 0.293650 -0.209291 -0.516792 -0.365428 0.158991 -0.171290 -0.439998 0.128107 0.132470 0.140660 0.149473 -0.006791 -0.441222 0.313756 -0.335756 -0.136265 -0.348906 -0.162394 -0.224359 0.285401 0.005820 -0.294552 0.405643 0.039646 0.155057 0.024706 0.217219 0.129687 -0.044111 0.054222 -0.204308 -0.161018 0.018192 -0.351429 0.094049 -0.133385 -0.199747 -0.118382 -0.639874 0.131296 -0.068662 0.231377 0.653812 0.107154 -0.505077 0.102691 0.544451 0.286122 0.285182 -0.255398 -0.128419 0.218803 0.286882 -0.059864 -0.024955 0.576399 -0.060867 0.174660 0.237131 0.339473 -0.026630 -0.227524 0.359589 -0.030024 0.164500 0.124768 -0.171706 -0.269045 -0.036442 0.016263 -0.072898 -0.097740 0.007971 -0.058847 -0.046302 0.284294 -0.378350 -0.322010 0.010364 0.556572 -0.126355 -0.053891 0.164074 0.359302 0.021832 0.029538 0.232009 0.297974 0.083168 0.278252 0.223165 -0.201504 -0.062667 -0.191491 0.181352
中断 0.359549 0.211080 0.189107 0.267355 0.357368 -0.085430 -0.240714 0.337294 0.335119 -0.085465 -0.210179 0.198430 0.092068 0.314114 0.106776 -0.059609 0.166184 -0.116422 -0.175196 -0.303125 -0.575103 0.284388 -0.132420 0.277742 0.110577 0.127949 -0.486916 0.161919 0.056821 0.195447 -0.042778 0.207776 0.154086 -0.127432 -0.110515 0.294749 0.294533 0.032165 -0.153685 0.058658 -0.056992 0.039449 0.701914 0.142407 0.006041 -0.073652 -0.191626 -0.574041 0.368554 0.062965 -0.380604 0.338948 -0.116884 0.118156 0.034622 0.163058 0.048914 0.340453 0.178158 0.157711 0.020141 0.176914 0.080645 -0.057553 -0.241803 -0.174865 0.063436 0.191970 0.108694 -0.385358 -0.219937 -0.036511 0.004679 0.411880 -0.199031 -0.359944 0.281799 0.289170 -0.391999 -0.178583 -0.099435 0.076043 0.394870 0.131543 0.150137 -0.210279 0.090355 -0.108292 -0.183377 -0.294012 -0.201739 0.045884 -0.118396 -0.088583 0.176879 0.352385 0.232329 -0.004666 -0.096436 -0.124254 -0.281076 0.122689 -0.219707 0.336919 -0.095784 0.613245 -0.223500 -0.432882 0.294135 0.087461 0.218839 -0.449611 -0.029021 -0.668969 0.275828 -0.100876 -0.158600 -0.137667 -0.066026 0.118637 0.224343 -0.260697 -0.177568 0.004799 0.303757 0.135275 -0.333091 0.368232 -0.389476 -0.147029 -0.339704 0.133964 -0.028540 -0.319720 -0.020477 -0.352662 -0.467177 -0.174225 -0.083589 0.228749 -0.230038 -0.592267 -0.847252 -0.140825 0.203591 0.050642 -0.235446 -0.400479 0.249351 -0.282845 0.096604 0.245212 -0.400602 0.236605 0.519505 -0.071153 0.135251 -0.062564 0.037165 -0.166216 0.311931 -0.303679 0.180052 0.148725 0.296293 0.023563 -0.112927 0.189541 0.192437 -0.157888 -0.029296 0.263000 -0.043430 0.381587 0.221559 -0.488803 0.028241 -0.132024 0.081941 0.168237 -0.053529 0.094419 0.033895 -0.027115 -0.066987 0.216376 -0.277345 0.291819 -0.182416 -0.096272 0.132979 -0.019919 0.587865 0.367960 0.022410 -0.153590 0.259107 -0.032726 -0.388119 -0.382725
金 0.052686 -0.124533 0.076948 -0.047544 0.103665 0.133188 0.283812 0.158996 -0.037422 0.315245 0.185729 0.146005 0.093976 0.098488 0.002009 -0.636457 0.066252 -0.072638 0.000734 0.130284 -0.218970 0.030431 0.154296 0.257076 0.277227 0.441428 -0.446847 -0.121267 0.298548 -0.078265 0.287647 0.354374 -0.191361 0.286985 -0.200253 -0.223104 -0.003488 -0.079954 -0.264595 -0.228180 0.067707 0.224390 0.139533 0.023846 -0.142985 0.186606 -0.531649 -0.705478 0.053461 -0.376666 -0.256895 -0.133180 0.039666 0.279072 0.183608 -0.013913 0.681999 0.068956 0.043439 0.197372 0.520352 -0.075780 0.148199 -0.001696 -0.258861 -0.044154 -0.188965 -0.103075 0.208155 -0.156773 0.094897 -0.026283 -0.021562 0.267329 -0.397995 -0.343905 -0.012772 0.110723 -0.023851 -0.094779 -0.152933 0.052911 0.100162 0.299650 0.112233 -0.216746 0.192835 0.103103 0.109842 -0.413586 0.315949 0.124551 0.301405 -0.368256 0.024952 -0.190850 -0.094468 -0.004590 -0.360135 0.156592 0.103914 0.078747 0.095132 0.505494 -0.018224 0.443426 0.019875 0.064770 0.185579 -0.488324 -0.087784 -0.153598 0.093126 -0.161262 0.224388 -0.000762 -0.649107 -0.216243 -0.321692 -0.464497 0.064866 -0.042742 0.087121 0.071102 0.059569 0.490155 0.123756 -0.105923 -0.009145 -0.241313 -0.106509 0.128698 0.274667 -0.018981 -0.068468 -0.050383 -0.144554 -0.018422 0.184830 -0.089632 -0.317988 -0.446486 -0.163531 -0.073432 0.280798 0.159286 -0.214044 -0.000187 0.044677 -0.186145 -0.272082 -0.268691 0.135003 0.278727 -0.096625 0.186084 0.233106 -0.011173 0.034179 0.042766 0.434160 0.041875 -0.150388 0.352692 0.274676 -0.179339 -0.478764 0.190655 0.276908 0.076298 -0.050443 -0.187963 -0.036156 -0.333139 -0.172356 -0.108591 -0.306087 -0.365109 0.213626 0.059266 0.207276 0.286754 -0.112091 0.398932 -0.129917 0.158708 -0.053868 0.146134 -0.046678 -0.175250 -0.091810 -0.003975 -0.084598 -0.239903 0.090779 0.524978 -0.005724 0.106086 -0.158836 0.222942
2013 0.156008 -0.349188 -0.050481 0.029175 0.470383 0.265906 -0.071747 0.333175 -0.147763 0.289308 0.259011 0.531785 0.071447 0.097917 0.387411 -0.223463 0.234310 -0.271001 -0.517725 0.026410 -0.245042 -0.142272 0.221083 -0.352085 0.453181 0.076271 -0.046331 0.077402 -0.000454 -0.197221 0.010764 0.331242 0.163669 -0.159282 -0.217238 -0.675242 0.403208 -0.272816 -0.010336 -0.225410 -0.055186 -0.117156 0.332581 0.115571 -0.137181 0.267973 0.044953 -0.319443 0.110892 0.296851 -0.096967 0.261819 -0.199025 0.219418 0.414076 -0.523981 -0.133951 0.099023 0.270704 0.037923 0.470772 0.233194 0.378388 -0.002434 -0.200381 -0.429537 -0.230951 0.113660 0.197368 0.118649 0.020456 -0.046779 0.145625 -0.076076 -0.443288 0.036611 0.079052 0.270616 -0.005784 -0.346527 0.146798 0.265870 -0.298587 0.056747 -0.031357 -0.093859 -0.181774 0.233728 -0.187313 -0.264185 0.252903 0.470368 -0.106717 0.238810 -0.058598 -0.176346 -0.359425 -0.106162 -0.028458 -0.037837 -0.296193 0.037060 -0.195983 0.064465 0.240099 0.266550 0.238514 -0.500626 -0.186765 -0.510895 -0.286385 -0.428030 0.055916 -0.211200 -0.239857 -0.521634 -0.047875 -0.052372 0.016248 -0.518951 0.163356 -0.074462 -0.217170 -0.143320 0.147542 0.545951 -0.231398 0.340182 0.014044 -0.099305 0.109075 0.255714 0.385022 0.427059 -0.743667 0.029833 -0.198222 0.098004 -0.101050 -0.215840 -0.230653 -0.425254 -0.237984 -0.182107 0.511925 -0.312908 -0.012365 0.162534 0.380773 0.418694 -0.040422 -0.288203 0.327419 0.255687 -0.149656 -0.090023 0.230699 -0.101446 0.208678 0.126019 0.225192 0.154574 -0.249831 0.482867 0.003540 -0.438907 -0.498612 0.497509 0.233895 0.025348 0.125091 0.240584 -0.111825 0.205414 -0.418895 -0.039078 -0.286338 -0.403488 -0.070011 0.133795 -0.361285 -0.425764 0.039525 0.295178 0.323004 0.470589 0.177882 0.576484 -0.119680 -0.116446 0.206212 0.248004 0.238581 -0.183870 0.069351 0.851331 -0.145207 -0.287572 0.029232 0.065306
哪些 0.181075 -0.112197 -0.496547 0.101706 0.070707 0.027470 0.225269 0.216467 -0.145388 0.273269 -0.195005 0.005985 0.083059 -0.189629 -0.016839 -0.095473 0.030633 -0.215628 0.082730 -0.296837 -0.065544 -0.099700 0.373816 -0.301462 -0.106153 0.182770 -0.478065 -0.062173 0.100766 0.061229 0.187820 0.030557 -0.273776 0.313610 0.038867 -0.264455 -0.052663 -0.014567 -0.106994 -0.017553 -0.234468 0.098772 0.303629 0.440844 -0.265230 0.211721 -0.445812 -0.848231 0.031269 0.041386 -0.160730 -0.410209 -0.517545 -0.080134 0.035904 0.201126 0.248828 0.150848 0.324987 -0.004960 -0.016266 0.097694 0.025487 -0.453666 0.268885 -0.050945 0.397675 0.042980 -0.080918 0.444038 -0.578429 0.300979 0.253190 -0.129127 0.170750 0.512505 -0.029441 0.005134 -0.028137 -0.363870 0.268222 0.241582 -0.132994 0.158894 0.246965 -0.170180 0.111933 0.042916 -0.037830 -0.220530 0.063102 0.409473 -0.483793 -0.327453 0.156072 -0.127241 0.409390 -0.009458 0.109377 -0.106314 -0.040941 0.181788 0.095350 0.137394 -0.289734 -0.072492 0.029647 -0.143481 -0.176631 0.058731 0.388541 -0.147747 -0.153662 0.104165 0.026815 0.061768 0.052032 -0.046731 -0.007391 -0.353555 -0.084960 -0.341871 -0.128500 -0.052581 -0.015382 0.400206 0.077215 -0.090104 -0.087533 0.061494 -0.157132 0.217552 0.429768 -0.144601 -0.432005 -0.035459 -0.221383 -0.438342 -0.377022 -0.227212 -0.444734 -0.646715 -0.349859 -0.070933 -0.019206 0.119139 -0.194337 0.045343 0.184718 0.181830 -0.281247 0.291382 -0.177381 0.224924 -0.140244 0.193632 0.419735 0.397149 0.123548 0.067940 0.612957 -0.383584 -0.214937 0.306099 0.260747 0.081991 -0.180151 0.290820 0.122989 0.205067 0.265270 -0.015204 0.140308 -0.070452 0.125277 0.034111 -0.520746 0.149005 -0.089964 0.427441 -0.009235 -0.364763 0.136405 0.025611 -0.133381 0.202715 -0.357471 -0.045819 0.283075 0.329262 0.418863 -0.038369 0.021828 -0.020682 0.300409 0.362366 0.141072 -0.457138 -0.381451 0.162577
交 0.301327 -0.544852 -0.180254 0.045025 0.460860 -0.136608 0.307664 0.182456 -0.081046 0.179882 0.112179 0.044556 0.325308 0.012618 -0.025585 -0.147990 0.280499 -0.164956 0.116286 -0.176610 0.262453 0.031357 -0.032146 0.358836 0.068749 0.178177 0.101643 0.157060 0.057811 0.047778 0.225563 0.353900 0.189239 0.452769 -0.538672 -0.025586 -0.218837 0.070188 -0.237269 -0.027772 -0.308540 0.262533 0.736268 -0.130119 -0.191911 -0.274034 -0.366365 -0.405283 -0.128816 -0.112503 -0.457385 -0.435609 0.012524 0.203064 -0.043983 0.052720 0.186135 0.170501 0.400655 -0.182821 0.192699 0.295996 0.279944 -0.239673 -0.177600 0.035807 0.129349 0.024699 0.035758 -0.314417 -0.430654 -0.133576 -0.098419 0.297620 -0.139737 -0.318121 0.188096 0.126670 0.079176 0.015768 0.196366 -0.085340 0.073544 -0.042415 0.344407 -0.122873 -0.219382 -0.038833 -0.192663 -0.212087 0.152268 0.040814 -0.014747 -0.292871 0.262787 0.050964 0.223176 0.033465 -0.136902 -0.377141 0.016411 0.288905 -0.150658 0.435738 -0.173551 0.257364 -0.084475 -0.193659 -0.074676 -0.110584 0.038247 -0.257699 0.029597 -0.304802 0.112795 0.319052 -0.656234 -0.129750 -0.164406 -0.362030 0.223290 -0.077768 -0.034930 -0.402778 -0.280143 0.206985 -0.653903 0.278792 -0.345915 -0.013133 0.040960 0.264544 0.335205 -0.194842 0.161712 -0.402105 -0.479349 -0.131270 -0.244662 0.184419 0.006085 -0.204077 -0.350391 -0.338751 0.344505 -0.213981 0.001933 -0.092715 -0.084683 0.076905 -0.518554 0.108383 -0.248063 0.244796 -0.243647 0.523551 0.417805 -0.006729 0.177687 0.058512 -0.194572 0.244944 -0.272225 0.318743 0.299991 0.240038 -0.406879 0.274638 0.466981 0.059390 0.224500 -0.262961 -0.154382 -0.146664 -0.344176 0.399943 -0.051208 -0.409880 0.515785 0.238466 0.327778 0.217859 0.474761 0.019990 0.189949 0.143932 0.089900 0.386335 0.254072 -0.452888 0.460444 -0.375992 0.297040 -0.412055 -0.035120 0.097013 0.220282 -0.051855 -0.411897 0.049872
五险 0.726701 -0.580373 -0.222938 -0.081581 -0.152060 -0.059401 0.132614 -0.172265 -0.060324 -0.209439 -0.423434 -0.062438 0.063162 0.342404 -0.085324 -0.387383 -0.140903 -0.717964 0.448734 0.380861 0.112327 0.138804 -0.003691 0.847952 0.617402 0.143181 -0.484094 0.311545 0.143098 0.599186 0.258537 0.185529 0.140547 0.774121 -0.634774 0.879014 0.249916 0.122804 0.084128 -0.287214 -0.323248 -0.210314 0.345056 -0.065639 -0.301287 -0.310194 -0.469357 0.253055 -0.477942 0.029581 -0.066512 -0.153234 0.369894 0.230296 -0.385183 -0.082576 0.492228 0.334367 0.052875 0.685302 0.240909 0.015538 0.377844 0.000798 -0.341716 -0.377873 0.523420 -0.327884 0.095316 -0.458422 -0.853763 -0.115048 0.138682 -0.393339 0.031857 0.019281 0.612128 -0.291899 -0.193897 0.125173 0.191869 -0.500059 -0.517294 0.202787 0.159674 -0.231350 0.300714 0.450566 -0.171067 -0.215964 1.050026 0.482439 -0.127287 -0.108845 0.189747 -0.323662 -0.250784 0.251950 0.111406 -0.171149 -0.208205 0.290598 0.395448 0.261517 -0.688168 0.811877 -0.074696 -0.418953 -0.064815 -0.243255 0.373479 -0.232584 0.132767 -0.302012 -0.066448 0.578447 -0.380264 -0.443945 -0.215359 0.006814 0.110202 -0.306534 -0.237528 -0.520090 0.142718 0.083033 -0.219484 0.128327 0.221512 0.214538 0.102149 0.195560 -0.346502 0.393392 0.354144 -0.022469 -0.010634 -0.078854 0.056706 -0.125570 -0.253456 -0.138975 -0.154765 -0.456432 0.744795 0.355924 -0.367677 -0.076414 0.918860 -0.023043 -0.369404 0.459933 -0.015529 -0.018581 -0.479361 -0.335818 0.645049 -0.278594 0.108019 0.106983 0.418662 0.280455 -0.431977 -0.174379 0.383934 -0.002913 -0.803356 0.150455 0.457342 -0.520870 0.163355 -0.766708 -0.470488 -0.142530 -0.426328 0.337167 -0.893025 0.211722 -0.001439 0.051017 -0.048076 -0.304142 -0.012588 0.098021 0.086292 0.471434 -0.271648 -0.082317 0.081107 -0.638381 -0.105213 -0.389506 0.143295 -0.048605 0.470642 0.365865 0.384448 0.244384 -0.560553 0.699883
最新 -0.050006 0.167563 -0.138997 0.626648 0.144168 0.285784 0.371085 0.254773 -0.094190 0.290796 -0.200845 0.474545 0.064904 -0.132365 -0.278636 0.104362 0.074481 -0.442559 0.055553 -0.374634 -0.169325 0.236464 -0.106609 0.091292 0.226228 -0.126985 0.005489 0.155980 -0.113494 0.025769 -0.294434 0.264724 -0.113411 0.156488 0.137240 -0.105235 0.353490 0.051068 -0.129919 -0.128763 0.119328 -0.180425 0.364773 0.040872 -0.161787 -0.361421 -0.403975 -0.472265 -0.349727 0.078692 -0.303746 0.124160 -0.339376 0.318277 0.021486 -0.084196 0.098431 0.417572 0.035813 -0.059510 -0.138920 0.555273 0.026970 0.021600 -0.088915 -0.448753 0.229910 0.159839 0.489459 0.243311 -0.188209 0.202073 0.193498 0.237451 -0.492948 0.274800 -0.312964 0.240217 -0.005444 -0.487713 0.096776 0.309553 0.002509 0.290157 0.015097 0.054361 -0.128452 0.106260 -0.165485 -0.060725 -0.013789 -0.059222 0.084160 -0.445903 -0.094501 0.182695 -0.353801 -0.025190 0.095280 0.017402 0.049402 -0.392967 -0.364462 -0.002625 -0.487432 0.255617 0.158811 0.066919 -0.031511 -0.033197 -0.162002 -0.454180 0.301403 0.097264 0.082363 -0.203332 -0.163954 -0.368092 0.363850 -0.464723 -0.145379 0.124832 -0.135755 -0.053361 0.292491 0.557688 -0.217860 -0.030082 0.258502 -0.106278 0.151102 0.147807 0.180177 -0.371926 -0.175447 -0.066355 -0.005739 -0.514526 -0.162691 -0.096748 -0.331037 -0.323341 -0.158041 0.021487 -0.079586 0.344524 0.133076 0.297582 0.030864 0.225379 0.120531 -0.552652 0.061973 -0.199777 -0.181974 0.295664 -0.041474 0.397731 0.086032 -0.183829 0.623325 0.030007 -0.120882 0.661556 0.278007 0.126030 -0.454169 0.090767 -0.120634 -0.331395 0.285446 -0.035148 0.399292 0.166471 -0.191472 -0.051267 -0.226704 0.028156 -0.062908 0.352806 0.096894 -0.148469 0.257814 0.137669 -0.020995 0.083667 0.027379 0.311392 -0.117685 0.169097 0.224684 0.233420 0.106727 0.098056 0.437612 0.238297 0.492068 -0.381811 -0.168562 0.003815
计算 0.123613 -0.024071 -0.062355 -0.150692 -0.091644 -0.041413 0.139917 0.356166 -0.023657 0.014890 -0.156278 -0.022147 0.268134 0.296360 -0.071550 -0.059312 0.136913 -0.315141 0.396777 -0.114135 -0.232982 0.207611 0.050793 0.202998 0.222745 0.167708 -0.014018 0.309609 -0.079733 0.143281 0.197805 0.203704 0.472340 -0.388745 -0.005749 -0.058960 0.434594 0.229665 -0.126851 -0.193556 -0.148680 0.238330 0.768572 0.116565 -0.187271 0.191619 -0.354640 -0.146929 -0.018990 -0.031698 -0.219123 -0.190788 -0.226336 0.332960 -0.203126 0.548731 0.406585 0.554894 0.308071 0.079811 0.068334 0.221572 0.242189 -0.100839 -0.093208 -0.063414 -0.045107 0.313088 0.124892 -0.197532 -0.698223 0.304799 0.240202 0.305377 -0.567613 0.193491 0.107903 0.260505 0.166763 0.062165 0.150070 0.176187 -0.201815 0.450146 0.458995 -0.246385 -0.222489 -0.048683 -0.119937 -0.459999 0.300629 -0.227581 0.075065 -0.212557 -0.160793 0.268905 -0.031609 -0.649689 0.009613 -0.321760 -0.231538 -0.193332 -0.112741 0.112142 -0.208667 0.029135 -0.345849 -0.037553 0.130285 -0.154021 -0.140768 0.115833 -0.104355 -0.392091 -0.327449 0.181135 -0.206867 -0.226500 -0.246546 -0.484131 0.245896 -0.545425 -0.229948 -0.320649 -0.029834 0.413943 -0.478298 0.295399 -0.599375 0.027794 -0.073051 0.046377 -0.051290 -0.320916 -0.346944 -0.364103 -0.198722 -0.260252 -0.125273 -0.003885 0.095590 -0.215147 -0.379703 -0.222117 0.057810 0.075534 -0.274933 0.361658 0.471993 -0.110357 0.315390 -0.057551 0.359833 -0.064418 -0.064435 0.393317 0.100839 0.660238 0.240381 -0.186522 0.101725 -0.077655 -0.051316 0.401070 -0.248609 -0.010010 -0.471952 -0.118405 0.170819 -0.007348 -0.116079 -0.021150 -0.166533 0.453088 -0.427351 0.228965 -0.475649 0.083881 -0.058231 0.270755 -0.038050 -0.009368 0.129975 -0.016675 -0.073522 -0.015209 -0.352146 0.069570 -0.023284 0.068618 0.117082 0.183649 0.447643 0.173473 0.132683 0.140836 -0.155858 -0.172582 0.113619 0.059770
一金 0.435758 -0.385155 0.276460 0.175120 -0.390459 -0.205362 -0.051302 -0.197071 0.022261 -0.121172 -0.002785 -0.113472 -0.184820 0.100711 -0.117934 -0.531343 -0.132989 -0.241392 -0.068178 0.491201 0.079915 0.884007 -0.045833 0.521667 0.095900 0.054591 -0.487385 0.279670 -0.015579 -0.240030 0.470708 0.147713 -0.084411 0.518062 -0.522694 0.427931 0.106319 0.028333 -0.171048 -0.533972 -0.446502 0.132194 0.114285 -0.575712 -0.137855 -0.279524 0.116256 -0.283503 -0.419654 -0.042329 -0.307301 -0.131882 0.423806 0.079976 -0.282654 0.071362 0.649847 0.315751 0.260143 0.258220 0.297641 -0.104238 0.275091 0.276121 -0.214441 -0.033877 0.436451 -0.382754 0.099383 -0.258449 -0.483643 -0.111914 0.035552 -0.220953 -0.185601 0.087408 0.182555 0.413151 0.256961 0.340405 0.431135 -0.315240 -0.163464 -0.107655 0.256684 -0.146381 0.321212 0.279249 0.000211 -0.116690 0.637807 0.171094 0.066736 -0.450113 -0.156426 -0.297468 -0.138661 0.342750 -0.354803 -0.199688 0.148298 0.445596 0.295955 0.492813 -0.093176 0.859556 0.032422 -0.379787 0.113702 -0.316985 -0.114676 -0.244347 0.192232 -0.375379 0.243866 0.335976 -0.360956 -0.430951 -0.390607 -0.252533 0.331940 -0.047296 -0.007869 -0.254977 0.438787 0.468225 -0.016621 -0.063084 0.244654 -0.109910 -0.150897 0.546576 -0.175748 -0.081252 0.211245 -0.074918 -0.111573 -0.131769 0.147590 -0.322420 -0.317703 -0.266810 -0.052928 -0.480749 0.790032 0.278267 -0.717205 -0.518633 0.739948 -0.269503 -0.408088 0.105752 -0.372931 0.398961 -0.301217 -0.133067 0.413593 -0.156772 -0.076480 0.215827 0.488036 0.193532 0.193937 0.109938 0.348510 -0.011933 -0.433274 -0.208891 0.360227 -0.015404 0.437292 -0.420794 -0.340117 -0.602235 -0.122505 0.112018 -0.336838 0.137603 0.165797 0.220413 -0.008855 0.584839 -0.462142 -0.003779 -0.210905 0.342187 -0.490589 0.429941 0.117390 -0.403924 -0.158365 -0.350374 0.103856 -0.218934 0.556387 0.404827 0.227767 0.318251 -0.262122 0.265548
社保卡 0.707106 -0.108889 -0.365766 0.221092 -0.366370 0.088757 -0.372484 -0.018705 -0.386405 0.305251 -0.014237 -0.144421 0.112994 -0.438211 -0.131386 0.046395 -0.253429 -0.441920 -0.269869 0.392589 -0.364719 0.016370 -0.048404 0.414890 0.058377 0.340463 -0.244611 0.150937 -0.064971 0.411420 0.066859 0.179419 0.257004 0.441123 -0.586951 0.566079 -0.184119 0.047549 0.250703 -0.662812 0.172316 -0.102936 0.692913 -0.296727 -0.245348 -0.472295 -0.887465 -0.132881 -0.123278 -0.327432 -0.147225 -0.055512 0.344311 -0.240420 0.076957 -0.530547 0.189014 0.697554 0.086658 0.198205 0.199537 0.765832 -0.181772 0.437925 -0.208056 -0.423488 -0.043168 -0.267032 0.524446 -0.312328 -0.517379 0.254696 0.390184 0.492269 0.035273 -0.012528 0.122370 -0.612979 -0.389205 -0.238954 0.030720 -0.293687 -0.313919 0.275111 -0.360538 -0.432300 -0.149209 -0.127825 -0.156980 -0.090407 0.691654 0.360893 -0.518409 -0.102653 -0.020481 -0.028552 0.285086 0.145026 0.427565 -0.126501 -0.341093 -0.406036 0.047689 -0.277181 -0.386766 0.402919 -0.331380 -0.703037 0.054528 0.454299 0.861723 -0.054995 -0.225301 0.149935 0.433480 0.618365 -0.065181 -0.642157 -0.010697 -0.633725 -0.168387 -0.689142 -0.034583 -0.315925 0.013221 0.517314 -0.730089 -0.037915 -0.305174 0.241869 0.484508 0.106940 -0.540773 0.179241 0.106469 0.048611 0.106439 -0.254815 0.155801 0.494257 -0.231429 -0.037747 -0.649560 -0.239701 -0.149539 0.102750 0.208136 0.333985 0.138205 -0.083079 -0.611919 0.533558 0.498654 -0.100157 0.371665 0.418723 0.705716 -0.379766 0.285322 0.411787 0.852259 0.125993 -0.642549 0.262202 0.256186 0.004823 -0.386080 0.243340 0.429276 -0.060097 0.402961 -0.030659 -0.551699 0.070856 0.536522 -0.063264 -0.301760 0.364956 -0.076309 0.280095 0.053092 -0.230807 -0.304038 0.256401 -0.124120 0.085911 -0.040383 -0.078748 -0.079888 -0.631423 0.200599 0.089683 0.226082 0.001195 0.196111 0.620782 0.442045 -0.294031 -0.593377 0.658856
余额 0.170460 -0.596597 -0.347468 0.168572 0.269458 0.325745 0.279910 0.113932 -0.235381 0.173533 -0.028150 0.214495 -0.151064 0.047126 0.231481 -0.204068 0.471464 -0.430581 0.299396 0.317350 -0.639596 -0.011295 0.411492 0.271110 0.527270 0.344042 0.191173 0.288358 -0.020144 0.028215 -0.362412 -0.117012 -0.072970 0.211705 -0.036034 0.450971 0.715206 0.349586 -0.046605 -0.341099 -0.501248 0.125374 0.858513 0.270695 -0.092175 -0.332256 -0.711462 0.049984 -0.072456 -0.326296 -0.277934 0.194200 -0.006267 0.140686 -0.036869 0.073171 0.281508 0.731048 0.039093 0.030776 0.330773 0.410217 -0.087431 0.107532 -0.569386 -0.573886 -0.423434 -0.512985 0.127062 -0.539772 -0.310256 0.619932 0.184139 0.105357 -0.144050 -0.028591 -0.020474 0.054241 0.004287 -0.333898 0.288324 0.258502 -0.384867 0.127921 0.125910 -0.422058 0.149405 -0.502139 -0.071068 -0.306249 0.178468 0.206183 -0.048965 0.262838 0.045210 -0.164970 0.216019 -0.095072 0.357827 -0.014790 -0.039295 -0.092568 0.007645 -0.086946 -0.124375 0.193383 -0.365924 -0.381212 0.451086 0.380665 -0.264604 0.225692 -0.272238 -0.029825 -0.154196 0.340054 -0.179704 -0.892982 -0.135575 -0.416480 0.239747 -0.162945 -0.046891 -0.390651 -0.177102 0.546312 -0.143020 0.252629 -0.406741 -0.136240 0.200702 0.077745 -0.201974 -0.210416 -0.118371 -0.358246 0.053179 0.051050 -0.188838 -0.067896 -0.210829 -0.056269 -0.128886 -0.766501 -0.219138 -0.387586 -0.188120 0.567072 0.036764 0.350587 0.032574 0.296440 0.219957 -0.209599 0.116232 -0.243722 0.582874 0.121807 0.444156 -0.200963 0.273229 0.371750 -0.338127 0.369664 -0.307451 0.268846 -0.459921 0.626293 0.524896 0.551055 0.130445 -0.223795 -0.386408 0.066403 0.143508 0.054973 -0.431846 -0.342604 0.355174 0.226703 0.377916 -0.073650 -0.534381 0.343126 -0.111587 0.086239 -0.531349 0.554227 0.005915 -0.384639 0.371991 -0.074211 -0.068671 -0.171980 0.541590 0.598670 -0.042583 -0.178735 -0.201920 0.595870
怎么办 0.423699 -0.253426 -0.240156 -0.051810 0.125587 -0.054268 0.154733 -0.050286 0.067201 -0.034091 -0.283059 -0.071146 0.306430 -0.161138 0.162220 -0.087751 -0.001538 -0.535633 0.079340 -0.139514 0.023173 0.099564 0.095635 0.098983 0.073907 -0.212784 -0.091928 -0.125069 0.224993 0.120473 0.173618 0.147659 0.043045 0.631651 0.163368 -0.019963 0.092264 0.310823 -0.216749 0.005819 0.043641 0.061839 0.302708 -0.023154 -0.440827 0.020139 -0.352109 -0.498040 0.242721 0.066584 -0.142511 0.184999 -0.412874 0.253082 -0.066192 0.314082 0.129056 0.244080 0.219796 -0.130843 0.131637 -0.144693 -0.112121 -0.171132 -0.166234 0.099342 0.222420 0.197319 0.224656 -0.141579 -0.496440 0.163793 0.165582 0.033695 0.123477 -0.095189 -0.185185 0.111979 -0.050445 -0.210405 0.169839 0.158111 -0.165231 0.262601 0.449667 -0.134213 0.242485 -0.131995 0.092496 -0.586913 0.115943 0.226593 -0.019616 -0.209946 0.060604 0.248282 0.179920 0.073160 0.046701 0.069610 -0.198527 0.107555 0.066196 0.347038 -0.243970 -0.059625 -0.040089 -0.713695 0.036834 0.171557 0.255492 0.009734 -0.202915 -0.215525 0.260489 0.098921 -0.004011 -0.278245 -0.052477 -0.020735 0.476839 -0.374428 -0.003273 0.160845 0.009275 0.136991 -0.072392 0.032872 -0.278058 -0.150087 0.057456 0.210615 -0.131590 -0.355628 -0.102726 -0.198301 -0.211012 -0.025393 -0.421784 -0.050961 -0.199237 -0.590071 -0.040174 -0.086210 -0.046120 -0.303923 -0.121509 -0.046681 -0.019606 -0.115396 -0.278892 0.023761 0.016853 -0.299405 0.113702 -0.029126 0.229925 -0.278609 0.082637 -0.280662 0.512078 -0.245834 0.172166 0.341695 -0.068342 -0.069182 0.012537 0.591844 0.488897 -0.204011 -0.079802 -0.117790 0.247190 0.149448 0.304855 -0.145110 -0.037219 0.188121 -0.033509 0.256990 0.091170 -0.111016 0.077621 0.079652 0.071135 -0.088024 -0.477499 0.180125 0.380337 -0.146680 0.125851 -0.104084 -0.093417 -0.175074 -0.061536 0.396538 -0.091596 -0.453367 -0.233713 0.269247
深圳 0.369534 -0.300575 0.076993 0.369226 -0.305155 -0.033092 0.034890 0.233100 -0.033730 -0.025877 0.257917 0.375073 0.117692 0.105267 0.135254 0.163639 -0.356639 -0.314985 -0.271174 0.006876 -0.087012 -0.328432 0.092807 0.192429 -0.244390 -0.252126 -0.313479 0.304293 0.311018 0.259362 -0.039076 -0.035029 -0.116604 0.140349 -0.523975 -0.248770 0.075237 0.137659 -0.080939 -0.203286 -0.050708 -0.146783 0.344639 0.005907 -0.056859 -0.113267 -0.171351 -0.374480 0.136653 0.011185 -0.673698 -0.148991 0.440751 0.717762 -0.064155 -0.357781 0.151624 0.207846 0.094188 0.078776 0.156399 0.087075 0.358931 0.179200 -0.018921 0.219606 0.010781 -0.016477 0.190470 -0.180120 -0.385700 -0.281902 0.488675 0.038355 -0.266505 0.146220 0.215411 0.152696 0.244221 -0.008968 0.500855 0.213523 -0.231678 0.272458 -0.086486 -0.052423 -0.134483 -0.029159 -0.162106 -0.294621 0.011914 0.112783 -0.019071 0.093312 -0.075328 0.107444 -0.450642 0.042510 -0.419309 0.064052 0.071928 0.269476 0.127138 -0.094800 -0.091730 0.202740 0.174952 -0.248952 -0.086332 -0.129309 -0.023461 0.252412 0.042668 -0.139015 -0.241983 -0.171929 -0.357973 -0.257680 -0.207108 -0.115103 0.141286 -0.004079 -0.448476 -0.156296 0.113275 0.323531 -0.530963 -0.139974 0.037115 0.008085 -0.125048 -0.034501 -0.106622 0.072197 -0.186932 0.224036 0.013156 -0.278824 -0.053250 -0.160016 -0.542073 0.022254 -0.736409 -0.300825 0.411293 -0.237192 0.358970 0.550345 0.017833 -0.116204 -0.052023 0.231938 -0.065044 -0.355971 -0.012382 -0.481356 0.367512 0.089801 0.290617 0.226389 0.607208 0.170573 0.220160 0.399536 0.886812 0.174231 -0.284630 0.143900 -0.013419 0.050578 -0.276868 -0.774605 -0.044384 0.289239 -0.170150 -0.038288 -0.077198 -0.285362 0.253891 0.540178 -0.241378 -0.204983 -0.141401 0.299414 -0.118230 -0.113752 0.072281 0.337184 0.156647 0.104562 0.413022 0.246266 0.073924 -0.084196 0.245277 0.574715 -0.148301 -0.173231 0.063658 -0.218122
医保 0.565221 -0.728839 -0.201789 0.149106 -0.257879 -0.315102 -0.182410 0.043472 -0.216889 -0.146785 -0.036106 -0.097741 0.190844 -0.067130 -0.320775 0.050934 0.018289 -0.692418 0.107716 0.514661 -0.360585 -0.189619 -0.139708 0.434330 0.245401 0.385778 -0.187684 0.324403 -0.210538 0.437877 0.021009 -0.053291 0.545482 0.496908 -0.460233 0.340499 -0.004218 -0.297760 0.162989 -0.234187 -0.037557 -0.045944 0.364969 0.024421 -0.560718 -0.280072 -0.701371 -0.179356 -0.022874 -0.291393 0.121409 -0.003062 0.017788 0.054972 -0.424099 -0.326573 0.080936 0.159138 -0.045639 0.364390 0.223748 0.693118 0.031505 0.088254 -0.157646 -0.208204 0.116688 -0.143469 0.303260 -0.361618 -0.552096 0.236898 0.299686 0.171427 -0.037186 0.261133 0.413576 -0.114841 0.012897 -0.193251 0.140985 -0.022588 -0.340662 0.148271 -0.030349 -0.129803 0.005002 0.065095 -0.129667 -0.050318 0.584937 0.213031 -0.338194 0.051363 -0.056190 -0.275883 -0.239490 -0.036140 0.213328 0.015634 -0.377257 -0.134775 -0.072147 -0.063727 -0.773797 0.435241 -0.138871 -0.612933 0.184367 0.247425 0.412870 -0.153812 -0.332435 0.085738 0.072884 0.198083 0.091471 -0.553660 0.088898 -0.191893 -0.358955 -0.549961 0.019393 -0.279490 -0.429893 0.356902 -0.223265 0.203846 -0.490704 0.153723 0.189381 0.362007 -0.215579 0.129165 -0.084928 -0.138558 -0.057310 -0.220706 0.094244 0.259401 -0.601203 -0.279788 -0.265322 -0.089050 0.202956 -0.029800 0.224969 0.070816 0.045806 0.093165 -0.457710 0.539369 0.183058 0.208635 0.168733 0.205255 0.271270 -0.401005 -0.086105 0.305225 0.640146 0.281757 -0.282436 0.047241 0.718452 -0.018509 -0.417987 0.274134 0.299112 -0.101013 -0.013584 0.037063 -0.497907 0.262339 0.179365 -0.069072 -0.329279 0.183186 0.096029 0.514421 0.021652 0.002484 -0.324639 0.149985 0.047825 0.111426 0.041226 0.094690 -0.049423 -0.408433 0.387153 -0.245472 0.415395 -0.155976 0.324263 0.452221 0.155061 -0.126482 -0.443644 0.740494
北京 0.420178 -0.467028 -0.311143 0.102221 0.118179 0.101140 0.005030 0.141159 0.003895 -0.151658 0.161008 0.245662 0.045102 -0.063664 0.001734 0.073235 -0.210428 -0.591259 -0.093494 -0.231440 -0.193489 -0.459269 -0.175441 0.192160 -0.157652 -0.349445 -0.549712 0.371422 0.428049 0.180235 -0.246068 0.181406 -0.256684 -0.105256 -0.315780 -0.454578 0.223403 0.099801 -0.138207 -0.220692 -0.212929 -0.016519 0.306153 -0.121739 -0.192155 -0.314258 -0.072294 -0.452637 0.054137 -0.129687 -0.617189 -0.218554 0.485731 0.380314 -0.144727 -0.037352 0.150557 0.175771 0.229510 0.119142 0.213489 -0.072990 0.440456 0.243180 -0.195287 0.196796 -0.113769 0.227756 0.359827 -0.359613 -0.240834 -0.199235 0.154168 -0.312846 -0.253053 -0.161081 0.399126 0.617120 0.133358 0.088044 0.532994 0.219629 -0.209862 0.365756 0.142604 0.037936 -0.243671 0.074853 -0.011397 -0.055437 0.043195 0.210902 -0.045245 -0.312046 -0.267995 0.144494 -0.452790 0.060324 -0.034918 0.186597 -0.232696 0.040293 0.137065 0.087154 0.025206 0.190420 -0.186548 -0.500385 -0.294797 -0.097126 0.184676 0.173743 -0.186960 0.084612 -0.043006 -0.350632 -0.411618 -0.321376 -0.190877 0.023419 0.207579 -0.098057 -0.157148 -0.136687 -0.100608 0.175742 -0.229493 -0.130474 0.202250 -0.084323 -0.242765 -0.088252 0.232552 0.400552 -0.394869 0.046904 -0.040670 -0.223720 -0.251799 -0.073503 -0.415965 -0.184048 -0.693426 -0.408191 0.465777 -0.102459 0.404116 0.359625 -0.158401 -0.022607 0.051739 0.000789 -0.040940 -0.146403 -0.095211 -0.475585 0.025676 0.222318 0.415284 0.482184 0.689511 0.066169 0.221128 0.440284 0.410418 0.077271 -0.181708 -0.000897 0.101309 0.315348 0.026526 -0.271756 -0.085297 0.339164 -0.124129 0.202561 -0.023848 -0.168390 0.306092 0.080327 -0.239485 -0.079702 -0.192842 0.153417 -0.142686 0.400630 -0.066457 0.511684 0.225499 -0.007974 0.305067 0.054054 0.202298 0.214428 0.413239 0.708731 -0.230457 -0.456368 0.188022 0.081584
一个月 0.08795106 0.049074847 -0.09472135 0.19191177 0.059103765 -0.10036315 0.0061222813 -0.010431495 0.024397431 -0.1045831 0.08409482 0.04001417 -0.039560292 -0.052018475 -0.09702902 -0.2077552 -0.06731317 -0.051410154 0.05629646 -0.119532995 0.08368775 -0.0035511462 -0.010750691 0.14643502 0.03432882 -0.070827104 0.07562709 -0.06473286 0.0353479 -0.029537933 -0.07147637 0.060402315 -0.0017387815 -0.124823876 -0.19915153 0.013666845 -0.06871857 -0.00085001235 -0.09995445 -0.17768489 -0.031727005 0.15140826 0.09181388 -0.011302083 0.20296183 0.015190959 -0.21695355 0.02637071 0.078384444 0.008371272 0.02650501 -0.09323861 -0.046357654 0.044229362 0.09374879 -0.10893425 -0.0725293 0.16401261 -0.029122509 0.09990117 -0.08089913 -0.04504109 -0.087453105 0.15399276 0.18514872 0.092367135 -0.0835317 -0.10327563 -0.032354582 -0.01354282 0.086459816 0.1732429 0.08972576 -0.121406026 -0.028842043 -0.034321688 -0.02960193 -0.014355445 0.106515616 -0.13619307 0.043612387 -0.15800668 0.08410718 -0.13270985 -0.10138249 0.02057193 -0.043437995 -0.06670985 -0.03632465 0.25463066 0.029920591 0.009945707 -0.037276335 0.09544487 0.09298538 -0.003882495 0.07859282 0.10529286 -0.12687911 0.11864498 -0.08816927 0.14454906 0.09225858 -0.02184413 -0.024749734 -0.10432963 -0.02388183 -0.07092287 -0.029809965 0.14344062 -0.22231683 0.01344455 -0.005465472 0.16602883 -0.03888933 -0.045701824 0.23628661 -0.16640694 -0.055982236 0.0056969426 -0.10757967 0.16708647 -0.14937896 -0.13781735 -0.18376517 -0.08627375 0.06662915 0.0130116 0.038482126 0.02777245 -0.1243023 0.053750396 0.032246117 -0.17600545 0.06069877 0.081263505 -0.041512266 0.051564485 -0.12876043 -0.06617028 0.078872286 0.13488705 0.08580455 0.04804002 -0.04728921 0.005490338 -0.04212478 0.052573286 0.07051669 0.037347905 -0.14511894 -0.08349856 -0.16905566 0.20296346 -0.0077031525 -0.22884119 0.00091786834 0.0057576587 -0.23947245 0.09946684 0.18813592 0.010542345 -0.055930436 -0.0147337075 -0.046744116 -0.0728123 -0.032800343 -0.20440507 -0.07637597 0.10953406 -0.01467692 0.04218062 0.17638719 -0.15344502 -0.07536279 0.036010616 -0.03882319 0.008801677 0.14281332 -0.033108883 0.09890896 -0.02376922 -0.00036807152 0.095841736 0.03314899 -0.122774266 -0.10334241 0.28618097 -0.06352214 -0.030299917 -0.11493065 -0.16500534 0.07984094 -0.11081465 0.0036356456 -0.017239308 -0.09338661 0.07069422 -0.07151274 -0.078182936
公司 0.251539 -0.315972 -0.190616 0.240010 -0.051944 0.053064 -0.204615 -0.032419 0.036313 0.254166 -0.057044 0.026863 -0.038355 0.254045 -0.001292 -0.222842 0.072440 -0.470350 0.213432 0.012593 0.158160 -0.103711 -0.101577 0.550137 0.454426 -0.042865 -0.214587 0.308172 0.080163 0.400276 0.196469 0.371585 -0.306002 0.347566 0.129282 0.005795 0.347150 0.158655 -0.193917 0.415432 -0.032721 -0.179137 0.243844 0.451110 0.223270 -0.279313 -0.294971 0.068143 -0.143870 0.144456 -0.341066 0.107454 0.105527 0.296299 0.007695 -0.210073 -0.094271 -0.081816 0.040312 0.066749 0.255288 0.509703 0.115006 -0.053518 -0.196211 -0.136719 -0.167403 0.086071 0.265482 0.031152 -0.358054 0.237667 0.372312 0.114085 -0.047195 -0.137198 0.124385 0.351994 -0.037670 -0.098784 0.109987 0.270582 0.232054 0.141594 0.351911 0.032879 -0.070414 0.007846 -0.158777 -0.049622 0.402351 -0.117266 -0.207873 0.094740 0.008862 0.230166 0.210668 -0.104035 -0.192067 0.223917 0.003569 0.257722 0.028107 -0.072569 -0.193267 0.151661 -0.281224 -0.135631 0.000299 -0.240407 -0.292024 -0.232710 0.266225 -0.342517 -0.162222 -0.125659 0.145224 -0.484593 -0.261010 -0.385817 0.012000 -0.293999 0.062178 -0.060177 0.130325 0.113020 -0.498064 -0.222806 -0.041758 0.215889 -0.147001 0.171854 -0.137670 0.251339 -0.358029 -0.346711 -0.057293 -0.059266 0.210306 -0.215144 -0.357906 -0.492616 -0.323635 -0.325746 0.008286 -0.328544 0.267562 0.219728 0.002211 -0.239933 -0.103974 -0.106257 0.050806 0.029042 -0.089600 0.093081 0.450522 0.065039 0.161902 -0.038646 0.288313 0.101715 0.017900 0.174460 0.238110 -0.140427 -0.276799 0.162154 -0.172956 -0.105738 0.032685 -0.153564 -0.172228 0.211322 0.066574 0.187364 -0.336849 -0.070526 0.038063 0.312555 -0.634582 0.076600 0.177082 0.229001 0.153082 0.255049 -0.092636 0.332054 -0.025004 0.101306 0.334165 0.078023 -0.257369 0.227771 0.479255 0.346621 0.071125 -0.088088 -0.056830 0.476761
上海 0.004336 -0.452415 -0.299059 0.303972 0.107769 0.095805 0.018814 0.089525 -0.075836 -0.115906 0.157038 0.087097 0.024193 0.171070 0.212861 0.184063 -0.075504 -0.264155 -0.042515 -0.185856 -0.104143 -0.274591 0.185910 0.065904 -0.415093 -0.289748 -0.599960 0.324793 0.421571 0.218897 0.101791 0.182542 0.019096 0.130993 -0.299302 -0.449599 0.145799 0.182124 -0.132427 -0.386759 0.000812 -0.061552 0.248529 -0.231563 -0.167282 -0.384914 -0.201144 -0.543165 0.232596 -0.179660 -0.486137 0.097419 0.519873 0.457392 -0.141713 -0.260806 0.023225 -0.024475 0.361347 0.258597 0.283142 0.145426 0.270364 0.420684 -0.070549 0.077905 -0.084245 0.067573 0.418882 -0.178229 -0.405965 -0.029959 0.028524 0.173437 -0.503693 0.139827 0.339886 0.259427 0.177565 0.195872 0.439869 0.313934 0.015271 0.356146 0.048938 0.048766 -0.084992 0.000323 -0.156037 -0.119060 -0.026879 0.119453 -0.281794 -0.017411 -0.282779 0.195542 -0.263748 0.000389 -0.176370 -0.020278 -0.061737 0.071507 0.020859 -0.146019 0.116687 0.379835 0.083606 -0.304095 -0.342923 -0.126628 0.103290 0.180274 -0.075365 0.005729 -0.320676 -0.296969 -0.322504 -0.403781 -0.072534 0.061554 0.098941 -0.021270 -0.144357 -0.038668 -0.044729 0.193991 -0.216720 -0.155754 0.306439 -0.015625 -0.428681 0.179344 0.172022 0.162328 -0.255003 -0.103966 0.012045 -0.431310 0.331663 0.136009 -0.032658 -0.248508 -0.773258 -0.293707 0.256008 -0.130641 0.489717 0.425402 -0.185270 -0.089427 -0.217497 -0.038822 -0.387419 -0.380884 -0.076696 -0.536945 0.106576 0.260352 0.186583 0.162743 0.606302 0.148774 -0.003100 0.356713 0.525031 0.083373 -0.298356 0.305051 0.204180 0.103480 0.079600 -0.399553 -0.370986 0.536743 -0.182890 -0.120058 -0.139348 -0.051331 0.291080 0.416742 -0.430655 -0.260374 -0.124488 0.193891 0.069047 0.209422 -0.130960 0.415296 0.308144 0.121438 0.379370 0.108321 0.112987 0.097448 0.358589 0.651935 -0.134082 -0.319697 0.174366 -0.306430
跨省 0.084396 -0.247227 -0.025110 0.423978 -0.170125 -0.182275 -0.281095 0.080934 -0.436374 -0.464615 0.031400 0.124468 0.388397 -0.157113 -0.094353 0.488630 0.006466 -0.489170 -0.277100 0.165216 -0.262961 -0.127054 -0.603826 0.143397 -0.173081 0.569714 -0.344879 0.118631 0.556979 0.390623 0.074245 -0.255625 0.639303 0.318426 -0.311377 0.284141 0.203012 -0.025126 0.409236 -0.096172 0.105306 0.046308 0.044222 0.079445 0.253210 -0.003089 -0.813769 -1.017633 0.337908 -0.371136 -0.094097 0.403025 -0.052887 -0.179045 -0.214748 -0.231120 0.278265 0.072239 -0.146132 -0.444393 -0.132927 0.483652 0.000292 0.498022 0.035032 -0.495197 -0.049232 0.129723 0.373130 -0.270180 -0.150868 0.286934 0.505967 0.131755 -0.105188 0.119004 0.726685 0.137705 0.014783 -0.086756 0.209637 0.258136 -0.523465 0.046444 -0.101098 -0.205435 0.297907 0.116089 -0.252897 -0.102797 0.286646 0.432403 -0.185350 -0.079040 -0.311662 0.290145 -0.179433 0.331098 -0.128072 0.020475 -0.257715 0.041520 0.219937 -0.186551 -0.451690 0.359232 -0.012613 -0.304663 -0.225589 0.380925 0.372494 -0.048868 -0.015670 -0.076311 -0.337424 -0.093445 0.269481 -0.443060 -0.217599 -0.592958 -0.083867 0.138104 -0.103820 -0.433019 -0.224562 0.329330 -0.452711 0.196744 -0.217252 -0.127566 -0.387296 -0.042834 -0.064630 0.294406 0.035947 -0.346665 -0.318181 -0.017306 -0.360656 0.447936 -0.689656 -0.499204 -0.436465 -0.283910 0.587665 -0.271303 0.026037 0.400525 0.163708 -0.029112 -0.111921 0.463126 -0.370214 -0.342526 0.304329 0.365563 0.398773 -0.333245 0.285039 0.153667 0.184085 -0.012055 -0.040966 0.262231 0.441133 -0.123448 -0.007149 0.379812 0.218741 -0.368479 0.266065 -0.296960 -0.173245 0.329977 0.197083 0.230353 -0.146698 0.093503 0.121376 0.329256 0.072560 0.002634 -0.364954 0.316132 0.092861 0.459034 0.271589 0.802116 0.070451 -0.078562 0.531713 0.169461 0.389019 -0.016717 0.622386 0.219861 -0.189935 0.398494 0.103223 0.053202
费 0.116276 -0.499732 0.282038 -0.108202 0.163138 -0.292897 0.230406 0.248403 -0.187565 -0.333372 -0.308716 -0.038963 0.350535 0.335593 -0.033787 0.096744 0.491126 -0.074957 0.270737 0.205993 -0.028972 0.032203 -0.051791 0.276099 0.559047 0.307897 -0.345235 0.284370 0.188849 0.063569 0.279326 0.001929 0.158261 0.374911 0.037597 0.289814 0.257915 -0.287075 -0.143246 -0.432499 -0.071719 0.148011 0.279940 0.077950 -0.124134 0.203139 -0.466099 -0.073485 0.134813 -0.396642 -0.202586 -0.135669 0.005199 -0.141918 -0.241819 0.205608 0.332923 0.391749 0.256085 0.013184 0.224122 0.258096 0.091808 -0.092174 -0.545276 0.191435 -0.255034 0.371988 0.079862 -0.231391 -0.197654 -0.095300 0.393019 0.495327 0.005437 -0.081708 0.514417 0.216611 0.280964 -0.146694 -0.214082 0.069431 -0.212927 0.120317 0.390773 -0.142766 -0.138826 0.372992 -0.099345 -0.153170 0.334326 0.178663 -0.030060 -0.325583 -0.150392 -0.039468 0.083845 -0.200504 0.050062 -0.260504 0.259660 0.272074 0.015114 0.175356 -0.166199 0.114721 0.100994 -0.173309 0.259947 -0.061330 0.241079 -0.192809 -0.133888 0.078930 0.003237 0.154019 -0.705806 -0.304316 -0.083144 -0.426501 0.281720 -0.185227 0.266538 -0.187752 -0.279085 0.160405 -0.538777 0.342513 -0.410702 -0.065570 0.020494 0.069402 0.426354 -0.126005 -0.285922 -0.379485 -0.250457 -0.122406 -0.046144 0.161052 -0.385484 -0.303714 -0.311269 -0.142245 -0.081723 -0.172051 -0.125174 -0.041954 0.122306 -0.398300 -0.097639 -0.152454 -0.066994 -0.115968 -0.080750 0.469561 0.298500 0.066882 -0.026308 -0.230673 -0.015201 -0.285566 -0.195507 0.214238 0.122915 -0.046465 -0.155362 0.143077 0.131458 -0.245101 0.112868 -0.173512 -0.023556 -0.260903 -0.009714 0.191976 -0.196553 0.072199 0.265862 0.383718 0.047020 0.300023 -0.072827 -0.272719 -0.028569 0.118406 0.041893 0.339015 0.065583 -0.235426 0.377094 -0.153339 0.117371 0.171436 -0.107188 0.476555 -0.065220 -0.130053 -0.540295 0.034985
