D90 -0.0018518264 -0.00012617714 0.0043657217 0.00019656251 -0.0027664823 -3.7549395e-05 0.0055498057 0.0013288229 0.0022795468 0.0036954908 -0.002180651 0.0040717903 -0.00075612013 -0.0011589864 -0.004622101 0.0030261397 0.0044451333 -0.0033852793 0.003320144 -0.0022334051 0.002769178 -0.0023308373 0.003230185 -0.00023504594 0.004547341 -0.0012354868 0.0031031906 0.0013515744 0.00023513453 0.0010424283 -0.002157631 -0.00042888452 -0.0064778593 -0.0009789515 0.006181186 0.0082545895 0.0023799606 -0.003624032 -0.0016482616 0.0040532383 0.0025791225 0.003548813 -0.0048277164 6.96328e-05 -0.0027649996 -0.0024919955 0.0042940304 -0.004080522 -0.00055351626 -0.0009550339 -0.004323262 -0.0036890244 0.000265118 0.0020767516 0.008028954 0.00096512644 -0.001703829 0.0042885407 -0.002749816 0.00354204 0.00057457737 0.0036709558 0.001210411 0.00040693049 -0.0007878167 0.0022612188 0.000103415165 -0.005797378 -0.00070218067 -0.000496623 0.004640527 0.0012766449 0.0034948217 -0.0015164891 0.0014157615 0.0050558145 0.0008248688 -0.00051541824 -0.001982835 0.0020107126 0.0028887806 0.003602814 -0.0011622829 0.000101423386 -0.0048699155 -0.0006470614 0.002455467 -0.002585727 -0.000668992 -0.0023016555 -0.00015639693 -0.0035835935 0.0023885244 -0.0038840838 9.795375e-05 -0.0016792755 -0.0061475206 0.0015754034 -0.0029671905 -0.0015385763 -0.0071326173 -0.0058848993 0.0019446164 0.00094404904 -0.0017013714 0.0009982515 -0.0051017953 0.0004184696 -0.0014313004 -0.0020732277 -0.0026175054 -0.0030969966 0.00072614977 0.000634472 -0.0036065285 0.0004795619 -0.0025199987 -0.0033563408 0.0025589867 0.0013520494 -0.0018006454 -0.00096005556 -0.002148342 -0.0005820667 -0.0018913352 0.0038768263 -0.001820022 0.00077346433 -0.0002853028 -0.0011765457 -0.00029941386 -0.00035980938 -0.00059385336 -0.0012095451 0.0032045569 0.003928939 0.00014471481 0.002778659 -0.0022691847 -0.000689282 0.0018786021 -0.002949555 1.4917348e-05 3.510574e-05 -0.0020083322 0.008484597 0.003267917 0.0005530022 -0.0003940475 0.006536493 -0.0043025203 -0.0038738858 0.00016890067 -0.0041187014 -0.0021781763 -0.002793022 -0.005337555 -0.0030077563 -0.002337887 0.0028150268 0.0014028088 0.0012165646 0.0020092705 0.002598663 0.004473254 -0.0018812082 -0.003010731 -0.003558372 0.0026759233 -0.0076339953 0.0033853918 -0.0025551126 0.0007987234 -0.005343961 -0.0020975752 0.0038443366 0.002757583 0.0013281659 0.00097114407 0.0016298359 0.0007503344 0.0037822614 -0.0042359536 0.0029819708 0.0024185553 1.537916e-05 -0.0032784771 -0.004016731 -0.005872233 -0.0011162903 -5.7121797e-05 0.001403842 0.0035510727 -0.002052931 -0.0029778304 0.0029182176 0.0027778964 -0.0015488148 0.00077011855 0.00040040238
原因 0.144601 -0.076838 0.034981 0.380573 0.097138 -0.041288 0.146990 0.250158 0.215385 0.344902 -0.393353 -0.192470 0.026804 0.046613 0.021739 0.056524 0.004598 -0.230225 -0.097435 0.062570 0.144405 0.048259 0.355980 0.092507 0.272303 -0.097325 -0.069591 0.224232 0.361269 0.046365 0.075991 0.111555 -0.255614 -0.019044 0.349697 0.026582 0.146175 0.352557 -0.373135 0.154418 -0.109860 0.052233 0.410745 0.426238 -0.226040 0.068468 -0.377719 -0.678610 0.215882 0.179733 -0.033975 0.174004 -0.404196 0.268978 0.052940 0.002832 -0.105850 0.219720 0.288233 0.188452 0.199048 0.312006 0.270277 -0.307654 -0.286525 -0.165524 0.067439 0.022407 -0.147879 -0.499064 -0.467594 0.235980 -0.034083 -0.081638 0.270643 -0.018543 0.317637 0.195592 0.126891 0.153156 -0.154212 -0.045390 0.328877 0.159050 0.112764 -0.285537 0.004683 0.132162 -0.182470 -0.338896 0.329212 0.014956 0.094502 -0.235298 0.193667 0.229095 0.032044 -0.093593 -0.357454 0.335504 0.027025 0.361554 0.129244 0.158376 -0.181403 0.046096 -0.133060 -0.280642 0.012373 -0.159026 0.008041 -0.192781 0.100713 -0.095909 -0.141955 -0.063698 -0.056760 -0.160782 -0.168516 -0.102932 0.105439 -0.386348 -0.176718 0.467405 0.022744 0.190939 -0.269648 0.019087 -0.109476 0.084590 -0.403188 0.279534 0.231141 -0.181604 -0.238934 0.017933 -0.061584 -0.224889 -0.152702 -0.044340 -0.393006 -0.219117 -0.264147 -0.203836 -0.022048 -0.188172 0.188071 -0.172895 -0.083661 -0.377336 0.146040 0.008446 0.011415 0.070179 -0.018049 -0.000403 0.171964 -0.009658 0.069067 -0.158258 0.631520 -0.340388 0.068033 0.234547 0.115123 -0.020932 -0.309928 0.227109 0.186087 0.119096 -0.058091 -0.231774 -0.082990 0.455369 0.256215 -0.156672 -0.110512 0.076410 -0.082937 0.373239 -0.104546 -0.359731 0.142044 -0.189795 0.222522 -0.188997 -0.319703 0.382364 0.232491 0.049715 0.250671 0.003110 0.007330 -0.091379 0.173204 0.178904 0.040914 -0.345217 -0.304297 -0.479437
有 0.193527 -0.147848 -0.216889 0.345840 0.167840 0.077381 -0.008271 0.086339 0.221482 0.238906 0.143423 0.243447 -0.096703 -0.003722 -0.135677 -0.121377 0.010825 -0.195820 -0.039212 -0.238165 -0.051397 0.061751 -0.011509 0.038362 0.070650 0.033089 -0.204374 0.058774 0.114010 -0.009768 0.019659 0.062417 -0.174101 0.126254 -0.432744 -0.156378 0.052458 0.125257 -0.388939 0.069865 0.187773 -0.004288 0.475281 0.353765 -0.122206 0.226154 -0.268776 -0.446217 -0.065467 -0.118917 -0.294591 -0.192187 -0.390997 0.195808 0.230505 -0.081404 0.115846 0.003057 0.090625 0.186092 -0.056296 0.335652 0.082503 -0.167190 0.035242 0.025190 -0.059429 0.210702 -0.167879 -0.040131 -0.229138 -0.109364 0.172920 0.088959 -0.176697 0.343278 0.145999 0.154341 -0.132280 -0.133544 -0.054391 0.218543 -0.014213 0.147761 0.218853 -0.073853 -0.024370 0.043339 -0.342652 -0.074920 0.059256 0.027434 -0.013542 -0.130538 0.204821 0.174387 0.172619 -0.098244 -0.134930 0.147733 -0.161286 0.497633 -0.049757 -0.013583 -0.308725 0.014092 0.049633 -0.513116 0.152826 0.066975 0.015450 -0.150230 0.182188 -0.215322 -0.022703 -0.015453 -0.375220 -0.162446 -0.026662 -0.050483 0.126628 -0.336465 0.000120 0.461875 0.130959 0.175786 -0.037611 0.188004 0.033869 0.149700 -0.126054 -0.134078 0.396584 -0.113067 -0.413782 0.019947 -0.227297 -0.194167 -0.142479 -0.215759 -0.338515 -0.352531 -0.306111 -0.061289 0.011045 -0.101890 0.085560 -0.102551 -0.045749 -0.049009 -0.093439 0.041288 -0.036300 -0.065175 -0.201354 -0.090002 0.343076 -0.040611 0.365802 -0.162164 0.393155 -0.009450 -0.086723 0.188582 0.368289 0.171773 -0.251415 0.188197 -0.122036 0.139621 0.067662 -0.155448 0.017550 0.112781 0.218069 -0.068295 -0.369653 0.116830 0.206730 -0.038797 -0.059644 0.015309 -0.206915 -0.085942 0.294301 -0.162627 0.094153 0.122246 0.001931 -0.110674 0.059908 0.137000 -0.032711 -0.031056 0.301763 0.203719 0.137252 -0.197206 -0.106715 0.044652
如何 0.198362 -0.255274 -0.520928 0.123666 0.068052 -0.081075 0.191944 0.351532 -0.066272 0.244694 -0.100452 -0.176200 0.374665 -0.093484 -0.105211 0.010544 0.009170 0.018043 -0.035346 -0.281257 -0.120765 0.006756 0.005073 0.078967 0.023832 -0.003057 -0.291086 -0.063589 0.225038 0.001221 0.039718 -0.049609 -0.186135 0.226849 -0.047760 -0.418524 0.067138 0.199100 -0.250318 -0.062064 -0.022173 -0.213752 0.395617 0.031901 -0.204088 0.233338 -0.308944 -0.493821 -0.099185 -0.096337 -0.206712 0.020999 -0.392444 0.107114 0.013698 0.062727 0.225434 0.313665 0.185134 -0.004077 0.044898 0.031982 0.238521 -0.120072 -0.065914 -0.134190 -0.023300 0.119288 -0.210140 0.051135 -0.345668 0.315215 0.191942 0.059278 0.066533 0.130329 -0.067436 0.037978 0.382493 -0.033164 0.338361 0.006447 0.031262 0.334480 0.497186 0.009458 0.009433 -0.011586 -0.251040 -0.443021 0.057079 -0.100967 -0.105121 0.068831 0.059748 -0.219303 0.186139 -0.078937 -0.084832 -0.050752 0.053122 0.123198 -0.062804 0.053775 -0.504463 0.404967 -0.083123 -0.327493 -0.168384 0.111710 -0.096017 -0.276609 -0.156354 -0.108099 0.071382 -0.233025 -0.116913 0.107325 -0.106933 -0.205200 0.286054 -0.425426 -0.032010 0.253116 0.160093 0.218554 -0.079091 -0.243792 -0.129395 0.091462 -0.174784 0.217879 0.168399 -0.087586 -0.532660 -0.051392 -0.199629 -0.278272 -0.330334 -0.062275 -0.383647 -0.272802 -0.149270 -0.069926 0.035242 -0.214657 0.231176 0.216260 0.174917 0.175539 0.011361 -0.036092 -0.065606 -0.057453 -0.098602 -0.048833 0.378295 0.233306 -0.148878 0.206707 0.257888 -0.138453 0.220965 0.362131 0.243790 -0.138234 -0.108772 0.188492 0.183848 -0.072440 0.043778 -0.012303 0.163794 0.129180 -0.014693 -0.085647 0.148378 0.177123 -0.065493 0.290127 0.385256 -0.068375 0.065867 0.190807 -0.218156 0.012158 -0.486617 0.010608 0.178032 0.230045 0.446732 0.018897 -0.151096 0.053148 -0.074563 0.158862 0.057715 -0.479677 -0.113455 0.330023
处理 0.136932 -0.129721 -0.428277 0.296989 0.165108 -0.254402 -0.103821 0.226075 0.352637 -0.015858 -0.143223 -0.024946 0.377019 0.108296 0.225618 0.012614 -0.142840 -0.100803 0.350739 -0.171651 0.049019 -0.174543 -0.293345 0.209977 0.065024 -0.145793 0.073482 -0.023850 0.155232 0.089498 0.201358 0.375468 -0.154025 -0.070246 -0.148636 -0.219971 -0.145013 0.111212 -0.022032 0.301766 0.299367 0.071092 0.359468 0.291786 -0.180590 -0.041813 -0.313322 -0.425579 -0.178597 -0.218313 -0.247607 -0.212800 -0.242960 0.317680 0.328638 0.149094 0.010667 0.271067 0.169610 -0.045350 0.034106 0.013253 0.340567 -0.166743 -0.138071 -0.297330 -0.193169 -0.002654 0.176783 0.171897 -0.175206 0.102188 0.487558 0.184951 -0.001555 0.073239 -0.032272 0.110569 0.077067 -0.065659 -0.337133 0.022122 0.084330 0.525958 0.178860 -0.321506 -0.041090 -0.118842 -0.398111 -0.183217 0.179853 -0.135675 -0.323666 -0.551298 -0.057589 0.645902 0.267627 -0.066434 -0.175526 -0.118534 -0.181263 0.022899 -0.071263 0.036832 -0.065805 0.280047 -0.029316 -0.217636 0.380569 -0.045830 0.317057 0.144836 -0.102185 -0.360079 -0.031463 0.013788 -0.183033 -0.128500 0.251111 -0.409936 0.386586 -0.195633 0.262171 0.051077 -0.122730 0.230166 -0.011110 0.195722 -0.564145 0.143226 -0.330432 0.035703 -0.066279 -0.287193 -0.504568 0.045606 0.089233 0.052862 -0.264908 0.143255 -0.201350 -0.698387 -0.403794 -0.296479 -0.100775 -0.009695 -0.060102 0.053577 -0.026416 -0.124650 0.084398 -0.212772 -0.078323 0.016119 -0.230279 0.063641 0.269389 0.299767 0.254986 -0.236299 0.108274 -0.308530 -0.151572 0.097525 0.165300 -0.514883 -0.472544 0.314238 0.155748 -0.087825 0.117426 -0.043944 0.000737 0.638087 0.076790 -0.069969 0.010541 0.117592 0.104279 0.032777 0.237423 0.176093 -0.069436 0.350257 0.074087 -0.158096 0.050452 0.050089 0.253912 0.001072 0.587843 0.166244 0.517956 -0.176315 0.008095 -0.016456 0.013994 -0.355058 -0.462767 0.120027
是 0.088422 -0.220535 0.042321 0.280248 0.158567 0.022675 0.104318 0.164016 0.175014 0.483962 0.128477 0.111126 0.031500 -0.000157 -0.097737 0.247697 -0.179488 -0.240289 -0.136103 -0.168298 -0.147298 0.021108 0.120252 0.076418 0.274915 0.074118 -0.109737 0.132861 0.303832 0.025579 -0.001565 0.046626 -0.174546 0.069820 -0.233192 -0.319214 0.102713 0.376593 -0.278854 -0.190161 0.064110 0.152048 0.481907 0.112520 -0.237646 0.036225 -0.054809 -0.675327 -0.004792 -0.201795 -0.314029 -0.002380 -0.308852 0.154706 -0.015906 -0.025239 -0.115753 0.012128 0.177280 0.193762 0.064173 0.136234 0.119523 -0.144031 0.001965 -0.019349 -0.090950 0.130274 -0.212409 -0.300901 -0.271812 0.048882 0.046211 0.264830 -0.007732 0.212248 0.170197 -0.036245 0.126349 0.037053 0.014784 0.282051 0.090078 0.191075 0.188490 -0.240984 0.005043 -0.012079 -0.339504 -0.255159 0.253130 -0.122627 0.070942 -0.228254 0.148199 0.088679 -0.028714 -0.072517 -0.252825 0.140066 0.037613 0.168659 0.053629 0.064994 -0.262946 0.252412 -0.095863 -0.409000 0.020319 -0.120344 -0.248578 -0.148610 0.120841 -0.206529 0.099486 -0.144703 0.096828 -0.118727 -0.185494 -0.068001 -0.054437 -0.155130 -0.012420 0.233209 0.015379 0.168919 -0.135505 0.030401 -0.111819 -0.008094 -0.198661 -0.005637 0.229044 -0.131276 -0.294233 0.013832 -0.035503 -0.125856 -0.158669 -0.120601 -0.322779 -0.117246 -0.162126 -0.140845 0.118956 -0.244393 0.266027 -0.039224 -0.294961 0.162399 -0.046758 -0.109945 -0.273991 -0.052170 -0.081680 0.060395 0.223162 0.063811 0.086414 -0.239465 0.311980 -0.043291 -0.100374 0.136088 0.180767 -0.064107 -0.222279 0.027649 -0.062463 0.141550 -0.009524 -0.122633 0.078290 0.118104 0.068727 -0.020049 -0.064007 0.141176 0.123716 -0.040491 -0.147908 -0.171939 0.018413 0.055367 0.191712 0.042501 -0.071932 0.301518 -0.111157 0.064090 0.038439 0.139372 0.075114 -0.148898 0.236133 0.344508 0.014930 -0.195834 -0.292445 0.097225
我 0.250116 -0.366958 0.065014 0.010725 0.231398 -0.177817 0.064359 -0.005259 0.115888 0.154000 0.171935 0.072470 -0.003175 -0.092480 0.202760 -0.030792 -0.306991 -0.289693 -0.055264 -0.189153 0.122888 0.081699 0.017909 0.158469 0.147464 0.079238 -0.224966 0.145837 0.182973 -0.149864 -0.156044 0.044855 -0.237059 0.174146 -0.108293 -0.066462 0.140773 0.092687 -0.124868 -0.026098 0.167881 -0.117048 0.390750 -0.036812 -0.051702 -0.161367 -0.355791 -0.311515 -0.090306 0.084679 -0.184472 0.090339 -0.098312 0.256595 0.292554 0.274648 0.039325 0.150774 0.239049 -0.011787 -0.014104 0.135062 0.151537 -0.208729 -0.171538 0.080030 -0.116087 0.159768 -0.061878 -0.149166 -0.065586 0.029528 -0.020271 0.098718 -0.068513 0.238489 0.174631 -0.003655 0.161002 -0.002617 0.202535 0.276254 0.039330 0.008368 0.258403 -0.254685 -0.046402 0.415975 -0.369803 -0.070436 0.165418 0.167119 0.047878 0.105566 -0.127156 0.189587 -0.022974 -0.210112 -0.297339 0.071683 -0.111609 0.265368 -0.108999 0.247901 -0.434307 0.216444 0.033944 -0.551442 -0.072594 0.009830 -0.028967 -0.181977 -0.032623 -0.179671 0.128933 -0.087196 0.120340 -0.221466 -0.200841 -0.218873 0.277069 -0.366933 0.003879 -0.027925 0.069605 -0.057702 -0.010946 -0.035958 0.039027 0.367287 0.044901 0.128941 -0.039109 -0.088411 -0.210587 -0.195746 -0.265087 0.117322 0.057173 -0.134257 -0.214258 -0.247163 -0.274339 0.054974 -0.111022 -0.567581 0.212942 -0.222993 -0.027288 0.198594 -0.052249 0.149065 -0.242251 -0.194625 -0.040973 -0.007490 0.168107 -0.079271 0.263272 -0.370942 0.190593 0.015323 0.115155 0.074836 0.307684 0.204195 -0.105276 0.298403 0.151988 0.045363 -0.128028 -0.065257 -0.150151 0.138840 -0.075110 0.019008 -0.181566 -0.044517 0.208922 0.067851 0.059112 -0.029587 -0.138191 -0.009103 -0.083886 -0.252082 -0.224802 0.450786 0.100208 -0.050416 0.050791 0.095502 -0.180603 0.003119 0.176932 0.367467 -0.042056 -0.330716 -0.165911 0.194028
经销商 0.300950 -0.640435 -0.640835 0.370033 0.179919 0.000145 0.040391 0.082040 -0.184682 0.423619 0.193239 -0.426621 0.000073 -0.144787 0.140380 0.142417 0.185289 -0.636542 0.286752 0.190178 -0.327173 0.073985 -0.088680 0.463930 0.339007 0.338927 -0.103344 0.361140 0.238190 0.269163 -0.105034 -0.122992 0.401045 0.339243 0.050344 0.048747 0.365479 -0.028660 -0.430861 0.635570 0.292913 0.030391 0.031303 0.600765 0.163518 -0.094481 -0.326777 -0.158254 -0.015317 -0.068778 -0.319512 -0.197396 -0.427638 0.056291 -0.005961 -0.187212 0.216360 -0.004211 -0.414962 0.288756 0.161606 0.266606 0.382557 -0.113637 0.044768 -0.085979 -0.230285 0.143263 0.307265 -0.077358 -0.213132 0.121702 0.436348 0.335579 -0.001025 0.233839 0.439663 0.348538 0.121238 -0.348347 0.274533 0.547067 0.205952 0.251659 -0.027274 0.005838 -0.525205 -0.497355 0.006961 -0.102852 0.431450 0.036295 -0.452594 0.172724 0.068723 0.261857 0.189356 0.113342 -0.107014 -0.018598 -0.033960 0.133088 -0.024927 -0.490380 -0.239363 -0.060034 0.194461 -0.482286 -0.116181 -0.379999 -0.222703 -0.353042 -0.080973 -0.191807 -0.227450 -0.283167 0.102893 0.015038 -0.307349 -0.453847 -0.281157 -0.209888 -0.046177 -0.024298 0.294261 -0.327261 -0.264468 -0.065236 0.403897 0.105652 -0.061918 -0.053932 0.236415 0.034411 0.104239 0.134026 -0.117416 0.016897 0.016813 -0.057898 -0.439885 -0.487770 -0.307180 -0.843798 0.005530 0.057086 0.097494 -0.121417 0.029257 -0.180258 0.216625 0.148704 -0.053555 0.212922 0.003392 0.146482 0.107945 -0.161531 0.189757 -0.125885 0.206699 -0.002582 -0.048776 0.021870 0.212623 -0.289164 -0.426615 0.278664 0.185513 -0.386200 0.150842 -0.378713 -0.435198 0.344525 -0.040301 0.530005 0.157695 0.194024 -0.107638 0.182702 -0.189994 0.230332 -0.126755 0.419282 0.158776 -0.028497 -0.150783 0.510718 0.058608 0.501961 0.083399 -0.193928 -0.128530 0.047686 0.143522 0.152703 -0.036516 -0.481704 -0.105443 0.496287
什么 0.259471 -0.297434 0.031939 -0.087495 0.273416 -0.151321 0.002956 0.067053 0.008771 0.192789 -0.075225 0.067459 0.193833 -0.030812 0.347956 -0.055090 -0.055168 -0.295265 0.074209 -0.303823 0.066665 0.093988 0.102116 0.194244 -0.106603 0.153719 -0.382732 0.133064 0.235343 -0.134361 -0.023745 -0.129184 -0.327885 0.195848 -0.241498 -0.126865 0.108094 0.280288 -0.071612 -0.183935 0.108717 -0.054297 0.130087 0.085747 -0.320680 0.153437 -0.239297 -0.472781 -0.143328 0.043050 -0.428562 -0.042008 -0.496141 -0.068001 0.171900 0.223856 0.098779 -0.039076 0.347619 0.142145 0.086569 -0.082065 0.158558 -0.259227 -0.096630 -0.032847 0.068968 -0.015122 0.259739 0.042344 -0.322245 0.101330 0.169479 0.081968 0.203679 0.365348 0.138500 0.055129 0.074365 -0.042706 0.054818 0.373865 -0.022045 -0.098651 0.303278 -0.227104 0.126904 0.353751 -0.079423 -0.262953 0.161384 0.211632 -0.082903 -0.184443 0.101485 -0.014260 0.402226 0.089770 0.011073 -0.146352 -0.046129 0.057941 -0.021731 0.149619 -0.393518 0.077283 -0.040921 -0.413045 -0.142694 0.111928 0.087684 -0.151664 0.085378 -0.175815 0.170965 -0.285523 -0.059692 -0.191194 -0.148741 -0.303024 0.052943 -0.598954 -0.130135 0.100201 0.083627 0.033757 0.042737 -0.105656 -0.045773 0.094599 0.007608 -0.009474 0.181040 -0.204164 -0.353966 0.007318 -0.221307 -0.075377 0.092866 -0.100837 -0.422837 -0.507082 -0.193833 0.195220 0.119427 -0.158434 -0.037496 0.032585 0.048904 0.296892 0.038350 -0.117097 -0.134861 0.195170 -0.502921 0.200573 0.073576 0.155214 0.147365 -0.121528 0.408173 -0.063213 -0.198443 0.262135 0.011384 0.215874 0.000297 0.205915 0.248749 -0.103725 -0.042796 -0.003684 0.049892 0.099245 0.134149 -0.256295 -0.383310 0.020994 0.006767 0.171519 0.072445 -0.284048 0.052770 -0.207359 -0.182738 0.010233 -0.387157 0.158647 0.014975 0.122191 0.044885 0.092657 -0.181091 -0.017422 0.022197 0.448235 0.079610 -0.217645 -0.294102 0.196885
哪些 0.181075 -0.112197 -0.496547 0.101706 0.070707 0.027470 0.225269 0.216467 -0.145388 0.273269 -0.195005 0.005985 0.083059 -0.189629 -0.016839 -0.095473 0.030633 -0.215628 0.082730 -0.296837 -0.065544 -0.099700 0.373816 -0.301462 -0.106153 0.182770 -0.478065 -0.062173 0.100766 0.061229 0.187820 0.030557 -0.273776 0.313610 0.038867 -0.264455 -0.052663 -0.014567 -0.106994 -0.017553 -0.234468 0.098772 0.303629 0.440844 -0.265230 0.211721 -0.445812 -0.848231 0.031269 0.041386 -0.160730 -0.410209 -0.517545 -0.080134 0.035904 0.201126 0.248828 0.150848 0.324987 -0.004960 -0.016266 0.097694 0.025487 -0.453666 0.268885 -0.050945 0.397675 0.042980 -0.080918 0.444038 -0.578429 0.300979 0.253190 -0.129127 0.170750 0.512505 -0.029441 0.005134 -0.028137 -0.363870 0.268222 0.241582 -0.132994 0.158894 0.246965 -0.170180 0.111933 0.042916 -0.037830 -0.220530 0.063102 0.409473 -0.483793 -0.327453 0.156072 -0.127241 0.409390 -0.009458 0.109377 -0.106314 -0.040941 0.181788 0.095350 0.137394 -0.289734 -0.072492 0.029647 -0.143481 -0.176631 0.058731 0.388541 -0.147747 -0.153662 0.104165 0.026815 0.061768 0.052032 -0.046731 -0.007391 -0.353555 -0.084960 -0.341871 -0.128500 -0.052581 -0.015382 0.400206 0.077215 -0.090104 -0.087533 0.061494 -0.157132 0.217552 0.429768 -0.144601 -0.432005 -0.035459 -0.221383 -0.438342 -0.377022 -0.227212 -0.444734 -0.646715 -0.349859 -0.070933 -0.019206 0.119139 -0.194337 0.045343 0.184718 0.181830 -0.281247 0.291382 -0.177381 0.224924 -0.140244 0.193632 0.419735 0.397149 0.123548 0.067940 0.612957 -0.383584 -0.214937 0.306099 0.260747 0.081991 -0.180151 0.290820 0.122989 0.205067 0.265270 -0.015204 0.140308 -0.070452 0.125277 0.034111 -0.520746 0.149005 -0.089964 0.427441 -0.009235 -0.364763 0.136405 0.025611 -0.133381 0.202715 -0.357471 -0.045819 0.283075 0.329262 0.418863 -0.038369 0.021828 -0.020682 0.300409 0.362366 0.141072 -0.457138 -0.381451 0.162577
怎么 0.196875 -0.428416 -0.092481 0.023897 0.198266 -0.327073 0.176139 0.050877 0.243151 0.127661 -0.200153 -0.079487 0.399929 -0.189409 0.110572 0.011403 -0.100494 -0.350157 0.252988 -0.167655 0.023971 0.219664 0.226035 0.303693 0.063389 -0.094718 -0.187327 0.083982 0.327658 -0.021916 0.094306 -0.102914 -0.028416 0.480595 -0.068598 -0.215577 -0.087633 0.090430 -0.074387 -0.144489 0.173614 -0.108223 0.124077 0.142103 -0.190165 0.096144 -0.322046 -0.558531 0.129652 -0.257588 -0.414090 0.091799 -0.188594 0.017388 0.036421 0.297193 0.123777 0.338487 0.286893 -0.012326 0.100175 0.070916 -0.199919 -0.255065 -0.114648 0.039997 0.051489 0.263141 0.207594 0.015511 -0.393823 0.159124 0.202244 -0.012103 0.139735 0.122059 -0.022733 -0.060455 0.194374 -0.153867 0.230704 0.222870 -0.014897 0.073345 0.480044 -0.197284 -0.021899 0.179052 -0.077814 -0.564830 0.275278 -0.010917 0.199141 -0.058182 0.041159 0.032662 0.356561 -0.100918 -0.214475 0.033207 -0.048419 0.120624 -0.030616 -0.041697 -0.366897 0.251101 -0.017401 -0.483042 -0.088329 -0.020318 0.102196 -0.043895 -0.021876 -0.254615 0.217728 -0.155022 -0.105075 -0.055724 -0.107952 0.028769 0.208844 -0.410875 0.010120 0.181381 -0.003328 0.223228 -0.028161 -0.074167 -0.241851 0.015899 0.096631 0.175315 0.089737 -0.124528 -0.393499 0.024054 -0.247795 -0.030219 -0.379583 -0.024213 -0.203354 -0.323294 0.024271 0.308394 -0.119367 -0.297280 0.115287 0.080629 0.155852 0.070463 -0.116127 -0.330261 -0.180174 -0.185680 -0.025495 -0.046179 0.340617 0.018969 0.091140 -0.015706 0.366828 -0.107260 0.086740 0.185408 -0.041335 0.067307 -0.019097 0.250984 0.256891 -0.052790 -0.093004 -0.189851 0.039817 0.075958 0.187145 -0.070478 -0.101596 0.100429 -0.046710 0.168625 0.171925 -0.216183 0.192677 0.057824 -0.215999 -0.119592 -0.483558 0.206914 0.152445 0.050439 -0.003027 0.059358 -0.212496 0.058439 -0.085095 0.331910 -0.050250 -0.453923 -0.090394 0.332646
后 0.343438 -0.138614 0.218242 0.330354 0.276430 -0.267757 0.046494 0.144527 0.196341 -0.040290 -0.194814 -0.058003 0.113574 0.074256 0.171620 -0.314764 0.127910 -0.311290 -0.140793 -0.327462 -0.025788 -0.041343 -0.119340 0.290010 -0.012304 0.130599 -0.310945 0.095578 -0.012196 -0.158940 -0.020225 -0.123936 -0.096076 -0.006896 -0.169226 -0.117942 -0.101640 -0.038862 -0.357885 0.271781 -0.106249 0.170761 0.629283 0.503512 0.018305 0.135521 -0.213208 -0.595823 -0.056858 -0.205626 -0.184932 0.236046 -0.363469 0.018212 -0.009269 -0.045290 0.224544 0.197419 0.150355 -0.314870 0.181391 0.145019 0.233280 -0.052111 -0.302002 -0.232161 0.007729 -0.175237 0.085258 -0.111900 -0.142011 0.023682 0.149022 0.411186 -0.117247 -0.303583 0.235193 0.182096 -0.029861 -0.147396 0.085035 0.179782 0.298056 0.362033 0.201512 -0.057691 -0.192544 0.017801 -0.325432 -0.301993 0.143710 -0.128468 0.084336 -0.165884 -0.220493 0.321532 0.190383 0.112093 -0.092922 0.146691 -0.064666 0.184407 -0.042811 0.032275 -0.146857 0.361394 0.220996 -0.142930 0.179759 -0.049665 0.047118 0.030383 0.094540 -0.292752 0.175777 -0.083711 -0.322045 0.044718 -0.049684 -0.043238 0.069102 -0.325118 0.063380 0.073695 -0.138486 0.400517 -0.530824 -0.021111 -0.006647 0.009905 -0.220646 0.080999 0.137659 -0.032645 -0.372199 -0.027394 -0.011871 -0.028428 0.043483 0.103120 -0.164741 -0.353043 -0.313787 -0.055647 0.167103 -0.373521 0.301490 0.092421 -0.106487 -0.063949 -0.246264 -0.061268 0.014623 -0.208907 -0.083860 -0.083785 0.220434 -0.161368 0.224866 -0.261811 0.452707 0.163221 0.021924 0.192814 0.189687 0.107485 0.016926 0.311638 0.251412 0.079123 0.026770 0.159108 -0.041674 0.045313 -0.191354 -0.347623 0.105695 0.219339 -0.101096 -0.117371 -0.279295 0.076755 -0.168459 0.286317 -0.161372 -0.203534 0.024080 0.141033 0.097117 0.063158 0.433385 0.061857 0.277733 -0.094771 0.229061 0.091462 0.008085 -0.535186 -0.267756 -0.342616
无法 0.440069 0.119124 -0.423846 0.508595 0.270669 -0.118743 0.052590 -0.061343 0.086465 0.109566 -0.249599 -0.109045 -0.043361 0.104112 -0.168948 -0.205205 0.316472 -0.144678 -0.268591 -0.031526 -0.089300 -0.085580 0.214154 0.179542 0.153062 0.076746 0.042922 0.001075 0.188756 0.003132 -0.220389 0.027089 -0.111863 -0.315842 0.097434 -0.221723 0.037357 0.287826 -0.278658 -0.004968 0.321315 -0.127172 0.623521 -0.073110 -0.168704 0.203478 -0.413156 -0.470895 0.133771 -0.302475 -0.248626 0.162459 -0.080391 0.367384 -0.148037 -0.148327 0.428500 0.257542 0.115199 0.066723 0.013941 0.266327 0.455867 0.010794 -0.313079 -0.078872 0.042910 -0.259012 -0.165392 0.004971 -0.101166 0.037853 0.086786 0.251213 -0.016838 -0.083317 0.288841 0.097140 0.146110 0.158421 -0.072990 0.038292 0.409373 0.396155 0.614182 -0.083536 -0.420395 -0.366505 -0.033961 -0.304215 0.079366 -0.188842 -0.011444 -0.015919 0.126820 -0.064017 0.215219 -0.283638 -0.231862 -0.046055 -0.025827 0.053516 -0.193682 -0.061695 -0.300453 0.211276 -0.223793 -0.489863 -0.001527 0.048016 -0.038742 -0.246746 -0.025322 -0.559860 -0.056255 -0.296687 -0.143562 -0.179954 -0.030486 0.066948 0.205947 -0.670374 -0.248994 0.300824 0.230427 0.132148 -0.058287 0.149508 -0.314574 -0.109506 0.028020 0.164987 -0.198451 -0.023416 -0.295721 -0.140933 -0.203291 -0.042311 -0.229905 0.141422 -0.299535 -0.456454 -0.044655 0.023513 -0.017945 -0.233942 0.124182 0.135172 -0.125869 -0.096263 0.094279 0.454635 -0.265376 0.168365 0.078980 -0.081369 0.150210 0.095268 0.060415 -0.297495 0.565350 0.009317 0.171643 0.012707 0.273892 -0.292731 -0.260583 0.278520 0.174544 -0.154505 -0.005397 0.075940 -0.344583 0.138647 0.132786 -0.056935 0.238133 0.081327 -0.238578 -0.026112 0.394075 -0.009065 -0.128418 -0.104412 0.032856 -0.146639 -0.001348 0.213701 -0.207505 -0.059474 0.334281 0.108287 0.175225 -0.150307 0.177264 0.301585 0.115002 -0.446203 -0.260951 -0.105395
不 0.206238 -0.284742 -0.265172 0.241002 0.081033 -0.112347 -0.061623 0.009518 0.267310 0.187911 -0.056500 -0.122227 0.125718 -0.204477 -0.120467 -0.230008 0.199854 -0.167478 -0.014468 -0.367650 0.047446 0.221457 0.039697 0.051413 0.172382 -0.088689 -0.112305 0.410821 0.308756 -0.265287 -0.229596 0.000316 0.153431 0.126213 -0.023069 -0.009545 -0.154959 0.178298 -0.212562 -0.117307 0.066704 0.240420 0.461786 0.075043 0.129750 -0.024099 -0.314390 -0.319252 0.065232 0.017128 -0.549869 0.217599 -0.194108 0.182287 -0.025056 -0.001600 0.096747 0.042079 0.206181 0.052502 0.147896 0.146641 0.064148 -0.111421 -0.137711 0.088986 -0.129689 0.080952 -0.033292 0.057270 -0.112765 0.253207 0.093937 0.085406 0.053587 -0.001195 0.115866 0.180739 -0.107910 0.162922 -0.025710 0.225727 0.214225 0.133172 0.624560 -0.180413 -0.009649 0.056409 -0.222878 -0.280898 0.316762 0.045043 0.212677 -0.150176 0.186567 -0.033998 0.097752 0.064313 -0.276287 -0.031751 -0.062139 0.172112 0.134900 0.099136 -0.310823 0.121504 -0.026025 -0.503879 -0.102024 -0.055914 -0.079134 -0.422102 -0.038759 -0.302869 -0.064186 -0.117837 -0.214361 -0.143930 0.031144 -0.166511 0.204795 -0.185754 -0.093117 0.183698 -0.140560 -0.000602 0.005857 0.067168 -0.323452 -0.028039 -0.176796 0.163852 0.098517 0.080303 -0.393054 -0.077259 -0.238063 -0.078128 -0.209096 -0.017117 -0.214348 -0.469052 -0.286502 0.238879 -0.087509 -0.412695 0.195781 -0.159409 -0.037267 -0.019432 -0.045890 -0.068498 -0.176166 -0.035858 -0.000541 -0.151599 0.269455 0.011693 0.073884 -0.291471 0.290228 0.151139 -0.185373 0.057518 0.277086 -0.000554 -0.278260 0.344146 0.212693 0.052414 0.018691 -0.112935 -0.060490 0.371938 0.034656 -0.038737 -0.100613 -0.013431 0.050044 0.265903 0.095789 0.109579 -0.142989 0.160843 -0.053712 -0.050666 -0.291996 0.171883 0.037672 -0.001997 -0.062669 0.119705 -0.055028 -0.194550 0.132207 0.429037 0.113626 -0.363362 -0.230692 -0.142726
解决 0.086786 -0.068210 -0.603373 0.265473 0.093986 -0.144455 -0.325833 0.153238 0.048188 -0.037147 0.069175 -0.278982 0.408742 -0.067487 -0.004154 0.062386 -0.235950 -0.325958 0.085003 -0.402747 -0.146301 0.023247 0.030122 0.090179 0.473727 -0.182041 0.225717 0.126223 0.237102 0.145780 0.299723 0.018257 -0.113590 0.128698 0.411805 -0.312390 0.161234 0.443229 -0.222000 0.085959 0.180760 0.020060 0.474217 0.159798 -0.532912 0.236660 -0.395026 -0.054978 -0.226246 0.032345 -0.156770 -0.204905 -0.163263 0.376859 0.082420 0.219029 0.039077 0.250499 0.469805 -0.266306 0.218115 0.312279 0.049840 -0.219466 -0.212401 -0.325993 -0.310993 0.169147 -0.004896 -0.240027 -0.151338 0.005554 0.173098 0.222036 0.096656 -0.027159 0.069443 0.121501 0.200157 -0.097653 0.056125 0.160254 -0.076856 0.700999 0.118082 -0.175142 0.097585 -0.143416 0.015368 0.024323 0.354099 -0.023594 -0.036767 -0.365758 0.237433 0.242188 -0.071840 0.042983 -0.042455 0.069289 -0.078598 0.060089 -0.322369 0.238323 -0.278492 0.056455 -0.282799 -0.768535 0.087992 0.083781 0.057262 -0.098749 0.038603 -0.348929 0.034848 -0.024305 -0.026986 0.049742 -0.081668 -0.226095 0.589561 -0.225663 -0.119092 -0.020525 -0.003914 -0.074367 -0.019099 0.271164 -0.338279 -0.046566 -0.322156 0.224125 0.179067 -0.301219 -0.185708 -0.108938 -0.222797 0.100157 -0.231591 0.269992 -0.679079 -0.381512 -0.327235 -0.475950 0.123507 0.052991 -0.030778 0.226300 -0.079392 -0.410058 -0.100669 -0.073961 -0.056584 -0.048678 -0.228738 0.068377 0.149131 0.011815 -0.086664 0.016924 0.291466 -0.286310 0.243473 0.299406 0.198885 -0.078316 -0.380324 0.385693 -0.107309 -0.138311 -0.024433 0.308772 -0.102505 0.458778 0.268663 -0.228531 -0.022284 0.278984 0.061636 0.462443 0.187200 -0.095300 -0.084199 -0.133078 0.209199 -0.162779 0.111054 0.082570 -0.076618 0.297203 0.508944 0.010342 0.515423 -0.098181 0.177268 0.148711 -0.122525 -0.171294 -0.151990 0.487329
下 0.227978 -0.345087 -0.189454 0.593509 0.108861 0.027094 0.134999 0.094210 0.180657 0.215277 0.075059 -0.185169 -0.108401 0.011962 -0.002659 -0.271943 -0.016627 -0.124101 0.338933 -0.285182 -0.164564 0.116772 -0.188956 0.245681 -0.013480 0.263115 -0.148881 -0.009122 0.124345 -0.283000 0.273301 0.042078 -0.239846 0.267226 -0.169917 -0.020338 -0.014810 0.305623 -0.442958 -0.170438 -0.007618 -0.031374 0.472137 0.395904 0.222275 0.136904 -0.284996 -0.579296 0.255746 0.082742 -0.339897 -0.031613 -0.260259 0.044152 0.039218 0.139580 -0.041877 0.105494 0.393400 -0.157887 0.083695 0.038325 -0.024039 -0.144262 -0.381575 -0.200655 -0.098743 0.069396 -0.103978 0.140806 0.229294 -0.044289 0.199927 0.082085 -0.067857 0.042902 0.376780 0.169313 0.286790 -0.104610 0.142197 0.250520 0.016093 0.058987 0.125468 0.206548 -0.152748 -0.124452 -0.390906 -0.172571 0.009801 -0.215222 0.259967 0.046218 0.111618 0.061725 0.210583 -0.225884 -0.191188 0.152114 0.015566 -0.047116 0.034164 0.192488 -0.336740 0.478296 0.034512 -0.456744 0.216709 0.244786 -0.192641 -0.212326 -0.160973 0.225625 -0.115950 -0.419735 -0.052935 -0.068312 -0.067478 -0.030825 0.042127 -0.248848 -0.135370 0.150340 0.089525 0.197783 -0.219521 0.136655 0.224451 0.237572 0.006172 0.130551 0.179957 -0.216967 -0.264135 -0.335835 0.294004 -0.114719 0.240225 0.252913 -0.301626 -0.055379 0.077119 -0.009647 0.455757 -0.198397 0.377319 -0.031138 0.003407 0.019556 -0.039193 0.114980 -0.033579 -0.152895 -0.122684 0.076938 0.081082 -0.182193 0.125139 -0.228222 0.342411 -0.079995 -0.150996 0.285282 0.039941 0.274874 -0.271516 0.237774 0.193514 0.000905 -0.282007 -0.092933 -0.093265 0.187629 -0.388380 -0.282721 0.028616 0.085355 -0.254741 0.351360 0.070390 -0.192372 -0.291905 0.221785 -0.042604 -0.179271 -0.286378 0.124128 -0.034142 -0.158390 0.245209 -0.022756 0.023608 -0.052351 0.446613 0.255860 -0.226702 -0.408291 -0.164832 -0.083130
会 0.187662 -0.140601 -0.084521 0.277536 0.088676 0.002611 -0.080068 -0.119121 0.205303 0.423415 -0.014794 0.036919 0.064606 -0.046571 -0.165940 -0.115836 0.093830 -0.029256 -0.048551 -0.157152 -0.097853 -0.038875 -0.037898 -0.058982 0.117114 -0.019192 -0.037957 0.219309 0.146520 -0.004327 -0.048456 0.046946 -0.159699 -0.115689 -0.184796 -0.318361 -0.099990 0.190091 -0.339987 0.140009 0.125772 -0.132605 0.684076 -0.002267 0.065007 0.044525 -0.338824 -0.518797 0.115910 0.084639 -0.254247 -0.107586 -0.316715 0.160900 -0.009767 -0.110695 0.058503 0.156773 0.151664 -0.111638 -0.076751 0.232703 0.024170 -0.191571 -0.093881 0.042122 0.002836 -0.085471 -0.110737 -0.263291 -0.404057 0.218198 0.552254 0.130964 -0.200825 -0.019570 0.035026 0.071263 0.170919 0.006864 0.054826 0.149402 -0.116352 0.325561 0.369943 -0.125378 -0.071882 0.308257 -0.319659 -0.305118 0.170924 -0.067120 0.124771 0.149716 0.092008 0.212261 0.024862 -0.063056 -0.259749 -0.056240 -0.083210 0.144554 -0.018564 -0.057184 -0.499149 0.010892 -0.108609 -0.621514 0.000851 0.020483 -0.248136 -0.190486 -0.016115 -0.138885 -0.178169 0.133091 0.078497 0.037151 -0.167977 -0.148378 0.009059 -0.445154 -0.041913 0.137862 0.083487 -0.107645 -0.067716 -0.235237 0.095166 0.104774 0.084995 0.241170 0.386736 0.105106 -0.450957 -0.049110 0.117290 -0.118920 0.024361 0.168352 -0.103635 -0.570775 -0.081317 -0.069297 -0.182033 -0.174850 0.001294 -0.017300 -0.003639 -0.024999 0.245337 -0.178291 -0.357256 0.018483 0.147161 -0.129350 0.267382 -0.126856 0.005782 -0.394188 0.474246 -0.123992 -0.026942 0.252712 0.490640 -0.127101 -0.098323 0.356029 0.183207 0.329293 -0.266010 -0.079103 -0.054177 0.134584 0.127853 0.128238 0.265065 -0.089162 -0.031580 -0.140649 -0.123130 -0.164848 -0.057649 -0.054492 -0.000828 -0.260008 -0.069397 0.184858 -0.060823 -0.063155 0.298908 0.287196 0.238486 -0.247897 0.194390 0.266682 0.216015 -0.468259 -0.231399 -0.041704
车子 0.033342 -0.378613 0.191255 0.239961 0.238812 -0.168519 0.370906 -0.086059 0.168028 0.056208 0.103103 -0.043678 0.263144 0.043047 0.306006 -0.235403 -0.180910 -0.693523 0.366574 -0.142434 0.123885 0.075324 -0.020716 0.098222 0.157145 -0.096169 -0.272024 0.181530 0.074563 0.185514 -0.236386 -0.141674 0.041403 0.420604 -0.479625 0.348393 -0.242870 0.197410 -0.127255 0.246449 0.353110 -0.207270 0.450649 0.078022 -0.006974 -0.137296 0.123079 -0.560689 0.025689 0.090065 -0.209420 0.173293 -0.516781 -0.337491 -0.481543 0.109362 0.149484 0.224609 0.338867 -0.214468 0.252059 0.043453 0.037951 0.169002 -0.224507 0.406348 -0.176289 0.212029 0.263291 -0.072462 -0.207986 -0.021858 0.038412 0.299131 0.365807 0.014487 0.157354 -0.202855 0.114491 -0.040540 -0.300661 -0.031933 0.006029 0.196902 -0.048436 -0.398573 -0.314996 -0.169987 -0.034608 -0.201983 0.256586 -0.057747 0.009892 -0.219591 -0.034159 0.456427 0.194186 -0.122813 0.160024 -0.077208 -0.026836 -0.063452 -0.023412 0.234751 -0.272897 -0.329996 0.098477 -0.399098 -0.234039 0.011479 -0.240366 -0.040242 -0.147874 -0.000195 0.311865 -0.062711 0.078418 -0.238912 0.233012 -0.367814 0.197668 -0.310350 -0.028850 -0.175296 0.427954 0.234159 -0.029365 0.117161 -0.023047 0.239650 0.117187 -0.372494 0.296533 -0.145239 0.032572 0.256681 -0.173951 -0.310623 0.200422 -0.206200 -0.254550 -0.197346 -0.528155 -0.232856 0.301240 -0.205945 0.082791 0.397194 0.161954 -0.400803 -0.083237 0.343031 0.049988 0.161497 0.244940 -0.034905 -0.060786 0.005674 0.289760 -0.674110 0.297567 0.054054 -0.327333 0.140670 0.387413 0.106152 -0.439156 0.497647 -0.068109 -0.098335 0.087322 -0.370416 -0.301634 -0.057380 -0.071345 0.077594 0.294989 -0.178949 -0.004109 -0.108475 0.247488 -0.322706 0.061413 0.095045 0.019174 -0.073143 -0.282583 0.330934 0.145449 0.054513 0.043489 -0.030171 -0.228623 0.133491 -0.033550 0.248257 0.405694 -0.382413 -0.180964 0.286881
想 0.217283 -0.288082 -0.015917 0.262520 0.068107 0.027078 0.052169 -0.013230 0.059577 0.220293 -0.226068 0.064689 -0.063547 -0.110627 0.139038 -0.130008 -0.308958 -0.056906 -0.094536 -0.212120 -0.004101 0.046134 -0.111773 0.192037 0.383238 -0.064848 -0.120695 -0.029593 0.440265 -0.229701 -0.187743 0.094202 -0.116666 0.054178 -0.041504 0.063867 0.161573 0.029880 -0.243378 0.044446 0.150909 -0.244218 0.303138 0.042037 0.053948 0.050805 -0.496525 -0.514304 -0.220396 -0.028275 -0.485719 0.074583 -0.182886 0.195533 0.192476 0.082941 -0.092372 -0.015818 0.164765 -0.050285 -0.061528 0.061505 0.103549 -0.059304 -0.297447 0.123304 -0.075425 0.025795 -0.031909 -0.047883 -0.296385 0.220212 0.126536 0.313474 -0.018381 -0.124960 0.087800 0.126530 0.315627 0.155492 0.263976 0.283385 0.197894 0.192478 0.211572 -0.242606 -0.079972 0.006976 -0.263410 -0.237151 0.095666 0.153374 0.279314 0.117930 -0.132989 0.037139 0.200418 0.108829 -0.263726 0.036953 0.015687 0.296808 -0.074066 -0.024675 -0.534598 -0.084455 -0.041351 -0.712780 -0.231060 -0.077668 0.047586 -0.236845 0.101411 -0.258309 0.120315 -0.036096 -0.028226 -0.241469 -0.001812 -0.075260 0.343042 -0.209676 -0.214326 0.040043 -0.044868 0.084559 0.124980 -0.036606 -0.043951 0.014167 0.165163 0.208669 0.141401 -0.052834 -0.248385 0.045987 -0.266430 -0.104645 -0.027825 -0.005761 -0.296322 -0.332261 -0.120359 0.128372 0.008030 -0.387703 0.076294 0.042125 -0.129833 -0.049670 -0.039444 0.055731 -0.121314 0.097731 -0.082566 0.103114 0.087520 -0.274629 0.203729 -0.242077 0.421909 0.082019 0.144065 0.306345 0.121398 0.092243 0.073649 0.228374 0.189527 -0.093240 -0.134859 -0.095996 0.066684 0.118195 -0.161365 -0.066013 -0.274143 0.059769 -0.122150 0.202562 0.280897 -0.348572 -0.104583 -0.154583 0.156278 -0.262401 -0.239561 0.270105 0.055335 0.236839 0.262326 -0.098520 -0.144287 -0.110932 0.092828 0.449835 -0.099112 -0.456034 -0.429941 0.022147
异响 0.474181 0.270030 0.114801 0.507329 0.261429 -0.555833 0.179434 -0.084637 0.630988 -0.467211 -0.124333 0.448659 -0.094881 -0.118805 0.190540 0.221011 0.027130 -0.502310 0.346334 -0.168337 -0.156870 -0.030017 0.344724 -0.032777 -0.013257 -0.423670 -0.201681 0.051559 -0.142636 0.154291 0.062582 -0.079230 -0.099421 -0.128390 0.312883 0.468881 -0.114218 0.584476 -0.062008 0.250263 0.649080 0.016243 0.405802 0.058256 -0.058142 -0.425620 -0.172766 -0.215546 0.308809 0.211472 0.321304 -0.052091 -0.647938 -0.393115 -0.833182 0.555823 0.081087 0.314781 0.513517 0.094045 0.198106 0.347453 -0.077280 0.307717 -0.185200 0.295905 -0.211005 0.115220 0.247422 -0.041516 -0.432983 -0.099519 0.466143 -0.014630 0.323449 0.072486 0.332309 -0.321468 0.006044 -0.087479 0.165877 0.128519 -0.058050 0.127946 -0.063544 -0.752984 -0.079390 0.280846 -0.153469 -0.090654 0.466318 -0.224091 0.154235 -0.171934 0.171683 0.297861 0.338776 0.273868 -0.266319 0.054992 0.043015 0.240391 0.234379 0.296093 -0.031532 -0.213594 -0.137137 -0.301268 0.189252 0.052364 -0.030075 -0.168336 0.394262 -0.404812 0.090744 -0.142282 -0.228795 0.120934 0.071999 -0.728084 0.366447 -0.162747 0.313663 0.005083 0.586669 0.152950 0.133970 0.197970 0.600749 -0.286868 -0.320614 -0.461669 0.506872 -0.301985 0.298909 0.225716 -0.016267 -0.506434 0.354543 -0.433464 -0.442188 -0.534163 -0.666515 -0.911467 -0.124787 -0.138328 0.165817 0.086470 0.417757 0.242599 -0.127083 0.260311 -0.070619 -0.052454 0.035617 -0.093241 -0.178142 -0.505219 0.325019 0.061709 0.543149 -0.086453 -0.345300 -0.091924 -0.058348 -0.247951 -0.820926 0.369978 0.403266 -0.327320 0.300539 0.124976 -0.429370 0.159612 0.118467 0.200450 0.521038 -0.214672 0.319733 -0.430553 0.595139 -0.043002 -0.076328 0.168560 0.278735 -0.086569 -0.419475 0.463905 0.079654 0.304960 0.261569 -0.546978 -0.129563 0.485308 -0.092801 0.230371 0.112719 -0.254062 -0.116094 -0.114291
车 -0.035738 -0.353789 0.028787 0.062434 0.017038 -0.140052 0.441545 -0.070193 0.050549 0.285197 0.179822 -0.087827 0.170335 -0.027134 0.181464 -0.159892 0.020458 -0.651733 0.164545 -0.325231 0.073011 0.104090 -0.102884 0.100101 0.218238 -0.081877 -0.337060 0.121771 0.239229 0.240834 -0.181582 -0.073977 0.065111 0.341625 -0.288600 0.306968 -0.093945 0.171895 -0.445004 0.090113 0.443490 -0.188837 0.507914 0.231548 0.219204 -0.143834 0.077599 -0.763265 -0.151371 -0.096744 -0.336982 0.000846 -0.609880 -0.151597 -0.538725 -0.133827 0.172684 0.325631 0.337401 -0.287641 0.280844 0.009903 0.050567 0.181530 -0.290903 0.277466 -0.164670 0.143915 0.359780 -0.012877 -0.136797 0.014491 -0.042303 0.080713 0.299837 0.175115 -0.144219 0.074337 0.258230 -0.110092 -0.121245 -0.254548 0.114102 0.258187 -0.070234 -0.296579 -0.311755 -0.166211 -0.301389 -0.174796 0.168831 0.013067 -0.047750 -0.335182 0.323164 0.311789 -0.024543 -0.084704 0.307686 0.169637 -0.093269 0.115472 -0.015348 0.154311 -0.228470 -0.070975 0.187231 -0.314219 -0.325001 0.014837 -0.175414 -0.157355 0.087422 0.074952 0.096865 0.039579 0.063718 -0.285021 -0.001415 -0.502836 0.271782 -0.330041 -0.132285 -0.110282 0.194058 0.127194 -0.024928 0.254628 -0.138037 0.331306 0.204982 -0.313563 0.221613 -0.086613 0.140003 0.027668 -0.074578 -0.314724 0.221851 -0.348441 -0.268760 -0.363044 -0.381703 0.014520 0.310172 -0.231513 0.260519 0.247870 -0.063535 -0.304975 -0.145307 0.207373 0.105460 -0.016001 0.151665 0.223669 0.062191 0.153365 0.423002 -0.353046 0.192168 0.212738 -0.437617 -0.081402 0.309979 0.092047 -0.300193 0.642157 -0.051181 -0.087840 0.236340 -0.338755 -0.420404 -0.107951 -0.004456 0.337807 0.144758 -0.129253 0.050798 0.050686 0.222013 -0.323814 0.056166 0.090339 0.050419 -0.006048 -0.251018 0.499173 -0.050028 0.171480 0.132977 -0.105654 -0.223479 0.097602 0.010049 0.347381 0.357759 -0.284693 -0.044053 0.206401
汽车 0.108169 -0.126636 0.029689 0.318889 -0.013861 -0.092986 0.513550 0.268637 0.141634 0.314895 0.096014 -0.183825 -0.011522 0.293389 -0.256117 -0.029967 0.031421 -0.554095 0.164733 -0.243951 -0.097924 -0.258472 -0.031254 0.095579 0.176385 -0.243837 -0.257709 0.276954 0.059634 0.082108 -0.313483 -0.022825 0.076190 0.269501 -0.183716 0.193782 0.052489 0.226180 -0.418495 0.348942 0.386912 -0.059725 0.467193 0.157712 0.049964 -0.181078 -0.082052 -0.452621 0.154213 -0.146410 -0.272503 -0.059046 -0.688799 -0.216197 -0.536986 0.161797 0.236118 0.435277 0.187063 -0.104981 0.187453 -0.037191 0.093291 0.276596 -0.112023 0.383803 -0.092639 0.238127 0.118601 0.029948 0.071336 -0.039568 0.243243 0.251123 0.176647 0.134409 -0.123975 -0.102252 0.277770 -0.123601 0.115548 0.063969 -0.040267 0.126772 0.177662 -0.294172 -0.316645 -0.227216 -0.313471 -0.180228 0.350939 -0.134601 -0.005904 -0.172478 0.175444 0.053424 0.240499 0.040798 0.126192 0.012584 -0.177879 0.005816 0.017302 0.131115 -0.200797 -0.119461 0.059077 -0.550113 -0.062423 0.009050 -0.255428 -0.156735 -0.021194 -0.226896 0.081740 -0.133755 0.194190 -0.555680 -0.174547 -0.403980 0.186211 -0.467259 -0.161990 -0.230895 0.366375 0.153558 -0.248532 0.014759 0.050675 0.355344 0.028076 -0.231213 0.338938 0.041363 0.089870 0.017203 -0.047951 -0.504419 0.291634 -0.211633 -0.162638 -0.367694 -0.357226 -0.255325 0.498462 -0.146829 -0.000283 0.379223 -0.139868 -0.436491 0.288831 0.087177 0.061402 0.048288 0.226390 0.117411 -0.032172 0.080953 0.464964 -0.013900 0.399734 -0.117117 -0.137881 0.039600 0.327959 -0.100380 -0.060776 0.630444 -0.524535 -0.099713 0.205545 -0.244517 -0.538240 0.096915 -0.373391 0.122408 -0.187615 -0.073296 -0.038708 0.125024 -0.070854 -0.422513 0.020865 0.291725 0.086674 0.117012 -0.256167 0.229779 0.093565 0.087060 0.030261 -0.024246 0.082954 0.104455 0.133044 0.272098 0.409144 -0.264050 0.117306 0.319021
一下 0.158178 -0.271902 -0.233387 0.544152 0.240210 0.010992 0.160836 -0.090063 0.148883 0.194310 -0.001463 -0.251942 -0.205830 -0.216241 0.032196 -0.062739 -0.355160 -0.240346 0.206162 -0.240556 -0.201920 0.053974 0.209287 0.259216 0.154882 -0.087174 -0.301076 0.042808 0.333853 -0.327636 0.271610 0.049478 -0.230369 0.440764 0.011985 -0.019938 -0.210079 0.104791 -0.261446 -0.087011 0.140133 0.085949 0.703897 0.334357 0.087252 -0.065781 -0.089010 -0.369697 -0.160947 0.022996 -0.119206 -0.118310 -0.304274 0.119641 0.217690 0.204251 -0.071015 0.127827 0.273499 -0.299469 0.133860 -0.032092 -0.113038 -0.047364 -0.237465 0.060640 0.162247 -0.035287 -0.024296 0.255738 -0.298310 0.187348 0.022457 0.369142 0.012992 0.236865 0.244757 -0.140046 0.318192 -0.117864 0.199172 0.238541 -0.198824 0.437059 0.113061 -0.202217 -0.086044 -0.099076 -0.151559 -0.291487 0.063070 0.009051 0.025637 0.015716 0.085043 0.332678 0.312502 -0.287580 -0.059995 0.092877 0.119698 0.113526 -0.036702 -0.095223 -0.334585 -0.035159 0.171967 -0.389817 0.226392 -0.006060 0.207264 -0.281413 0.059135 0.083928 0.091498 -0.256929 -0.038814 0.019549 0.016806 -0.165833 0.182634 -0.319533 -0.284635 0.093334 0.012496 0.321059 0.054515 -0.024746 0.055414 -0.013085 -0.147681 0.271275 0.255131 -0.132872 -0.286720 -0.136295 -0.106413 -0.001575 0.062850 -0.296094 -0.430633 -0.085352 -0.121852 0.007913 0.128901 -0.481494 0.270485 -0.068242 0.187473 0.201763 -0.017591 -0.099720 -0.052937 -0.016437 -0.148835 0.303516 0.031974 0.118520 0.233676 -0.362542 0.281522 -0.019894 -0.164161 0.261054 0.069429 0.112923 -0.234463 0.109832 0.054966 -0.131742 -0.025079 0.202974 0.355663 0.241860 -0.316521 -0.065645 -0.407536 -0.231818 -0.115840 0.265996 0.116615 -0.122297 -0.242651 0.107774 -0.216917 -0.246354 -0.533282 0.083234 0.090615 -0.086191 0.173367 0.012510 -0.028243 0.126327 0.258261 0.346284 -0.138701 -0.383206 -0.357673 -0.025045
斑马系统 -0.0011395261 0.002803909 -0.0008470196 -0.001786712 -0.0005659284 -0.0015725802 0.002907528 -0.0021486427 0.0010583493 0.0023424274 -0.0023951575 0.00074826786 -0.0026551902 -0.001079674 -0.0012706986 0.0007034688 0.002882677 -0.0008380504 0.00023273958 -0.00046978268 0.0020796037 -0.00072814623 0.0006253776 -0.0016588196 0.0006004451 -0.002308879 0.0002153236 -0.0020446633 0.00028663155 0.0012698192 0.0019823832 -0.0022025655 -0.0027080062 -0.0008831696 0.001908746 0.0027857781 0.00070445193 0.001365665 -0.0015954198 -0.0019969072 -0.00012350628 0.0031507332 -0.001641065 -0.0017450906 0.0007843757 -0.001821613 -0.0016688268 0.0015948814 0.00092914223 0.00069740246 -0.0007942322 -0.0019604021 -0.0018261916 -0.0015346542 0.002564905 -0.0021906497 -0.00062499073 0.0026574081 0.0004327751 -0.0023245607 -0.0004702648 -0.00024443134 -9.7186574e-05 -9.184944e-05 -0.0018800052 -0.0009857743 -0.0016727068 -0.0023163937 0.0006683447 -0.0020836925 -0.0012780706 -0.0009997862 0.0020125813 -0.0013940355 0.0016025822 0.0010515376 0.0017461508 -0.0008364625 -0.0023975556 0.0020578417 -0.000608619 0.0014026182 -0.0023368786 0.0019251828 -0.0006482125 -1.964351e-05 0.0017922418 0.001895844 0.0015683819 -0.00022787636 0.0019073233 -0.00063626503 0.0014145443 0.0011855016 -0.0016984204 0.0009239195 -0.00028716287 0.0017893665 0.0020865956 0.0016968313 0.0007189959 0.00153594 0.0013917504 0.0020464098 0.0020081324 0.0013038621 -0.002337346 -0.0026843683 0.0015068583 0.0013946547 -3.742285e-05 0.00043684273 -0.0018007942 -0.0024969212 -0.0020552422 -0.0017467053 -0.002163089 -0.0017127703 -0.0018856426 0.0023465287 -0.0022871655 -0.0006151518 -0.00083685515 0.0018322627 0.0009274218 -0.00011799902 0.00023779606 -0.00033653717 -0.00015547666 0.0017934502 -0.0008797044 -0.00059880427 0.0013133062 0.00048523978 0.001663617 -0.0012841347 0.0028945934 0.0023890971 -0.00017246365 -0.00030300827 -0.0004798598 -0.0030390015 0.0002774116 -0.0005021876 -0.00089811796 0.0031918068 0.0012423047 0.0010178968 0.0024383944 0.0004932096 0.0018159874 0.0017682343 0.001888505 0.0013755768 -0.0011781622 0.0012202468 -0.00082965335 -0.0020014802 -0.0027154705 -0.0019072184 0.0019499151 0.0010793174 0.0012332667 -0.0018342623 0.0022378918 0.001671426 0.00094010495 0.0011285288 -0.002068569 -0.0032129467 0.0013667857 -0.00048783398 -9.9452984e-05 -0.0035003354 -0.001108599 -3.344586e-06 0.0020611226 -0.00080445677 0.0014219187 0.0018573198 0.0013275408 0.0018441817 -0.0014996196 0.0020106812 -6.548611e-05 -0.0020823793 -0.0002740183 0.0014788398 -0.000109297725 -0.0021019946 0.001570144 -0.0015302744 0.0007597135 0.0016140445 -0.0027828026 -0.0014044112 0.001386226 0.0014438385 0.0011416295 0.00047760952
多少 0.046052 -0.321239 -0.258945 0.054390 0.134139 -0.070225 0.147648 0.093743 0.095063 0.134304 -0.035229 -0.025359 0.238349 0.067543 0.387855 -0.082130 0.061393 -0.214138 0.187526 -0.210251 -0.018255 0.280954 -0.110493 0.103403 -0.022023 0.135852 -0.414822 0.072940 0.357100 -0.277214 0.062498 -0.379587 -0.192570 0.191756 -0.259187 0.000036 0.027666 0.127764 -0.273220 -0.297370 -0.229169 0.089312 0.281794 0.205140 -0.039566 0.287581 -0.183912 -0.634326 0.043375 -0.084698 -0.130149 0.012053 -0.411194 0.220841 0.021955 0.343489 0.253264 0.120852 0.121387 0.185426 0.047811 0.219144 0.170777 -0.192183 0.064693 -0.129113 0.022908 0.032767 -0.094167 -0.076620 -0.730085 0.103663 0.173535 0.286002 -0.066799 0.443291 0.404809 0.253945 0.132779 -0.355191 0.200939 0.131975 -0.244876 0.066272 0.499158 -0.059642 -0.104876 0.049748 -0.132092 -0.344025 0.109011 0.233379 -0.217103 -0.072108 -0.044339 -0.022213 0.051636 -0.074280 0.108832 -0.323839 0.138224 0.236508 -0.001665 -0.146593 -0.523427 0.183013 -0.184528 -0.110255 -0.236967 0.058476 0.024538 -0.158156 -0.123985 0.008355 0.044327 -0.245940 -0.241307 -0.204388 -0.273507 -0.157291 0.155759 -0.521340 -0.228004 0.243550 0.257307 0.294262 -0.243485 0.175888 -0.170193 0.273523 0.104232 0.019969 0.279759 -0.116389 -0.406899 -0.305587 -0.544551 -0.072463 -0.169820 -0.188708 -0.335296 -0.176391 -0.376136 0.154774 0.198985 -0.079022 -0.146692 0.077694 0.032830 0.379273 0.116956 -0.104811 -0.065854 0.070311 -0.348170 -0.020732 0.174998 0.412592 -0.057706 -0.188183 0.282120 -0.205437 -0.034215 0.234079 0.060276 0.367416 -0.072970 0.363954 0.207301 0.083240 -0.362566 0.045447 -0.222550 -0.031205 0.136824 0.247012 -0.155195 0.238131 0.090990 0.100337 0.058503 -0.157453 -0.175875 -0.190846 -0.108728 0.005197 -0.472426 0.095839 0.069391 0.034404 -0.048485 0.054452 -0.131948 -0.065403 -0.048730 0.387006 0.280575 -0.210893 -0.015669 0.242314
问题 0.197934 -0.145929 -0.439069 0.291199 0.160954 -0.232494 -0.187403 0.275496 0.051275 0.129385 -0.180348 -0.196681 0.110321 -0.162424 -0.011780 0.163703 -0.071203 -0.059978 0.083160 -0.177760 0.114928 0.150279 -0.010471 0.368156 0.187423 -0.308487 -0.135858 0.087966 0.374582 0.059757 0.082257 -0.164468 -0.095718 0.055301 0.349961 -0.198023 -0.014979 0.456395 -0.386007 -0.008125 -0.041237 -0.164872 0.587633 0.357709 -0.455146 0.163391 -0.418418 -0.210253 0.019932 0.169596 0.013400 -0.158583 -0.303808 0.391307 -0.035674 0.112394 0.237003 0.330170 0.422796 -0.123704 0.244126 0.272110 0.070918 -0.164677 -0.134944 -0.168584 -0.047697 -0.147737 0.095738 -0.370301 -0.313989 -0.008982 0.131005 0.057063 0.368279 0.010805 0.006620 0.109940 0.078831 -0.148157 -0.018975 0.094885 -0.051435 0.136883 0.279839 -0.315286 -0.060609 0.131950 -0.007634 -0.274185 0.403160 0.147827 -0.009350 -0.377873 0.128251 0.176676 0.114237 -0.028257 -0.264618 0.128019 -0.041285 0.220375 -0.158618 0.308226 -0.369336 -0.035111 -0.234279 -0.703100 0.013877 -0.002517 -0.020134 -0.185628 0.170515 -0.304713 0.159593 -0.021964 -0.114012 0.058544 -0.104427 -0.287697 0.464820 -0.427692 0.031373 0.214210 -0.034945 -0.044048 0.090044 0.096931 -0.178563 -0.011521 -0.273543 0.233870 0.298515 -0.425660 -0.295172 -0.197349 -0.081587 -0.121784 -0.149025 0.026852 -0.575356 -0.160735 -0.421622 -0.452519 -0.020397 -0.002979 0.208618 0.161743 -0.028037 -0.223029 0.122522 -0.064069 -0.002273 0.137075 -0.179170 -0.212620 0.198519 0.088614 -0.062537 0.019145 0.384818 -0.055749 0.104477 0.236471 0.328032 -0.204751 -0.379056 0.421575 0.116123 0.117156 -0.029044 0.083302 0.184268 0.472034 0.255145 -0.229146 -0.024888 0.009623 0.084076 0.373079 0.117699 -0.177895 0.040872 0.061216 0.153903 -0.121361 -0.010226 0.309322 0.080318 0.231565 0.489749 0.037507 0.298855 -0.098456 0.070491 -0.039044 0.000128 -0.235041 -0.071172 0.181419
怎么办 0.423699 -0.253426 -0.240156 -0.051810 0.125587 -0.054268 0.154733 -0.050286 0.067201 -0.034091 -0.283059 -0.071146 0.306430 -0.161138 0.162220 -0.087751 -0.001538 -0.535633 0.079340 -0.139514 0.023173 0.099564 0.095635 0.098983 0.073907 -0.212784 -0.091928 -0.125069 0.224993 0.120473 0.173618 0.147659 0.043045 0.631651 0.163368 -0.019963 0.092264 0.310823 -0.216749 0.005819 0.043641 0.061839 0.302708 -0.023154 -0.440827 0.020139 -0.352109 -0.498040 0.242721 0.066584 -0.142511 0.184999 -0.412874 0.253082 -0.066192 0.314082 0.129056 0.244080 0.219796 -0.130843 0.131637 -0.144693 -0.112121 -0.171132 -0.166234 0.099342 0.222420 0.197319 0.224656 -0.141579 -0.496440 0.163793 0.165582 0.033695 0.123477 -0.095189 -0.185185 0.111979 -0.050445 -0.210405 0.169839 0.158111 -0.165231 0.262601 0.449667 -0.134213 0.242485 -0.131995 0.092496 -0.586913 0.115943 0.226593 -0.019616 -0.209946 0.060604 0.248282 0.179920 0.073160 0.046701 0.069610 -0.198527 0.107555 0.066196 0.347038 -0.243970 -0.059625 -0.040089 -0.713695 0.036834 0.171557 0.255492 0.009734 -0.202915 -0.215525 0.260489 0.098921 -0.004011 -0.278245 -0.052477 -0.020735 0.476839 -0.374428 -0.003273 0.160845 0.009275 0.136991 -0.072392 0.032872 -0.278058 -0.150087 0.057456 0.210615 -0.131590 -0.355628 -0.102726 -0.198301 -0.211012 -0.025393 -0.421784 -0.050961 -0.199237 -0.590071 -0.040174 -0.086210 -0.046120 -0.303923 -0.121509 -0.046681 -0.019606 -0.115396 -0.278892 0.023761 0.016853 -0.299405 0.113702 -0.029126 0.229925 -0.278609 0.082637 -0.280662 0.512078 -0.245834 0.172166 0.341695 -0.068342 -0.069182 0.012537 0.591844 0.488897 -0.204011 -0.079802 -0.117790 0.247190 0.149448 0.304855 -0.145110 -0.037219 0.188121 -0.033509 0.256990 0.091170 -0.111016 0.077621 0.079652 0.071135 -0.088024 -0.477499 0.180125 0.380337 -0.146680 0.125851 -0.104084 -0.093417 -0.175074 -0.061536 0.396538 -0.091596 -0.453367 -0.233713 0.269247
使用 -0.003057 -0.080225 0.076137 0.370467 0.176860 0.115647 -0.122538 0.433249 0.255043 0.430817 -0.069067 -0.018685 -0.179559 0.089199 -0.022836 0.184080 0.167926 -0.291207 -0.128491 0.036851 -0.390855 0.192526 0.171800 0.182401 -0.094255 0.073628 -0.500543 0.023524 0.326366 0.131799 0.356844 0.129236 -0.002647 -0.218554 -0.185481 -0.529685 0.319394 0.168256 -0.449667 0.053148 0.136379 0.285348 0.706382 0.195437 -0.028636 0.066148 -0.408230 -0.406763 0.076128 -0.002230 -0.461187 -0.453506 -0.082797 -0.010985 0.179730 0.130495 0.200703 0.275009 -0.027659 0.002051 0.069614 0.226560 -0.186876 -0.051917 -0.022185 0.057609 -0.460101 0.086383 -0.065634 0.096777 0.118877 0.021530 0.515514 0.295715 -0.204986 -0.068383 0.021839 0.128842 0.182058 -0.146245 0.026353 0.035937 -0.077771 0.178380 0.249372 -0.332630 -0.416212 0.052125 -0.138170 -0.305280 0.360439 -0.105565 0.023316 -0.286544 0.190765 0.193023 0.031321 -0.189991 -0.031142 0.038917 -0.371230 0.130189 -0.133865 0.063717 -0.248144 0.151342 0.039353 0.013315 0.275044 -0.071994 -0.020357 -0.249337 0.198474 -0.088141 0.048144 -0.174313 0.086734 -0.176349 -0.008938 -0.440441 0.409351 -0.181268 0.114153 0.024065 0.220881 -0.045855 -0.163152 0.200885 -0.640509 0.132803 0.107704 -0.024846 -0.224706 -0.531546 -0.292870 0.037154 -0.014399 -0.167199 -0.145665 0.052134 -0.079329 -0.409895 -0.353888 -0.415241 -0.135309 -0.023318 -0.101819 -0.044541 -0.214507 -0.050557 -0.128088 0.034324 0.137945 -0.155320 -0.011368 0.143959 0.023622 -0.021742 0.011614 -0.095125 0.689416 -0.208028 -0.095241 0.361299 0.109144 -0.063723 -0.363148 0.028876 -0.145200 -0.042057 0.295084 0.355434 0.134084 0.249315 -0.160740 0.077950 -0.024715 0.487824 -0.039987 0.130420 0.148086 -0.011098 -0.178568 0.001731 0.268130 -0.113245 0.099226 0.204534 0.072964 -0.119135 0.291995 0.228558 0.455032 -0.100419 0.238993 -0.247200 0.269200 -0.206998 -0.474800 0.027328
不能 0.340717 -0.079062 -0.448102 0.368102 0.180743 -0.216375 -0.101795 -0.045870 0.022416 0.097551 0.102496 -0.179388 0.134593 -0.082203 -0.304664 -0.255547 0.240403 -0.128228 -0.113104 -0.221004 0.002535 0.004489 0.190054 0.051982 0.250649 0.048996 0.104492 0.133259 0.307501 -0.076446 -0.173117 -0.005723 -0.107746 0.100787 -0.014059 -0.130958 -0.072374 0.413280 -0.316413 -0.098732 0.024476 -0.003346 0.544940 -0.073954 -0.124023 0.027586 -0.257718 -0.518784 0.289765 0.089004 -0.141157 0.188414 -0.193766 0.404803 -0.001370 -0.085545 0.192404 -0.100773 0.064817 -0.074587 0.073673 0.030455 0.245948 0.015437 0.036871 0.158303 -0.123743 -0.054968 -0.073012 0.043630 -0.176004 0.221660 0.107856 0.067815 0.133530 -0.047618 0.232654 0.097196 -0.014770 0.206742 -0.314081 0.288392 0.037986 0.339361 0.516463 -0.121152 -0.193158 -0.082966 -0.184718 -0.308343 0.244120 -0.122154 0.279729 -0.083330 0.125276 -0.100380 0.222310 -0.078004 -0.078007 -0.169484 -0.116998 0.201084 -0.135713 -0.089876 -0.366775 0.021415 0.040261 -0.427014 -0.134645 -0.022588 -0.023044 -0.158621 0.157676 -0.246175 0.040500 -0.155119 -0.259021 -0.513790 0.003676 -0.118080 0.315515 -0.348854 -0.153775 0.128196 0.010926 -0.110573 -0.112725 -0.071342 -0.398604 -0.088040 -0.220408 0.335283 -0.106099 -0.053551 -0.301549 -0.052081 -0.212364 0.154084 -0.222071 -0.070249 -0.198990 -0.394107 -0.171824 0.037465 0.063521 -0.340561 0.103035 -0.034912 0.102381 0.023237 0.012216 0.387274 -0.006090 0.163807 -0.003219 -0.138377 0.135227 0.024303 0.090375 -0.585684 0.489580 -0.077529 0.006927 -0.040432 0.376860 -0.113760 -0.004201 0.198679 0.142207 -0.008825 0.081682 0.043908 -0.212857 0.247758 0.000643 -0.057099 0.005905 0.169341 0.006840 0.118616 0.068015 -0.022764 -0.251715 -0.050072 -0.033375 -0.139367 -0.324200 0.371503 -0.160215 -0.068373 0.067384 0.324164 0.236471 -0.360425 0.075299 0.296285 0.168012 -0.414746 -0.317708 -0.014122
座椅 0.023774 -0.149838 -0.181238 0.342487 -0.008529 -0.571123 0.199875 0.146044 0.422142 0.318317 -0.092455 -0.181761 0.389687 0.071011 0.040091 -0.186044 -0.187005 -0.335061 0.234098 -0.145100 -0.186445 -0.008081 0.024018 0.137717 -0.279041 0.170429 0.133132 0.197933 0.448105 0.098665 0.104473 -0.254057 0.233025 0.091739 -0.339596 0.197141 0.024387 0.298592 -0.106626 0.278370 0.511666 -0.007076 0.139176 -0.086609 0.166007 -0.465732 -0.140786 -0.899934 -0.124303 -0.061960 -0.295023 -0.000322 -0.518107 0.019865 -0.668938 -0.194200 -0.094820 0.199383 0.154418 0.304162 0.171388 0.088301 0.207634 0.314950 -0.264875 0.324209 -0.438014 0.301560 0.103972 0.236163 0.218547 -0.207249 0.441489 0.270060 0.152786 0.313285 -0.069802 -0.211382 0.114283 -0.076231 -0.382423 -0.181970 -0.227889 0.277781 -0.280525 -0.703367 -0.422796 0.383859 0.165846 -0.349091 0.637658 -0.004937 0.220231 -0.521267 -0.095029 -0.384255 0.262186 -0.201926 0.620691 0.074522 -0.163650 -0.027167 0.071379 0.248712 -0.130095 0.192359 0.194176 -0.313049 0.301143 -0.103772 0.004848 -0.316122 0.203878 -0.466014 -0.134324 0.363394 0.046825 -0.066090 0.303860 -0.237680 0.210318 0.067531 0.110621 0.064736 0.393373 0.115456 0.453698 0.308646 0.088892 0.428314 0.383143 0.213850 0.249379 -0.410244 0.211395 -0.100582 -0.210001 -0.380725 -0.043380 -0.479365 -0.006779 -0.361626 -0.508797 -0.779432 -0.110817 -0.320320 0.698806 0.593687 0.037841 0.273429 -0.229605 0.125048 0.195360 -0.465578 0.050319 0.031575 -0.403162 -0.196045 0.399478 -0.210039 0.427380 -0.283915 -0.120418 0.359830 0.074706 -0.081069 -0.425472 0.172831 0.050457 0.095959 0.090017 -0.132992 -0.121813 0.097605 0.095427 0.046424 0.029904 0.089642 -0.169211 -0.315780 0.113751 -0.407288 -0.425126 0.223109 0.246017 -0.133103 0.108700 0.463340 0.103093 -0.040760 0.349313 0.051986 -0.352657 0.355148 -0.237915 0.133805 0.118050 -0.395600 -0.130345 0.046467
模式 0.103863 -0.125150 -0.158936 0.129200 0.113578 0.252715 0.115363 0.289999 0.034952 0.348239 0.210291 0.025118 0.406068 -0.062356 0.017528 0.238547 0.181652 -0.262371 -0.124268 0.046865 -0.240229 0.119415 0.099596 0.167381 0.276492 -0.000404 -0.124848 0.189874 0.151757 0.190294 0.258000 0.042822 0.182812 0.188157 0.025673 -0.105213 0.141605 0.370639 -0.682469 0.221082 0.068002 -0.242302 0.509330 0.069812 0.131270 0.043391 -0.435499 -0.584348 -0.108743 -0.213112 -0.245325 -0.063906 -0.115578 0.119230 0.067544 0.409738 0.085191 -0.034703 0.075292 -0.256834 0.455190 0.349828 0.031547 -0.308740 -0.051903 -0.174540 -0.132545 -0.025899 0.328470 -0.353073 0.229049 0.225004 0.556757 -0.207980 -0.053582 0.055670 0.305353 0.232019 0.234933 -0.080551 0.414861 0.399273 -0.112392 0.206393 0.075895 0.157734 -0.248324 -0.178262 -0.190065 -0.074383 0.383749 -0.311240 -0.019013 -0.318578 -0.225994 -0.335413 0.037380 -0.087755 -0.304870 0.025998 -0.098341 -0.110314 0.092756 0.226050 -0.443960 0.254343 0.425797 -0.416576 -0.191388 0.202039 -0.221120 -0.361025 0.068705 -0.120715 -0.103988 -0.284643 -0.288750 -0.010892 -0.048713 -0.075633 0.015684 -0.435850 -0.288458 -0.002791 0.054716 0.310343 -0.320873 -0.024094 -0.170625 0.067817 0.104868 -0.192638 0.136640 -0.401887 -0.235150 -0.344685 0.013169 -0.191419 0.187830 0.090278 -0.389830 -0.416665 -0.134216 -0.351872 0.030278 -0.350720 0.248064 0.268649 0.135596 -0.145037 -0.428181 0.199116 -0.196340 -0.457653 0.079576 -0.029724 0.305562 0.192434 0.114380 0.016487 0.483512 -0.151626 0.144108 0.235708 0.246903 0.021192 -0.294926 -0.103952 0.237054 0.066631 0.025219 -0.059411 0.303541 0.383307 -0.195616 -0.087170 -0.040693 0.146355 -0.567318 0.277656 0.049054 -0.253773 0.181530 0.026410 0.210645 0.010616 -0.459005 0.089390 -0.081588 0.243727 0.100050 0.102381 0.503515 0.045247 0.202262 -0.285413 -0.021762 0.023142 -0.385260 -0.054650
销售 0.391074 -0.426535 -0.274626 0.249224 0.072126 0.031681 0.017845 0.181755 -0.059313 0.299065 -0.055508 -0.154600 0.019410 -0.249460 -0.033277 0.029178 0.464112 -0.737684 0.156932 0.115459 -0.301030 -0.114765 -0.045087 0.086229 0.357076 0.248267 -0.187821 0.221029 0.112505 0.264509 0.239400 0.102981 0.161865 0.030079 -0.020755 0.039909 0.501095 -0.049244 -0.198407 0.425514 -0.014927 0.185593 -0.085268 0.682892 0.073041 -0.080244 -0.105814 -0.092423 0.083413 0.024305 -0.486396 -0.170841 -0.005346 0.224258 -0.037217 -0.044887 0.125721 -0.221657 -0.122711 -0.092047 0.300402 0.222927 0.310009 -0.333378 -0.252588 -0.282883 -0.263352 -0.213656 0.282460 -0.006160 -0.254863 0.143617 0.466421 0.346933 -0.015387 0.142468 -0.071857 0.389486 -0.008228 -0.134937 0.094581 0.526263 -0.061159 0.476937 0.226028 -0.106126 -0.193029 -0.088110 -0.254301 -0.595019 0.470816 0.202415 -0.367021 0.036111 0.568770 0.028665 0.049197 -0.144700 -0.108980 0.015879 -0.471352 0.037053 0.177001 -0.274000 -0.256558 0.068314 -0.062998 -0.206979 -0.033284 -0.242077 -0.291301 -0.268582 0.195364 -0.267980 -0.118802 -0.329436 0.369298 -0.015882 -0.022826 -0.481504 -0.079729 -0.313839 -0.277505 0.098773 0.310007 -0.111494 -0.509625 -0.092619 -0.021378 0.095908 -0.114362 0.002213 0.159191 -0.112267 -0.029483 0.004747 -0.033959 0.182679 0.040392 -0.034999 -0.090517 -0.298478 -0.312225 -0.494240 -0.022455 0.048919 0.201348 0.068322 0.072923 -0.258742 0.053773 -0.109070 -0.079740 -0.038992 -0.137354 0.169510 0.269368 0.268036 0.349257 -0.024767 0.401597 0.231110 -0.184572 0.018538 0.350430 -0.463872 -0.243611 -0.038068 -0.069237 -0.162771 0.597837 -0.462458 -0.283877 0.382755 -0.303190 0.230659 -0.120948 0.187737 0.227836 0.235117 -0.069190 0.278507 -0.174881 0.062780 0.022772 0.014225 -0.012693 0.450085 0.271548 0.164419 -0.354832 -0.047344 0.124043 -0.259764 0.152950 0.186102 0.145006 -0.034280 -0.115869 0.246246
故障 0.554422 0.173553 0.070786 0.238380 0.307001 -0.467598 -0.157056 0.029281 -0.070990 0.326453 -0.445956 0.039735 -0.132420 0.178508 0.255897 0.249373 0.225567 -0.543543 0.219234 -0.133696 -0.109354 -0.044202 0.344878 0.062876 0.336806 -0.346200 -0.183796 0.164151 0.307569 0.442762 0.165146 0.093880 -0.124432 0.254022 0.128202 0.410832 0.059511 0.426742 -0.302197 0.395329 0.373568 0.109602 0.560027 0.112947 0.015021 -0.009194 -0.370842 -0.225179 0.656340 0.254834 -0.018781 -0.164937 -0.557124 -0.088019 -0.383456 0.391085 -0.041093 0.331338 0.355727 -0.138852 -0.118646 0.576610 -0.105732 -0.099320 -0.366757 0.062831 -0.261632 -0.083220 0.236942 -0.058616 -0.349142 0.238155 0.287892 0.042816 0.215051 -0.099312 0.193199 -0.126001 0.157708 -0.288500 -0.235907 0.004877 0.430298 0.283077 -0.066370 -0.257320 0.090326 -0.139927 -0.176627 -0.231156 0.350725 -0.085781 -0.271705 -0.179039 0.299046 0.595149 -0.070830 0.032460 -0.319418 0.073564 -0.103934 -0.100642 -0.219866 0.384110 -0.097651 -0.144358 -0.089565 -0.395758 0.087534 0.129519 0.208932 -0.268021 0.389698 -0.501025 -0.143837 -0.118918 -0.067311 0.036669 -0.131554 -0.453016 0.408569 -0.389312 0.449480 0.053701 0.520970 0.348930 -0.455310 0.328719 -0.143289 0.127459 -0.229976 -0.019117 -0.010003 -0.531550 -0.323964 0.068507 -0.329007 -0.199077 0.192635 -0.265609 0.009553 -0.545096 -0.575458 -0.460151 0.437968 0.330232 -0.321687 0.209990 0.157120 -0.032995 0.011570 0.274012 -0.033301 0.123600 -0.153019 -0.292488 -0.175999 -0.273348 0.251558 -0.010955 0.568816 0.143567 -0.145968 -0.143051 -0.169346 -0.223720 -0.698481 0.315068 0.261892 -0.141217 0.441429 0.287894 -0.062813 0.221039 0.106679 0.074994 0.287033 -0.209932 0.120162 0.204468 0.246975 -0.323436 -0.047143 0.263579 -0.188901 0.103538 -0.333308 0.259727 -0.116827 -0.068470 0.141395 -0.162107 0.287966 0.287215 -0.073941 0.234311 0.308722 -0.256858 -0.058756 -0.262051
发动机 0.275173 0.239445 -0.305072 0.316124 0.344669 -0.483311 0.387961 0.028640 0.247591 -0.070676 -0.128355 0.221729 -0.245463 0.141956 0.016739 0.014956 0.216736 -0.597642 -0.134695 -0.034530 0.131460 -0.031019 0.174627 0.338021 0.075518 0.078295 0.217770 0.350077 0.183298 0.132954 -0.266459 -0.129917 -0.124369 0.143061 0.125341 0.232799 0.186328 0.431035 -0.677379 0.200575 0.166167 -0.017132 0.515396 0.017384 0.445643 -0.548598 0.043457 -0.767180 0.224660 -0.164055 -0.559951 -0.217400 -0.621622 -0.407492 -0.775908 -0.216223 -0.072161 0.862454 -0.165625 0.018641 0.521526 0.246977 -0.178112 0.160917 -0.222343 0.131729 -0.460378 0.424501 -0.010482 0.086592 -0.118896 0.491971 0.612484 -0.055380 0.145861 -0.026166 0.037733 -0.283045 0.527030 0.046342 -0.501714 0.088959 0.087896 -0.317046 -0.069465 -0.596762 -0.374716 0.104911 -0.165986 0.099356 0.466371 -0.465051 0.018710 -0.216888 0.448896 0.274002 -0.020584 -0.030443 0.068194 -0.103260 -0.456241 -0.054714 -0.173962 0.038222 -0.131730 -0.068198 -0.043699 -0.435023 -0.169860 0.197906 -0.133942 -0.242245 0.264155 -0.278999 0.090775 -0.109652 0.081052 0.229872 -0.018826 -0.582616 0.091118 -0.096025 -0.117694 0.018890 0.450086 0.381203 0.065182 0.197486 0.119663 0.246304 0.408957 -0.379088 0.259071 -0.160517 0.020678 -0.102526 -0.510538 -0.071868 0.248551 -0.271588 -0.340837 -0.880626 -0.220736 -0.401706 0.679325 0.273732 0.058340 0.365061 -0.036985 0.179076 -0.159386 -0.104433 0.321317 0.223058 -0.255528 0.091359 -0.176682 -0.058995 0.385391 -0.196020 0.650658 0.150845 -0.164878 0.211161 0.386860 0.191406 -0.585537 0.124010 0.138822 -0.134043 0.214625 -0.326146 -0.484086 0.119727 -0.105924 0.511779 0.047193 0.175521 0.095325 -0.105705 0.044886 -0.524360 0.210526 0.279511 -0.109177 -0.149790 -0.364206 0.551620 0.060556 0.568505 0.085617 -0.595045 0.028007 0.237199 0.242374 0.156589 0.450562 0.145247 -0.429877 0.138020
质保 0.375289 -0.430832 -0.380944 0.209971 0.196241 -0.249005 -0.304003 0.112650 -0.100150 0.001635 -0.009014 -0.224162 -0.000010 0.115793 -0.120808 0.052122 0.184121 -0.470554 0.303771 0.021305 0.034455 0.032747 0.109848 -0.098999 0.250749 -0.107724 -0.157894 0.798393 0.387898 0.452394 -0.179919 -0.015877 0.545024 0.632722 0.077527 0.137243 0.205279 0.023501 0.052534 0.334830 0.120798 0.403844 0.287379 0.540781 0.276783 -0.225698 0.178709 -0.558081 -0.212113 -0.068798 0.015690 -0.604346 -0.554250 0.042231 -0.703983 0.435270 -0.068620 0.208017 0.031208 0.517601 0.195490 0.539909 -0.193510 -0.276174 0.009802 -0.249365 -0.299093 -0.055526 0.500197 -0.349007 -0.140424 -0.271076 0.770670 0.403524 0.297698 0.135048 0.167059 0.133720 -0.032651 -0.081879 0.307819 0.137373 -0.026004 0.566224 0.216475 -0.061865 -0.208349 0.030513 0.191748 -0.092518 0.478746 -0.094471 -0.054891 -0.350727 -0.074652 -0.240779 0.050152 -0.207538 -0.066574 -0.103958 0.013287 -0.207027 -0.121438 -0.197940 -0.880911 -0.046166 -0.040868 -0.747266 0.151770 -0.142478 -0.312417 -0.496942 -0.271238 -0.109196 -0.171662 -0.073514 -0.515213 0.038169 -0.205603 -0.522913 0.158764 0.130818 0.169685 -0.304639 0.600163 -0.456185 0.239460 0.268963 0.351821 -0.040095 0.125180 -0.404906 -0.141837 -0.123431 -0.122477 0.066014 -0.074534 0.074652 0.276232 0.216247 -0.137772 -0.502667 -0.356349 -0.872183 0.316449 0.067195 -0.461286 0.058306 0.446226 0.081132 0.098914 0.524430 0.198065 0.043901 -0.464799 0.413580 0.416835 -0.062035 0.128096 0.028835 0.402500 0.198663 -0.351742 -0.062028 0.034072 -0.119831 -0.568907 0.446406 0.427125 -0.580687 0.427329 0.009111 -0.550106 -0.087596 -0.341522 0.328199 0.054276 0.303908 0.292584 -0.020573 -0.205756 -0.290834 -0.010397 0.058598 -0.365966 0.180065 -0.265162 0.364652 0.131618 0.029865 -0.146138 -0.611353 0.377336 0.059150 -0.174773 0.447200 0.344928 -0.236113 -0.082666 0.265013
d90 -0.077693 -0.718851 -0.693339 0.197817 0.446959 0.033498 0.310281 -0.096856 0.058496 0.108996 -0.281501 -0.152108 -0.005625 0.069208 -0.194658 0.609555 -0.036737 -0.238322 0.041965 -0.384055 0.517602 0.049003 0.157305 0.348930 -0.048743 -0.031659 -0.074798 0.483782 -0.086027 0.279807 -0.202862 -0.234825 0.460522 0.333502 -0.064481 -0.017671 0.164082 0.367839 -0.262092 0.506002 0.104500 -0.295059 0.237228 0.303965 0.292699 -0.621824 0.201789 -0.125572 -0.444892 0.208333 -0.073620 -0.364956 -0.145197 -0.118137 0.095509 0.314878 -0.108432 -0.075536 0.040662 0.392554 0.489613 0.452386 0.098539 0.369945 -0.126970 -0.506729 -0.313629 0.584551 -0.092884 0.211450 0.070923 -0.273008 0.872542 0.244700 -0.271121 0.098107 -0.218088 -0.133453 0.456573 -0.320904 -0.040112 -0.245628 -0.483198 -0.093855 0.004495 -0.105613 -0.505785 0.211580 -0.321894 -0.411970 -0.022273 0.496422 0.027639 0.244587 -0.021671 -0.184505 -0.075472 0.133888 0.255587 -0.362795 -0.456402 0.064585 -0.344784 0.651479 -0.218192 -0.097007 -0.079421 -0.701123 -0.042980 -0.005315 0.200209 0.308537 0.050322 0.120192 -0.157275 0.203336 0.084179 0.175097 0.185837 -0.282284 -0.035527 -0.315072 0.040946 0.094542 0.675261 0.202339 0.151651 0.180553 -0.202328 0.310515 0.232174 -0.591360 -0.412850 0.088935 0.406836 -0.034686 0.056255 -0.279247 0.397219 -0.008397 -0.636491 -0.354779 0.053115 -0.529066 0.863610 0.000792 -0.043789 0.044166 -0.020033 0.354231 -0.040767 0.490904 0.106824 -0.121405 -0.053774 -0.117243 0.107876 0.363977 0.084166 0.041476 0.473040 0.273028 -0.263028 -0.073430 -0.358587 0.298490 -0.628815 0.333350 0.348726 -0.346087 0.329054 -0.432728 -0.416914 0.160744 -0.329476 0.381134 0.272272 0.198671 -0.144543 -0.038558 0.119216 -0.597621 -0.121503 0.550774 0.053310 -0.132382 -0.642431 1.059704 -0.470065 0.552028 0.011127 -0.260606 -0.383401 -0.156514 -0.172124 0.148616 0.269170 -0.407672 0.194040 -0.227025
时 0.364518 -0.023635 0.070822 0.156749 0.180235 -0.040153 -0.091839 0.075453 0.302552 0.042391 -0.171265 0.074104 -0.142889 0.122374 0.234934 -0.079312 -0.002988 -0.240524 0.023306 -0.268190 -0.008504 0.017275 -0.151237 0.262389 -0.047115 0.050022 -0.271816 -0.068296 -0.074771 -0.099419 -0.099788 0.029714 -0.127223 -0.008548 -0.101829 -0.155650 0.140409 0.392359 -0.399682 0.159443 -0.235005 -0.043391 0.931784 0.163472 -0.038559 0.201293 -0.237603 -0.591806 0.106566 0.082498 -0.287545 0.141505 -0.272515 0.108932 0.173546 0.077598 0.069345 0.192053 -0.025911 -0.098636 -0.169193 -0.095014 0.358325 -0.089883 -0.097652 -0.023904 -0.099827 -0.120643 -0.233736 -0.065950 -0.268140 -0.020055 0.049613 0.325776 -0.012497 -0.154329 0.337712 0.111330 0.271348 -0.305193 0.121845 0.264365 0.102065 0.118841 0.317802 -0.391829 -0.208499 -0.071780 -0.289787 -0.225515 0.118279 -0.012044 0.297581 -0.121439 -0.209947 0.006848 0.280457 0.084347 -0.015934 -0.060255 -0.119953 0.140551 -0.043567 0.247354 -0.197028 0.152025 0.176621 -0.220478 0.143784 0.174699 0.009157 0.074232 0.006116 -0.306501 0.268178 -0.142830 -0.290540 -0.043635 -0.140811 -0.000545 -0.032147 -0.445816 0.222399 0.217256 0.012298 0.051832 -0.372375 -0.188583 -0.068358 0.149535 -0.379146 -0.035466 0.316282 -0.108478 -0.421524 -0.307559 -0.147681 0.010656 0.063319 -0.212217 -0.010691 -0.503606 -0.269033 -0.159498 0.124907 -0.220596 0.276197 0.069004 -0.077062 0.005933 -0.182327 0.081887 0.160991 -0.039534 -0.047194 0.236985 0.130948 -0.073370 0.082097 -0.179147 0.610725 -0.020733 0.044322 0.167321 0.082820 -0.078162 -0.167474 0.372927 -0.017595 0.219705 0.240063 0.121796 -0.018019 0.138424 -0.094852 -0.203241 0.252922 0.000186 0.092031 0.074054 -0.022979 0.210623 -0.054290 0.074326 -0.082846 -0.235654 -0.021321 0.373180 0.006799 0.062945 0.240220 0.183890 0.131318 -0.078890 0.119641 0.039050 -0.071451 -0.611368 -0.194353 -0.112012
行驶 -0.064913 -0.248539 -0.002876 0.329644 -0.021109 -0.135532 0.006134 0.368802 0.353001 0.207109 -0.080626 0.123933 0.318135 0.153855 0.238104 -0.279227 -0.177791 -0.541553 0.256114 0.203747 -0.475908 -0.103509 -0.340518 0.100369 0.108026 0.080398 -0.317851 -0.115462 -0.100353 0.483137 -0.315268 0.040443 0.307388 -0.049857 -0.243575 0.390991 0.127789 0.641176 -0.124640 0.064525 0.547742 -0.234039 0.859841 0.083134 -0.059327 -0.267704 -0.017214 -0.532950 0.287508 0.317579 -0.320554 -0.100762 -0.819386 -0.249690 -0.474766 0.407972 -0.003560 0.109938 0.086273 -0.177949 -0.211303 0.186726 -0.103908 0.144271 -0.390324 0.263274 0.039533 0.047393 0.162557 0.338744 0.380525 -0.086167 0.219542 0.110085 -0.067260 -0.108073 0.314711 -0.268700 0.065787 -0.124797 -0.262953 -0.228687 0.316574 0.285468 0.168229 -0.674788 -0.184166 -0.422056 -0.267336 -0.316968 0.369150 -0.110370 0.260440 -0.325312 0.263525 0.405797 0.020345 -0.162604 0.213654 0.149457 -0.006549 -0.278353 0.087373 0.097924 -0.409031 -0.130721 0.285141 -0.161630 0.002998 0.148363 -0.590849 0.060993 -0.198553 0.031363 0.174727 -0.154697 -0.240702 0.098221 0.004487 -0.585832 -0.005917 -0.185608 0.223026 -0.244195 0.606811 0.378026 -0.154027 0.430312 -0.003608 0.752496 0.023007 -0.593645 0.338082 0.205618 -0.117603 0.207523 -0.350471 -0.373323 0.177835 0.026588 0.325869 -0.629791 -0.382302 -0.295476 0.451120 -0.083501 -0.073061 0.466298 0.154736 -0.267092 -0.549912 0.151655 -0.063143 0.234936 0.143237 0.112948 0.097629 -0.163527 0.808675 -0.459978 0.274389 0.307622 -0.110704 -0.005266 0.362517 -0.163878 -0.408315 0.161682 -0.119444 -0.171754 0.499966 -0.228984 -0.301901 0.014895 -0.168334 0.148794 0.341699 -0.277413 0.148830 0.087988 0.305430 -0.295293 0.106675 -0.074312 -0.079194 0.448835 -0.389436 0.526237 0.034879 0.013336 0.110432 0.163075 0.001973 0.215577 -0.208477 0.159122 0.077490 -0.056191 -0.101989 0.519789
功能 0.126147 -0.236082 -0.349251 -0.038254 -0.033441 -0.140320 -0.072011 0.237394 -0.112015 0.442511 -0.246623 -0.195304 0.264986 0.043021 -0.154147 0.099387 0.266300 -0.219519 -0.112900 0.128445 -0.103998 -0.155605 0.490123 0.198837 0.026097 0.130697 0.031487 0.458694 -0.096406 0.054363 0.232745 -0.149206 -0.302555 0.544039 -0.158016 0.042244 0.115704 0.095960 -0.418612 0.121456 0.214973 0.007608 0.498064 0.089034 0.421324 0.081016 -0.576577 -0.530533 0.119696 0.084894 -0.204532 -0.242021 -0.067080 -0.036145 -0.023312 -0.025733 -0.015320 0.186380 0.284590 -0.021894 0.407516 0.385651 -0.132563 -0.022236 -0.103037 -0.200404 -0.401353 0.078987 0.160834 0.157219 0.013271 -0.136152 0.378010 0.206895 0.140374 0.268630 -0.058036 0.200144 -0.001844 -0.483991 0.072388 0.279934 -0.048705 0.305924 0.047374 -0.229728 -0.290378 0.274398 -0.370769 -0.457005 -0.029294 0.009256 0.077448 0.039025 -0.018655 -0.022437 0.047398 -0.008691 0.057194 0.123167 -0.363969 -0.241578 0.220727 0.264072 -0.442365 0.105655 -0.053153 -0.455672 0.427470 0.082931 0.039168 -0.340547 0.259433 -0.240104 -0.256985 0.110272 -0.074377 -0.285857 -0.179265 -0.121948 0.408114 -0.356110 0.066869 0.161360 -0.004216 0.333425 0.122877 0.090388 -0.277300 -0.104164 0.037303 -0.047045 0.141378 -0.598230 -0.129556 0.304121 0.124689 -0.088949 0.095665 0.056090 -0.258058 -0.191617 -0.708044 -0.324058 -0.005777 -0.125436 0.040116 -0.059623 -0.134834 -0.120366 -0.118472 0.250767 0.066598 -0.440788 0.165880 0.257624 0.240020 0.338210 0.122040 -0.344202 0.799969 -0.103734 0.059738 -0.113878 0.353167 0.054285 -0.138092 0.049249 -0.332225 0.300958 0.232384 0.211397 0.242750 0.279960 0.102654 0.059600 -0.136805 0.242992 -0.197766 0.227452 -0.004775 -0.342549 0.177956 0.001659 0.116825 -0.165191 -0.176488 -0.002374 -0.428788 0.104072 0.468403 0.356381 0.460833 0.042301 -0.230507 0.103357 0.643586 -0.028018 -0.561889 0.116297
时候 0.440721 -0.244060 -0.013511 0.095544 0.268533 -0.094113 -0.080033 -0.037999 0.325980 0.139268 -0.219255 0.143939 -0.181709 0.051079 0.355453 -0.227225 -0.310505 -0.318677 0.025642 -0.348843 0.086803 0.096052 -0.019836 0.269813 0.163960 -0.074411 -0.218781 0.150234 0.125784 -0.086998 0.058525 -0.025552 -0.093081 0.181264 -0.095458 -0.113507 0.034736 0.257753 -0.347339 0.104111 -0.137494 -0.113782 0.715281 0.170368 -0.335081 0.095626 -0.167313 -0.645862 0.043976 -0.010546 -0.259750 0.023435 -0.255144 0.111421 0.314997 0.126774 -0.096574 0.005637 0.185303 -0.148939 -0.029392 -0.126039 0.181178 -0.155012 -0.092125 -0.092108 -0.150850 0.069032 -0.117387 -0.354799 -0.421574 -0.001564 0.126732 0.299321 0.048155 0.232262 0.291855 0.025605 0.259405 -0.135299 0.223337 0.207678 -0.097447 0.066840 0.222277 -0.350152 -0.324730 0.088859 -0.074074 -0.139749 0.266136 0.054392 0.265291 0.098258 -0.090979 0.055142 0.257731 0.078215 -0.227324 -0.053569 -0.195893 0.160440 -0.000019 0.146121 -0.197815 -0.088370 0.066759 -0.314246 0.118958 0.012544 -0.075312 0.002692 -0.055349 -0.239738 0.243706 -0.249373 -0.122895 -0.176731 -0.082635 -0.039397 -0.113321 -0.317521 0.077767 0.147975 0.057162 0.111639 -0.200599 -0.218184 -0.058956 0.100967 -0.111731 0.112285 0.129094 -0.025948 -0.282284 -0.069871 -0.182159 0.072063 0.034023 -0.045635 0.007031 -0.386265 -0.157435 -0.035607 0.051597 -0.281287 0.225155 -0.042673 -0.100903 0.096649 -0.215212 0.030303 0.017922 -0.181126 -0.049757 0.307629 0.016888 0.016570 0.055662 -0.341470 0.436832 0.024612 -0.224107 0.268251 0.192137 0.039183 -0.068630 0.345858 0.003558 0.131793 0.073035 0.083630 0.148516 0.182554 -0.032013 -0.071409 0.167274 -0.023013 0.041643 0.029814 0.010888 -0.077213 0.073008 -0.068301 -0.095408 -0.359975 -0.116147 0.387209 0.004369 0.038694 0.124086 0.260188 0.007436 -0.003586 0.237882 0.122951 -0.049003 -0.424369 -0.235550 -0.027721
请问 0.464023 -0.055275 -0.358562 0.418523 0.181488 -0.254044 0.221746 0.266626 0.044228 -0.141597 -0.216545 -0.140589 0.233555 -0.109991 0.439098 -0.044841 -0.291264 -0.028912 -0.072161 -0.100423 0.190655 0.623276 0.154759 -0.050480 -0.059420 -0.004188 -0.582930 0.112571 -0.201731 0.359782 0.358175 -0.152424 -0.069767 0.387600 0.015040 0.319890 -0.014437 -0.110208 -0.175204 -0.472018 0.024397 -0.145022 0.406320 0.443852 -0.006459 0.206359 0.028578 -0.423495 -0.114041 -0.038175 -0.127889 0.336657 0.184879 0.034770 -0.099709 0.071224 0.032087 0.350197 0.131360 0.134463 -0.149758 0.238090 0.185158 -0.014606 -0.033556 -0.056006 0.113509 -0.031404 0.146000 -0.021294 -0.253992 0.049669 -0.000863 0.094443 0.066223 -0.058071 -0.060410 -0.076857 -0.216801 0.010686 0.105087 0.179959 -0.005094 -0.054108 -0.053793 -0.019922 0.227060 0.420184 -0.140282 -0.671200 0.438259 0.115282 -0.186820 0.049574 0.049234 0.175160 -0.045784 0.072349 0.075100 -0.039839 -0.117749 0.105641 -0.194393 0.206479 -0.202993 0.095528 0.234926 -0.281494 0.068974 -0.091209 0.451726 -0.155870 -0.205455 0.193275 0.170630 0.043544 -0.056795 -0.137883 -0.139168 -0.425224 0.569233 -0.483966 0.176458 0.074166 -0.082618 0.033317 -0.091855 -0.038290 -0.269614 0.039225 0.061851 0.166446 0.221568 -0.311613 -0.301789 -0.205156 -0.193231 -0.494186 -0.303248 -0.062423 -0.006612 -0.290743 -0.219404 -0.460475 -0.002218 -0.086579 -0.260750 0.042286 -0.032056 0.090476 -0.441319 0.062609 -0.217906 0.140001 -0.189738 0.042816 0.213927 0.169598 0.189927 -0.179292 0.496424 -0.461364 0.037651 0.552293 0.093370 0.007917 0.123703 0.217489 0.177047 0.006416 0.233300 -0.094781 0.166950 0.072959 0.019743 0.146421 -0.356864 -0.005666 0.175633 0.450137 0.128586 0.059641 0.047248 0.061337 0.257885 0.195062 -0.445062 -0.008100 0.284809 0.051899 -0.107035 -0.199748 -0.110193 -0.271182 -0.050253 0.316706 -0.581159 -0.638851 -0.109829 0.397766
这款 -0.067378 -0.430331 -0.121486 -0.083172 0.259356 -0.231698 0.092554 -0.033344 0.502285 0.443284 0.005525 -0.229728 -0.312070 -0.029533 0.110278 0.226273 0.368239 -0.312854 -0.048691 -0.190639 -0.270357 0.118396 0.521074 0.128499 -0.143963 -0.157865 -0.078875 0.339094 -0.035756 0.234503 0.341323 -0.327221 -0.116560 0.094686 0.342301 -0.213363 0.107329 -0.128536 -0.764873 0.085888 0.273499 -0.213117 0.247516 0.356099 0.193913 -0.301395 -0.101819 -0.388063 -0.281737 0.076689 -0.583936 -0.381375 -0.497317 0.214190 -0.220436 -0.140768 0.302577 -0.008736 0.209537 0.022226 0.052633 0.352865 -0.314810 -0.258521 -0.062040 -0.304483 -0.219586 -0.014356 0.350961 0.241701 -0.065755 -0.064582 0.217321 0.484783 0.085519 0.525407 -0.175025 0.183727 0.378288 -0.022094 -0.104434 0.215880 0.165674 0.527533 0.073940 -0.308013 -0.231822 0.475837 -0.254852 -0.435852 0.164830 0.204456 -0.141179 -0.387962 0.512698 0.121264 0.153714 -0.177151 -0.084416 0.150576 -0.374044 -0.075387 -0.211721 -0.203004 -0.260892 -0.094076 -0.017667 -0.059106 0.285890 -0.178048 -0.290725 -0.038750 0.311652 0.238341 0.140006 0.252643 0.351797 -0.263885 0.168080 0.017791 0.117072 -0.033330 -0.267302 -0.033286 0.362805 0.055214 0.274267 0.201946 -0.305521 0.087343 -0.030563 -0.079214 -0.012079 -0.403057 -0.274173 -0.128639 -0.227870 -0.369988 0.104806 -0.070418 -0.481811 -0.437257 -0.290841 -0.137393 0.140639 -0.104744 0.104626 0.099287 -0.134753 0.231681 -0.257650 -0.396536 0.081497 -0.233605 -0.249175 0.490305 -0.050394 0.218775 -0.088918 -0.508166 0.562170 -0.166576 -0.281056 0.589412 0.187416 0.149754 -0.367228 0.114953 -0.087411 -0.037192 0.492730 -0.142166 -0.205879 0.102669 -0.308102 0.191731 0.291873 0.311768 -0.243140 -0.156917 0.060918 -0.287128 0.015660 -0.006731 -0.228927 0.071755 -0.174730 0.678679 -0.017056 0.179505 0.080749 0.015231 0.035114 -0.084637 0.115944 0.403306 0.453086 -0.099079 -0.179705 0.305018
自动 0.214147 0.204174 -0.036684 -0.055873 0.308955 -0.178783 0.005757 0.002443 0.249184 -0.167552 -0.167233 -0.074816 -0.046067 0.271153 -0.173675 0.097630 0.308409 -0.293626 -0.098472 -0.410532 0.088982 0.190354 -0.103156 0.086059 -0.062575 0.035452 0.006456 0.379185 -0.359790 -0.109846 0.307888 0.218634 0.265111 0.003963 0.094851 0.163613 0.519246 0.350181 -0.361122 0.179485 0.087957 0.149278 0.771202 0.043118 0.202435 0.077516 -0.478272 -0.819881 -0.121082 -0.142188 -0.512759 0.088337 0.219985 -0.029290 -0.362174 0.360137 0.204604 0.509117 0.308327 -0.331770 0.334928 0.440657 0.032299 -0.082523 -0.144011 -0.195946 -0.183613 -0.192796 0.242773 -0.031229 -0.168454 0.091235 0.369771 0.342635 -0.053463 0.163951 0.059170 -0.158943 0.400200 -0.233274 -0.134963 0.065518 0.048539 0.328820 0.114512 -0.249231 -0.318435 0.109294 -0.312002 -0.253256 0.357722 0.092882 0.363966 -0.080120 -0.149059 0.145630 -0.014117 -0.257757 -0.032208 -0.363785 -0.383936 -0.418068 0.100832 0.102672 -0.048107 0.144157 -0.069408 -0.325336 0.011312 -0.262530 -0.216568 -0.159224 -0.154714 -0.543451 -0.101778 0.259681 -0.297353 -0.085068 -0.064943 -0.120053 0.443417 -0.325727 0.088080 -0.109964 0.155523 0.247450 -0.200129 0.147915 -0.064586 0.066867 0.042902 0.262883 0.087475 -0.385407 -0.231336 0.165815 0.204209 -0.291206 0.253645 -0.031523 0.023021 -0.666470 -0.709141 -0.261621 0.031348 0.041293 -0.080601 -0.011778 0.152071 -0.228946 -0.112551 0.018473 -0.193227 -0.478970 0.125427 0.133787 0.323040 -0.184234 0.064388 -0.351721 0.727019 -0.276421 -0.162865 -0.003246 0.154189 0.061475 -0.372600 0.255857 0.437293 0.133232 0.185722 -0.035693 0.217691 0.195526 0.098194 0.047343 -0.268050 -0.090481 -0.576851 -0.091751 0.017708 0.147115 -0.058553 0.107239 -0.227920 -0.091196 -0.260134 -0.429251 0.008433 0.298935 0.218224 0.080258 0.209864 0.019451 -0.259143 0.115052 0.395178 -0.183626 -0.243890 0.094480
终身 0.063209 -0.123369 0.130571 -0.172926 0.101225 0.088156 -0.423445 0.352756 0.011709 0.374905 0.014145 0.211729 -0.089536 0.358132 -0.607370 -0.293773 0.128695 -0.331233 -0.088951 -0.354798 -0.075524 0.094015 -0.141873 0.373046 0.356533 0.567408 -0.252868 0.224440 -0.068332 0.017831 -0.020321 -0.216951 0.421077 -0.263616 0.013300 -0.143154 0.250409 0.013404 0.219186 -0.046364 0.055186 0.300205 -0.025049 0.001632 -0.018596 0.118208 0.006927 -0.891196 0.098859 -0.066856 0.240307 -0.159136 -0.421880 0.300680 -0.423508 -0.220900 -0.018803 0.242886 0.249710 0.271917 0.191028 0.388265 0.358326 -0.158591 -0.044775 0.040285 -0.297964 0.074710 -0.110876 -0.171153 -0.109846 0.179019 0.011841 -0.094369 0.269973 0.054444 0.139981 0.134883 0.235579 -0.004013 -0.060717 0.090033 -0.063588 0.298770 0.325402 -0.037213 -0.150101 0.103803 -0.409463 -0.172766 0.124666 0.137732 -0.067418 -0.230640 -0.018362 -0.073240 -0.050040 -0.034684 -0.090497 -0.533575 -0.236210 -0.040189 -0.331750 0.190951 -0.236546 0.730150 -0.054923 -0.363761 -0.249055 -0.093632 -0.011385 -0.408487 -0.338604 -0.165853 0.143500 0.198797 -0.470271 -0.074776 -0.158552 0.054936 0.060204 0.048654 0.047139 0.250169 0.539074 -0.342647 0.088208 0.027898 -0.026871 -0.177360 0.267371 0.259257 0.044860 0.146056 -0.219912 -0.347688 -0.520993 -0.129582 -0.020062 0.102178 -0.285481 -0.667204 -0.158951 -0.138766 -0.006949 -0.274044 0.558582 -0.159668 0.178892 -0.503014 -0.077125 -0.058184 -0.320201 0.123760 -0.108428 0.140434 0.576936 -0.018948 -0.149046 -0.350044 0.601718 0.169716 -0.003722 0.234971 0.051968 0.119914 0.068921 0.310547 0.374481 0.210329 0.314253 -0.092293 -0.295371 0.151326 0.417590 0.024434 -0.364107 -0.204088 0.189033 0.159663 0.016908 0.034415 -0.153376 0.124409 -0.072770 0.223123 -0.104056 -0.151542 0.075482 -0.093867 -0.134220 -0.130701 0.295815 -0.303269 0.169733 0.798238 0.258515 -0.332804 -0.555353 -0.208408
机油 0.406630 -0.039866 -0.152110 0.356843 0.391842 -0.424797 0.363491 0.062502 0.037433 0.092750 -0.185692 -0.090244 -0.472987 -0.324786 0.028314 0.079343 0.069529 -0.540126 0.168522 0.042620 -0.064317 -0.201200 0.338025 -0.103321 0.133634 -0.159851 -0.207075 0.239613 0.064311 0.500962 -0.295712 -0.208094 0.002485 -0.067460 -0.047081 0.110851 0.246020 0.218883 -0.404166 0.389832 0.668336 0.277756 0.387758 0.531099 0.263390 -0.570349 -0.351884 -0.285141 0.322365 0.169797 -0.155170 -0.022816 -1.092690 -0.156030 -0.497670 0.196931 0.373503 0.280166 -0.338387 -0.146766 0.256364 0.170067 0.265456 -0.107834 -0.739479 -0.044542 -0.310359 0.283868 0.053095 -0.164368 -0.486360 0.489046 0.399020 0.007356 0.111958 0.204251 0.217694 -0.581787 0.298941 0.242288 0.237574 0.010235 -0.059210 -0.130548 -0.079217 -0.566652 -0.218905 0.053770 0.147880 -0.260003 0.559085 -0.423183 0.101834 -0.231782 0.143515 0.501494 -0.009335 0.036998 0.209744 0.183836 0.108215 0.069484 -0.290892 -0.253827 -0.397606 -0.148131 0.165927 -0.635648 -0.219085 0.148867 -0.163773 0.025560 0.232933 -0.047529 0.186309 -0.357826 0.053347 -0.170038 -0.255224 -0.359289 0.221117 -0.145524 0.233804 -0.039089 0.413142 0.193270 0.218735 -0.387928 0.211462 0.203725 0.219876 -0.437848 0.235449 0.284847 0.003024 0.209349 -0.450933 0.199455 0.214339 -0.089564 -0.166179 -0.329584 -0.510458 -0.997466 0.805894 0.124508 -0.319792 0.187524 0.256700 0.339647 0.267020 -0.230373 0.215828 0.397239 -0.152295 -0.206281 0.296150 -0.145216 0.153810 -0.203434 0.570988 -0.115268 -0.353486 -0.065929 0.305642 -0.005799 -0.473105 0.517113 0.572498 0.025458 -0.020810 -0.184626 -0.421382 0.143382 0.204977 0.634050 0.392022 -0.053037 0.163140 0.046935 0.194151 -0.160906 0.028615 0.591316 -0.202190 0.389830 -0.427544 0.393925 0.049910 -0.001876 -0.104770 -0.529339 -0.009848 0.085258 0.191039 -0.165537 0.569115 -0.279002 -0.387168 -0.169953
版 -0.281701 -0.367849 -0.117082 -0.046399 0.568971 0.173894 -0.061709 -0.183475 -0.030860 0.245843 -0.159141 -0.060581 -0.009657 -0.213701 0.228651 -0.120903 0.481405 -0.325363 -0.644782 0.062239 -0.224377 0.168738 0.069957 0.250369 0.182463 -0.054894 -0.284807 0.470119 -0.065729 -0.323675 0.121297 0.038454 -0.055098 -0.100501 0.167780 -0.253940 0.376344 -0.197460 -0.214003 0.069590 0.145089 0.259208 0.269285 -0.110904 0.044932 -0.200654 0.037832 -0.817087 -0.139356 0.152896 -0.181695 -0.059858 -0.248345 0.171593 -0.236415 -0.158622 -0.170707 0.308438 -0.074373 -0.045727 0.360192 0.237386 -0.223963 -0.180961 0.046394 -0.240642 -0.350634 0.093256 0.313405 0.047617 -0.201363 -0.098595 0.257018 0.476574 0.057250 0.773900 0.017317 -0.081173 0.171010 -0.194367 -0.078793 -0.009487 0.201057 0.218075 0.011917 0.046116 -0.213994 0.169525 -0.093873 -0.320326 0.251532 -0.171349 0.016601 -0.325564 0.162511 0.077161 -0.101956 -0.069653 0.101236 -0.010636 -0.099003 0.091919 -0.127025 0.017092 -0.331450 0.300511 0.179460 -0.263662 0.150148 -0.305459 0.130299 -0.479926 0.226968 0.232825 -0.227279 0.014967 -0.526928 0.092662 0.041010 -0.011568 0.210700 -0.129287 -0.047766 0.009963 -0.055970 0.379790 0.301424 -0.098313 0.124899 -0.078422 0.072285 -0.085761 0.134006 -0.325488 -0.283252 -0.313380 -0.169859 -0.321585 0.197006 0.148938 -0.211785 -0.214027 -0.092797 -0.287457 0.287419 0.230911 0.458225 0.222995 -0.299334 0.295627 0.026044 -0.307929 -0.211943 -0.401914 -0.047978 0.043042 -0.015186 -0.161790 0.339159 0.195846 0.722449 0.015514 -0.269945 0.254556 -0.026127 0.104095 -0.552853 0.074938 0.053855 -0.099491 0.363006 -0.045732 0.170095 0.089760 -0.046249 0.157302 -0.058847 -0.048210 0.115888 -0.161637 0.145435 -0.333469 -0.039269 0.044724 0.146561 0.116046 -0.141113 0.856827 0.057026 0.213838 -0.077297 0.433241 0.277180 -0.165431 0.171010 0.660228 -0.071933 -0.049991 -0.288264 0.204128
上 0.207592 -0.334946 -0.175120 0.354993 0.204081 -0.035386 -0.015843 0.431632 0.246055 0.210290 -0.210971 -0.062221 -0.294472 -0.102817 0.098942 -0.395262 0.161279 -0.377555 -0.057232 -0.123915 -0.028566 0.106477 -0.162637 0.203791 -0.008248 0.195192 0.097774 0.195729 0.115922 0.034176 0.010364 0.055804 -0.133272 0.004356 -0.394536 -0.172679 0.091745 0.441156 -0.291089 -0.023687 0.091559 0.078236 0.289200 0.025527 -0.317484 0.027894 -0.169899 -0.595691 0.009652 -0.077844 -0.326910 -0.082633 -0.342171 0.111516 0.082155 -0.021316 0.050605 0.127912 0.609225 -0.061441 -0.114853 0.183468 0.273054 0.069875 0.061678 -0.209377 0.079523 -0.001647 -0.007201 0.256170 0.089402 -0.079464 0.170401 0.355563 -0.229013 0.131523 0.109827 0.030226 0.401073 -0.118564 -0.019201 0.208396 -0.005133 0.146897 0.132113 -0.371688 -0.115841 -0.027267 -0.521284 -0.132851 0.105396 -0.027325 0.245074 -0.126493 0.294293 0.043676 0.051960 -0.014107 0.050382 0.158794 0.220987 0.371480 0.051468 0.126081 -0.328088 0.270723 0.251709 -0.403899 0.179767 0.050555 -0.107612 -0.400085 0.204505 -0.194396 0.144645 -0.451560 -0.060060 -0.229507 -0.140600 -0.135089 0.007457 -0.294866 0.230212 0.276089 -0.027183 0.040906 -0.038398 0.210444 0.023746 0.334274 -0.143896 0.132080 0.046413 -0.256170 -0.128718 -0.010175 0.072527 -0.251872 0.131126 0.018821 -0.065102 -0.273205 -0.303579 0.100866 0.395949 -0.160754 0.253569 0.263323 -0.093649 -0.051889 -0.112292 -0.268579 -0.085321 -0.224548 -0.093654 0.203524 -0.056233 -0.032154 -0.098018 -0.232225 0.232302 -0.155319 0.157309 0.535989 0.148034 0.091995 -0.231475 0.183639 0.099340 0.072876 0.043519 0.073014 -0.014182 -0.050462 0.009688 0.143993 0.016738 0.168730 -0.066344 0.098104 -0.390514 0.034965 -0.300957 0.221726 -0.120724 -0.295924 -0.081303 0.444768 -0.044372 -0.117523 0.230087 0.126721 0.184430 0.027838 0.205730 0.162596 -0.094462 -0.198826 -0.028617 0.044349
是否 0.316004 -0.170417 -0.640792 0.361503 -0.078622 -0.091156 -0.041567 0.203201 0.271914 -0.083923 -0.037930 0.059489 -0.110554 0.079703 0.026605 0.062194 0.323526 -0.260562 -0.008766 -0.089889 0.245202 0.025062 -0.035337 -0.100997 -0.018987 0.132371 -0.337121 -0.030053 0.108494 -0.046596 -0.041457 -0.255328 -0.295569 0.062296 0.073953 -0.259715 -0.016045 0.077853 -0.291821 0.189299 0.032437 0.213179 0.695041 0.426011 0.072551 0.318561 -0.202520 -0.583716 0.089218 0.191725 -0.211879 0.078482 -0.494519 0.098186 0.051451 0.185021 0.141918 0.270268 0.161525 0.169392 0.087634 0.268238 0.216181 -0.360577 -0.051000 0.007722 0.230304 0.024722 -0.061994 -0.010432 -0.564800 0.293390 0.248770 0.225228 0.011246 0.060808 0.246691 0.065148 -0.045915 -0.071900 0.136504 0.147969 0.060331 0.092725 0.329911 -0.254538 0.282531 -0.201312 -0.151247 -0.455648 0.298315 -0.068281 -0.153072 -0.171302 -0.074955 -0.000513 0.347768 -0.328650 0.053155 -0.173635 -0.072922 -0.034023 0.081928 0.105135 -0.513190 0.132192 -0.299540 0.002286 0.149505 0.036865 -0.098323 -0.199280 0.096742 -0.229821 0.025979 -0.050431 -0.022523 0.061610 -0.220414 -0.285749 0.346169 -0.621832 -0.015887 0.441775 0.071456 0.146435 -0.064311 -0.097026 -0.123296 -0.043952 -0.080363 0.080075 0.159747 0.072402 -0.505024 -0.566799 -0.048395 -0.366718 -0.317300 0.027976 -0.289268 -0.339797 -0.896730 -0.114191 -0.079546 -0.297169 0.225685 0.343290 -0.051205 0.174925 -0.113024 0.229276 0.002809 -0.025707 -0.064202 0.130019 0.459736 0.076372 -0.194162 -0.043233 0.453318 -0.051579 0.099817 0.360247 0.395073 -0.229273 0.020500 0.232788 0.278662 0.465662 0.062587 0.019098 0.101171 0.005230 0.001510 -0.002061 -0.214936 -0.055147 0.123045 0.142659 0.260001 -0.157304 0.085241 0.109598 0.079795 0.086564 -0.521605 -0.016075 -0.049346 -0.111770 0.223684 0.019437 0.047437 -0.063892 0.011668 0.001039 -0.046969 -0.420985 -0.133518 -0.104277
抖动 0.299177 -0.265247 0.090699 0.298416 0.554371 -0.501422 0.125824 -0.091767 0.567209 0.129034 -0.453137 -0.061150 -0.219377 0.044410 0.117733 -0.002014 0.161214 -0.207305 0.291093 -0.274325 -0.297942 0.297209 -0.084460 0.055581 -0.300527 0.105646 0.177045 0.279011 -0.005569 0.062792 0.242951 -0.256873 0.185437 0.045725 0.174938 0.381956 0.098969 0.015967 0.225074 -0.253690 0.500180 0.069537 0.421231 -0.307163 0.351196 -0.148497 0.030587 -0.472575 0.275101 0.277244 -0.212132 0.171792 -0.259726 -0.294013 -0.348984 0.628715 0.161375 0.176200 0.437156 0.065351 -0.103088 0.475088 0.221775 -0.246446 -0.022423 0.433481 -0.406263 0.258481 -0.211500 0.153036 0.082617 0.004999 0.699005 0.048224 0.059120 -0.112754 0.226764 -0.126539 0.037249 -0.109764 -0.136107 0.273708 -0.056981 -0.139969 -0.065954 -0.544372 -0.206903 0.425570 -0.172969 -0.541153 0.053937 0.068328 0.143405 -0.070972 0.295337 0.172656 0.208718 -0.078213 -0.270148 -0.115738 -0.125264 -0.246316 0.058311 0.463562 -0.048122 -0.147077 -0.333540 -0.441118 0.446757 0.097915 -0.012070 -0.073062 0.161370 0.151674 -0.022637 -0.148315 -0.182139 -0.061533 0.176489 -0.249605 -0.022143 -0.301646 -0.088368 0.043374 0.562195 0.299317 -0.145536 0.135428 0.429704 -0.219149 -0.336869 -0.049938 0.278097 -0.141849 0.001465 0.054843 -0.023489 -0.230039 0.372854 -0.125444 -0.219071 0.076336 -0.554922 -0.766146 -0.061334 0.292828 -0.172263 -0.018010 0.276254 0.006600 -0.285121 -0.120474 -0.296261 0.066739 -0.081471 -0.077181 -0.447496 -0.406633 0.264565 -0.092278 0.576770 0.033327 -0.187661 0.490372 -0.272378 -0.102166 -0.431516 0.110746 0.398642 -0.308729 -0.183676 -0.014435 -0.081045 0.372264 -0.279398 0.115352 0.464059 0.119298 0.065223 -0.144227 0.569683 0.101261 -0.003580 -0.214561 0.117601 -0.035425 -0.580057 0.172213 0.195246 -0.030035 0.427715 -0.270597 0.232197 0.230299 0.031322 0.070309 -0.218230 -0.011198 -0.478087 -0.108549
出现 0.334797 -0.206924 0.087703 0.474051 0.264347 0.116057 0.004643 -0.076922 0.403847 0.366621 0.033167 0.242391 -0.030266 -0.169515 -0.092759 -0.103281 0.096228 -0.266544 0.174583 -0.258674 -0.091139 0.357487 0.084565 0.007083 0.013807 -0.108142 -0.250729 -0.199385 -0.152016 0.121985 -0.070848 0.183366 -0.163926 -0.026517 -0.025110 -0.303456 0.125475 0.383227 -0.310204 0.214681 0.200745 -0.123553 0.628923 0.231776 -0.329664 0.257619 -0.281656 -0.501850 0.291385 0.022108 -0.522893 -0.131202 -0.218403 0.137804 0.196170 0.067470 0.053841 0.120007 0.230129 -0.300013 0.089329 0.501211 0.135778 -0.237473 0.012872 -0.087097 -0.102495 -0.189233 -0.237346 -0.191084 -0.209783 0.096455 0.144840 0.057579 -0.359309 0.210994 -0.045404 0.197497 0.061958 -0.329601 -0.072756 0.230704 -0.238499 0.294225 -0.109617 -0.206454 0.135029 -0.191343 -0.297909 -0.374017 0.207833 -0.041910 -0.225790 -0.288738 0.180031 0.293933 0.042342 0.051154 -0.277813 0.123803 -0.107680 0.431706 -0.018354 0.224917 -0.134170 0.327305 -0.001622 -0.597938 0.240886 -0.016677 0.057057 0.067939 0.156567 -0.134238 0.042292 -0.159152 -0.375761 -0.058914 -0.015267 -0.201098 -0.049284 -0.210814 0.062775 0.186026 0.187239 -0.259426 -0.267435 0.162654 -0.002544 -0.059878 -0.171523 0.003968 0.261526 0.055204 -0.179885 -0.134663 0.030972 -0.099480 0.040528 -0.217167 -0.146782 -0.165696 -0.321938 -0.234165 0.439721 0.036155 -0.088305 0.006045 -0.129919 0.013853 -0.177536 0.100271 -0.184246 0.057507 0.080541 -0.138872 -0.206377 -0.159672 0.324677 -0.013854 0.575240 0.064858 0.053907 0.435372 0.198716 -0.023050 -0.341511 0.084605 -0.087229 0.280813 -0.178210 0.195552 -0.022646 0.188067 0.638445 -0.154960 -0.013728 -0.060715 -0.033777 0.166509 -0.129671 -0.110360 0.023154 0.032061 0.310176 -0.034326 -0.182396 0.342346 -0.101913 -0.050829 0.177323 0.143080 0.513125 0.106383 0.348650 0.071482 0.164255 -0.387405 -0.359201 -0.068739
保养 0.147888 -0.403405 -0.099146 -0.107805 0.215890 -0.325062 0.183984 0.058295 0.139689 0.387079 -0.364101 0.324316 -0.035147 0.326374 0.007853 -0.147777 0.145947 -0.438896 0.418123 -0.104079 -0.174228 -0.136525 0.481028 -0.164128 0.439268 -0.308761 0.065473 0.457008 0.444720 0.293119 0.077242 -0.049921 0.281737 0.576988 -0.040711 0.059429 -0.024922 -0.111967 0.076527 0.058213 0.219895 0.310293 0.482798 -0.060859 -0.175517 0.120935 -0.119427 -0.468257 0.244576 0.158767 -0.206620 -0.750745 -0.628679 0.383663 0.021279 0.343079 -0.091586 0.382443 0.051051 -0.015129 -0.134040 0.163826 -0.110433 -0.035296 0.055777 0.557368 -0.144605 -0.131254 0.042134 -0.086904 -0.270615 -0.261645 0.228217 0.151046 0.500158 0.066704 0.305072 -0.574868 0.130883 0.081451 -0.107599 0.154400 -0.048734 0.610867 0.240582 -0.347518 0.077275 0.535397 -0.387166 -0.400823 0.717335 -0.443546 -0.088361 -0.133828 0.248196 -0.025735 0.467111 -0.233886 0.213316 -0.073947 -0.006373 0.164062 -0.097546 -0.354339 -0.416442 -0.277193 0.091502 -0.068363 0.281721 -0.196097 -0.340105 -0.151190 -0.131237 -0.229142 0.462481 0.059976 0.209991 -0.268849 0.152911 -0.398346 0.040004 -0.117959 0.069755 0.274307 0.282052 0.044810 -0.023304 0.353273 -0.004562 -0.320232 0.029906 -0.114049 0.134611 -0.112886 -0.368597 0.176577 -0.419201 -0.046676 -0.029271 0.168044 -0.364351 -0.106108 -0.504901 -0.866653 0.417126 0.369732 0.296181 -0.005041 -0.050612 -0.606910 0.161258 -0.668335 0.056218 0.033713 -0.296824 0.053201 0.353203 0.382672 0.257342 -0.064367 0.651055 0.143174 -0.356815 0.007780 0.098820 0.199780 -0.465114 0.276134 -0.091104 -0.040625 0.262648 -0.045841 -0.202758 0.086234 -0.341151 0.242526 0.131325 0.170948 0.338866 0.216716 0.598664 -0.033885 -0.054132 0.566072 -0.286052 -0.052416 -0.504851 0.074901 -0.277214 -0.378808 -0.116202 -0.515096 0.227601 -0.004220 -0.162989 -0.002560 0.190237 -0.621935 -0.491961 -0.247220
